{
  "architecture": "784-128-10",
  "optimizer": "pso",
  "final_loss": 4.0566078329589,
  "iterations": 500,
  "weights": {
    "hidden_size": 128,
    "linear1_weight": [
      -0.5440784280645673,
      0.9948495741059472,
      0.04588131491893377,
      0.13343680076715786,
      0.3870739898988128,
      0.4402796086398139,
      -0.3784018411975377,
      0.09497243893950681,
      0.474759839400164,
      0.14226184621879823,
      0.29638064090498734,
      -0.9182469268946731,
      -0.6550044453820707,
      -0.5663556603140988,
      -0.1656994110116939,
      0.3599683379107888,
      -0.15013198722436782,
      -1.0,
      -0.15502840830905476,
      0.29386355702089006,
      0.08127621585889622,
      0.1361770930753377,
      -0.11368082842553943,
      -0.173234733485216,
      -0.6850895750863782,
      0.8920004244596986,
      0.021081736497880282,
      -0.27768476758325067,
      0.044420940086462905,
      -0.3900062459679144,
      0.21572107140003827,
      -0.52716708318004,
      0.04734326716158688,
      -0.36066636858341433,
      -0.06740854124714869,
      -0.30393345981068043,
      -0.55186346950692,
      0.2622508986817592,
      -0.35017601006774357,
      -0.3660235970476687,
      0.6886593101527824,
      -0.33694982334987655,
      0.03922388743593755,
      0.39219554827092507,
      0.4766861926806452,
      -0.42911854741384414,
      0.13915587276135255,
      0.31872812020726193,
      -0.30602763893622176,
      0.37836906652588154,
      -0.05361956756882194,
      -0.00023508717474823165,
      0.9182818011011769,
      -0.019908158815945695,
      -0.3066644921443741,
      -0.5331194294750959,
      0.5346733273136515,
      -0.2477874103272697,
      -0.41897995489835094,
      0.24494913923134481,
      0.2609256881587412,
      -0.33521370724590777,
      0.23787509876408278,
      -0.0929439046886466,
      -0.5789554683922561,
      0.6822292362063703,
      0.010613869541246376,
      0.7195857749857031,
      0.0864587936000841,
      -0.025500913064587086,
      0.07506662734126725,
      0.6147311290311597,
      0.08780768639401963,
      -0.9190818052255139,
      -0.21889899205006508,
      -0.49171996537942686,
      0.04075557402607212,
      -0.27773179335084147,
      0.04706850116844436,
      -0.24648542654553676,
      0.32826682487618547,
      0.981970145004101,
      0.13224602676581498,
      -0.7339714545995508,
      -0.03230878599791784,
      0.2571921405703174,
      0.4506282371221561,
      0.4301349300384131,
      -0.04264768115108067,
      0.2688801380685662,
      0.17275162022790877,
      0.744748666329373,
      -0.16493742698546135,
      0.33392790688797697,
      0.11149570552853445,
      0.11210225083728523,
      0.3321220241549118,
      -0.18550814490769726,
      0.23624238492623725,
      -0.24251314063869245,
      0.294367733461929,
      -0.3472212225990375,
      -0.06736794424127687,
      -0.29494362192577467,
      0.009840394273447168,
      -0.28161586072690786,
      0.37423950729238437,
      0.3068053180900645,
      0.3933287401964213,
      -0.04073310797824578,
      -0.33372446613016066,
      -0.29138114198130205,
      0.2584875444473148,
      -0.07853218157657635,
      0.11846003201484938,
      -0.28742557960521026,
      0.2754655318444148,
      0.3740061523949339,
      0.002778291901932574,
      -0.3884200613206421,
      -0.0311377812502234,
      -0.9799533066194396,
      0.13772353010841165,
      0.15284507053511762,
      0.21609838320160432,
      0.06482671036255526,
      0.07687492841562993,
      -0.09981846584675226,
      0.11010389662408022,
      0.23615808824039455,
      0.2081682950791302,
      -0.278394316777935,
      -0.5093828738065023,
      0.260114693574089,
      0.16559156011020448,
      0.05813961687349853,
      -0.05010916760341093,
      0.25946013857614475,
      0.9996929536440035,
      0.3223666534225964,
      -0.22944227344958462,
      -0.3328043365095991,
      0.11074343974178744,
      0.1919580851792105,
      0.5447456601623301,
      0.24935998886859426,
      0.19056692833301603,
      0.2327154281428129,
      -0.2874098793958334,
      -0.38706970150088965,
      -0.3770994029743137,
      -0.517924618414515,
      0.1362847715683701,
      -0.44908249558024194,
      0.25781237577440375,
      0.5578686552468891,
      0.013452405596012212,
      0.49153662600095904,
      0.21798573730085538,
      0.11696021785347596,
      0.33561964385653964,
      -0.052337902772955275,
      0.20804784218560107,
      -0.7531681390379299,
      -0.11168483514793018,
      -0.02600456496192244,
      0.46981994616428746,
      0.3801651202282118,
      0.029508796537581386,
      -0.2832146335721854,
      -0.34459283617535186,
      -0.12589337372994802,
      0.09821417657676215,
      -0.3716817935660532,
      0.28265707654551797,
      0.4601634406279898,
      -0.5353176383492498,
      0.19166209197782563,
      0.305905304352703,
      -0.04956930859734168,
      -0.23950734926973247,
      -0.048687025585399654,
      -0.05056864669794981,
      -0.12027730267870243,
      -0.12190303124047208,
      -0.0938109335891712,
      0.29068394773852135,
      -0.64354192782708,
      0.38211414573315483,
      -0.091486142152089,
      -0.2968761744073502,
      -0.9002047026012975,
      0.25457397916354035,
      -0.054813959192832565,
      0.15405521886086457,
      0.682035960580981,
      0.3048297238514547,
      0.3462357342839473,
      -0.5644340260724158,
      0.34237512170192685,
      0.775887251953439,
      0.05723651051599213,
      -0.12512445725575774,
      -0.19157850334099386,
      -0.0616232715091544,
      0.0975891208845033,
      0.007177318462067289,
      0.05966908261099786,
      0.04364504735156421,
      -0.008543184858944616,
      0.1135913596603394,
      0.2740333206075588,
      -0.2428425041345196,
      0.08756978258378967,
      0.261571515538076,
      -0.7042118669512835,
      0.12300430023052214,
      0.3769538843634098,
      0.1549191667254986,
      -0.8081443696159477,
      -0.6840341149801938,
      0.1496724393051492,
      0.19264724979250702,
      -0.19986823865418996,
      0.17126422274809106,
      -0.11337021625418132,
      -0.7604979059639564,
      0.20402071280427586,
      0.09463587387604688,
      -1.0,
      0.48124233531161975,
      0.433519863941505,
      -0.15218182408904601,
      0.97847350419619,
      -0.758741668075273,
      0.9319392355237506,
      0.12193692925526717,
      -0.5063996361115982,
      -0.6835739842816153,
      0.00636737782885274,
      -0.06893935560681048,
      0.21632841469039268,
      -0.6125808067083723,
      0.06507359409046434,
      -0.6309144921970481,
      0.3134385444141064,
      -0.020713239742319346,
      -0.07763097785128281,
      -0.016014158294768675,
      -0.5003119909737234,
      0.14074898066443653,
      0.2573752042027786,
      -0.1302290684660221,
      -0.4237199936013041,
      0.3412345022994522,
      0.22254942123938345,
      0.0008781388912144387,
      0.3539010264387268,
      -0.5373307497848436,
      -0.21259961064135424,
      -0.30016289275876235,
      -0.5262515013353359,
      -0.07271078717548748,
      0.09070368668003634,
      -0.4891031062679254,
      0.20628246909935521,
      0.34191608324770734,
      0.06389256674839125,
      -0.48901541656510267,
      0.1484564825240059,
      0.5727735959742262,
      0.545182915640014,
      -0.2142223974451874,
      -0.39853584991177216,
      -0.08465347516199137,
      -0.2528024409392863,
      -0.275188274949115,
      0.6153819984184754,
      0.5286980081730448,
      0.40857884723993954,
      -0.4832227824157264,
      0.26147631250019787,
      0.059970459330024595,
      0.14975977686381756,
      -0.20165516061271843,
      0.15956903176595638,
      -0.40307841943112993,
      -0.07781143232993962,
      -0.19450459851315344,
      -0.7081094796876592,
      0.21287838113308916,
      0.20460476763888463,
      -0.2338087438133621,
      -0.6347492900487898,
      0.25858729206682074,
      0.05818317837646664,
      0.013066574587201,
      0.08217427554971807,
      0.059188658234673404,
      0.15937341980452036,
      -0.31781591873306225,
      0.07466701689536799,
      -0.0859097185709121,
      -0.5945579047919516,
      -0.235518156759288,
      0.12272501553680541,
      -0.37009965921380567,
      0.5862264546859797,
      -0.030401897193675646,
      0.6040342859458198,
      -0.21096520895265253,
      0.37735305495655647,
      0.1549736314812172,
      1.0,
      0.46753631011898417,
      -0.4575359207547594,
      0.4253395138097266,
      -0.08452831107918844,
      0.40309693109831507,
      0.0398691118542962,
      -0.02433491329168285,
      -0.4662681818289138,
      -0.7437156334436908,
      0.848176185565751,
      -0.11206768040115989,
      -0.4495227309761019,
      0.4942878268011806,
      -0.00786546173940123,
      -0.1398693608063009,
      -0.31904838432927674,
      0.17169056127725102,
      -0.3307773909369088,
      -0.1407693887981174,
      0.04510873698343345,
      0.30651205352500965,
      0.06962356976750185,
      0.04037020827141225,
      -0.5593804489768727,
      0.04902264095217426,
      0.26450073396370916,
      -0.2612943433988704,
      -0.6851060032786495,
      -0.2134562024914646,
      0.14980593404247577,
      -0.1659889981797947,
      -0.9230632571281576,
      -0.27555584816158696,
      0.4652789385198837,
      -0.1563715251842176,
      0.2580352371493593,
      -0.5254537021423552,
      -0.6019974401694793,
      0.2605698642718093,
      -0.2851891395974057,
      -0.032080031139971335,
      -0.10407811672475087,
      -0.2488960778419981,
      0.05442875832925765,
      -0.13491872845890962,
      0.27602971882939487,
      0.11801650159732402,
      -0.13050958420022182,
      -0.029458662441771734,
      0.3880309029360515,
      -0.01903274633619021,
      0.1134424801249852,
      -0.16283390822990068,
      0.48105866041831075,
      -0.21990783596600555,
      0.5056211825488857,
      0.25804788613098373,
      -0.0653828499087413,
      -0.3222028446767683,
      -0.34711291090151297,
      -0.6561914813311697,
      -0.836463600433231,
      -0.008823541329333277,
      0.2845016868610974,
      0.8940343506498615,
      -0.22470455641488124,
      -0.17586477555956853,
      -0.30554638385119665,
      -0.2206481080442281,
      0.28941146919655714,
      -0.08259002506543063,
      -0.09891730713030233,
      0.09306932910748732,
      -0.16477342493140862,
      0.5505742573127805,
      -0.5084563536797669,
      -0.41147229773855315,
      0.4283046169824738,
      0.0944145049893858,
      -0.10321990805697887,
      -0.1110869148970829,
      -0.22909746002351855,
      0.10448269691579946,
      0.03626322430311789,
      -0.23416493311350056,
      -0.017483566380573048,
      0.11414276287003958,
      0.006783068336658239,
      0.5399192551632656,
      -0.11700693710853334,
      0.15338957178612367,
      -0.028484176419668883,
      -0.20054629421160403,
      0.09560602023096965,
      -0.15860663265813807,
      -0.18953950811417286,
      0.5691147250669542,
      -0.09881744819334329,
      0.3141766703899709,
      -0.2195613467381721,
      0.3178906753865705,
      0.29334276319738284,
      0.08846216347736419,
      -0.9713096329364382,
      0.31395300687149036,
      -0.10994909376447745,
      -0.2378884245118435,
      0.7171523455679836,
      0.0520665130196566,
      0.6954801685495965,
      0.24736471948962402,
      0.5435172028498761,
      -0.12149205032291022,
      -0.6187397858301407,
      -0.1811465879111679,
      -0.036546749684339463,
      -0.4270285542421133,
      -0.18442939910457737,
      -0.7592394196648976,
      0.4631028239645522,
      -0.16216174788010468,
      -0.574136659972131,
      0.17660226133479434,
      0.05257760849696939,
      0.034799657809166384,
      -0.006764944214691565,
      -0.416103718300206,
      0.0888601361579838,
      -0.03287778667821366,
      0.30289546468943207,
      -0.47832079800472954,
      0.1599268390251763,
      0.4062664935222242,
      0.9145969837288211,
      0.20916311021712627,
      0.10883234123463213,
      -0.31563121533456023,
      0.4858254883673199,
      -0.6543705966190116,
      0.33256290554813867,
      -0.08515504251476547,
      -0.16422000213863105,
      -0.37357101811213633,
      -0.5057713026731105,
      0.7819485235850763,
      0.6392143747721936,
      0.5546444317116483,
      0.08002103259752566,
      0.3548133762963326,
      -0.3083593834364221,
      0.13554613420547165,
      -0.2596489430508122,
      -0.3599904030454376,
      0.3544948723463838,
      -0.21968493275985151,
      -0.22075491127121952,
      -0.17261222835634624,
      -0.23709209606784853,
      0.22934856180190813,
      0.4651344420076202,
      0.2902843600427534,
      -0.13997481082123447,
      -0.13055964175819076,
      -0.11242801522865595,
      0.08683067412963053,
      0.46479400593476117,
      -0.5245187154574386,
      0.25466595169216616,
      -0.32582949148414614,
      0.24662106598857408,
      0.17427303310355904,
      -0.010537486370326365,
      -0.0305041276503875,
      -0.12019347273508749,
      0.41366591349898274,
      0.34684555725852384,
      -0.213213105358236,
      0.448081738621882,
      0.18230606932400695,
      -0.14397904585279517,
      -0.24856459250253726,
      -0.014319191768664308,
      0.9943051000471114,
      0.1085925622905286,
      0.27274396341060925,
      0.3597821050511719,
      -0.1737949205472305,
      -0.06243638479521128,
      0.2292564687075947,
      -0.11796028254875585,
      -0.15204841416820197,
      -0.06913600862827275,
      -0.5446396247771265,
      0.571306245816817,
      0.16885204145865332,
      0.38259752365375854,
      0.0396564602924839,
      0.5487352618816508,
      -0.3512247052961913,
      -0.28334468384309075,
      0.055515769830915405,
      0.3537104108488576,
      -0.6828966583954703,
      -0.9329779404100619,
      -0.40425291456599866,
      -0.15326320426097517,
      -0.7908210346180164,
      0.030009195565251334,
      0.12555676474273209,
      -0.10711893349527525,
      0.46349166381617996,
      0.06901342287112307,
      -0.34952095121281274,
      0.10545038482081062,
      -0.01760581216857137,
      0.2722901669359893,
      0.49230988415984756,
      0.0663137541474278,
      -0.851228869893078,
      0.650208621002509,
      0.6708362256275252,
      0.40616803159584547,
      0.5467089255120527,
      -0.1516815657090486,
      -0.1358821306921981,
      0.2614091145918865,
      0.009029017057972866,
      -0.02231213761444601,
      0.049186803098154756,
      0.35381202234934905,
      -0.07201937040182997,
      0.049012886451377274,
      -0.499743601157433,
      -0.9685631772811245,
      -0.2756172208769501,
      -0.029075356660564405,
      0.39972738446178463,
      0.020792765603240268,
      0.27856966195146265,
      0.346257756792157,
      0.46431477731767956,
      -0.2512451907655592,
      -0.38821264661025484,
      -0.7699004361260806,
      0.32986277228952604,
      -0.257715314259712,
      -0.3220987291820622,
      0.5069397133527859,
      -0.02778456207586394,
      0.5313467014780755,
      0.0822040273128416,
      0.1830288998204622,
      0.2614515522561564,
      -0.10719047426059053,
      -0.04195635931296935,
      -0.33100307089175374,
      -0.44222187638970584,
      -0.015731791811363707,
      -0.6287494704396164,
      0.33921421838359184,
      -0.7838908981858426,
      0.5454965962557933,
      0.43873878319097137,
      -0.1549551043457695,
      1.0,
      0.19524491556436696,
      -0.2949477191109613,
      0.11791124058530776,
      0.32151603887032154,
      0.14773438033883995,
      -0.2584177474052097,
      0.15608939524663973,
      -0.5401893608026196,
      -0.5289839160958815,
      0.5940719522531372,
      0.5175108376743817,
      -0.009077226879085527,
      0.40259925593064094,
      0.05226500921097388,
      -0.2636823266996385,
      -0.5181577142326803,
      0.4712819368196947,
      -0.02782144466095054,
      0.6257490061439356,
      0.16737968149682403,
      0.63891417248668,
      -0.18487387160276178,
      0.1654627547487668,
      -0.27396691206844537,
      -0.29571171290494547,
      0.3582829932954954,
      0.009487292136394848,
      -0.14578819221594896,
      0.06387202775514506,
      -0.21750905519779812,
      -0.04264475781028423,
      -0.5070550158728183,
      -0.02470640149336228,
      -0.27236387496793546,
      -0.30549001907815926,
      0.2454812859387618,
      -0.044152235039549084,
      -0.02677558116613711,
      0.2897773258973458,
      -0.4548391020220075,
      0.39600083058995544,
      1.0,
      0.007276247058674884,
      0.2811773978982758,
      -0.20562209557918432,
      0.1725031967764334,
      0.0467367851123683,
      -0.07662161008357266,
      -0.3470655415846007,
      0.29653431920664913,
      0.054017330025283986,
      0.22649563213795312,
      0.31958855053313867,
      0.1827011477300949,
      0.07496829748119546,
      0.9286336477300763,
      -0.27305908578912175,
      0.7887534983686251,
      0.043731097516540404,
      -0.2998818875395499,
      0.17033548021693398,
      0.6809874136490395,
      0.24116714629653238,
      0.4875173383462983,
      -0.08771122299935355,
      0.5838694678251475,
      0.5185615845879648,
      -0.09434568118637886,
      -0.7883651972263849,
      -0.108865133151603,
      0.02982733098397615,
      -0.8302389469847142,
      -0.2738373155163112,
      0.3152153588394799,
      -0.1401340423809679,
      0.0986205151521696,
      -0.23491827271217344,
      0.10811935391810965,
      0.0068775782652371505,
      -0.06772279206263467,
      0.04895860726070927,
      0.20875430926522617,
      0.09975554241352276,
      -0.04217268174744922,
      -0.5644061270761562,
      0.25091226504107644,
      -0.18417094081983565,
      -0.0647280739817222,
      -0.43772951252893116,
      -0.12033084807037611,
      -0.7374242641995403,
      0.37383897534066907,
      -0.4908566189355623,
      -0.13952667303540875,
      -0.8752415000476064,
      0.42634060790376727,
      0.28995231893625173,
      0.018446089183332782,
      0.008896215142663005,
      -0.0765546287015878,
      0.9231707992463081,
      0.04214006358069647,
      0.38068432852118833,
      -0.04938091930917807,
      -0.3161268662274365,
      -0.5119511320284181,
      -0.09361173595310689,
      -0.0014800498770841581,
      -0.00940388467175075,
      0.2163672852215949,
      0.20931603823400496,
      -0.2701972794727802,
      -0.21587986283348387,
      0.24315933429768563,
      0.1477609333184073,
      0.01976188091643353,
      0.35272539487264043,
      0.48011070237587955,
      0.45025373405909025,
      -0.3418177356360267,
      -0.017445803020251085,
      0.08142359517663349,
      0.22501343005037938,
      0.28957521264691355,
      0.13782829134136038,
      -0.21985605302383254,
      0.49949969693427243,
      0.15292587061272434,
      -0.03467041286830211,
      0.45322908622783703,
      0.44679020738128866,
      -0.10417038564855845,
      -0.17144192648343096,
      -0.4030688228950378,
      0.15161009432808714,
      0.4009916703140112,
      0.5175883745167039,
      0.6535464767698718,
      0.008281044394245915,
      -0.45821188965300663,
      0.874286437994456,
      0.24263380905894374,
      -0.06949067713052745,
      -0.08137971494883722,
      0.7606201330752116,
      -0.32788366423553017,
      -0.19643383308944976,
      -0.08427588513955361,
      -0.12578093619445252,
      0.05075436044395822,
      -0.013712084568182906,
      0.44361484744979734,
      -0.0050947334371053395,
      0.04664722875483318,
      -0.28505529252035006,
      0.15854285701509968,
      0.16720334838982467,
      0.7320741322257728,
      -0.26890528339953707,
      0.10664223525190858,
      0.0058156246030695614,
      0.08402696089666387,
      0.1132763648386566,
      -0.0269407810076866,
      -0.010697899247980345,
      -0.5692990349558235,
      -0.04927022594551676,
      0.9999842913354876,
      -0.1322379941076088,
      -0.3047297087491194,
      -0.6744732944717753,
      -0.34064645306448205,
      -0.20368338663158453,
      0.19846736715160535,
      -0.5136106660725912,
      0.2787160700065033,
      0.6233264120477143,
      0.5118755758382619,
      0.5497819087205046,
      0.11607937407986291,
      0.6644998643084337,
      -0.12621783860103591,
      0.3027310791929665,
      -0.13023135102336064,
      0.2518606339533958,
      -0.0325476010414906,
      0.09268618667632225,
      -0.08234055616721257,
      0.03481601929926907,
      0.1239691928687681,
      0.11468174361841058,
      -0.06504815780745409,
      0.36882031140278,
      0.04748947344176955,
      -0.14977443488726494,
      0.8980506388735561,
      -0.07410114292082343,
      0.029661413000631007,
      0.41798088554387525,
      0.03305714990438426,
      0.49325566993113257,
      -0.03767821396826479,
      0.36988386730007444,
      -0.4159168139255968,
      0.40850528571707717,
      0.1630631656832098,
      0.33510220412389646,
      -0.4706412426660149,
      -0.14768534682272813,
      0.31544846224398143,
      -0.13880437677825988,
      0.01583989768194919,
      -0.380619258312363,
      0.3268393687575589,
      -0.2770114818270659,
      -0.15044060825074881,
      0.5639214498513708,
      0.1484215582618274,
      0.11348272341874242,
      -0.12822580790712576,
      -0.4915650884061422,
      -0.11140703775551512,
      -0.6034930251489972,
      -0.5398935934493752,
      0.0589327808450919,
      -0.10430760854718084,
      -0.8162389853635789,
      -0.13061129853607661,
      -0.07927619375316522,
      -0.17784196093135993,
      0.669797366036345,
      0.03937668972124509,
      -0.030206693711387116,
      -0.013786537214335853,
      0.3247531153540215,
      0.23268164066228778,
      0.12719411603462408,
      0.10322125531940221,
      0.4318233953957628,
      -0.2616105850093423,
      -0.30640098559463846,
      -0.09531736946200682,
      0.4792193249850762,
      0.03467980410813529,
      -0.06946197917261046,
      -0.930589437642122,
      -0.20023907224546056,
      -0.20800113727144867,
      -0.08449930083898191,
      -0.49265551187025564,
      0.1881782918755267,
      0.1442264016150651,
      -0.229363474062239,
      -0.6727604696002341,
      -0.05457657089530542,
      0.36921011771226037,
      0.03830393906028078,
      0.23674056237715674,
      0.3221909009372033,
      -0.2459450634579411,
      0.43312184735356446,
      0.7929228137747973,
      -0.8746005061403501,
      0.12058454098629054,
      -0.4510564935425167,
      -0.5766455694276779,
      -0.5626480457741241,
      -0.05429720437327517,
      0.24758600864411284,
      0.005868179386368202,
      -0.3501203071725525,
      0.6580162623686747,
      -0.08236423445119236,
      -0.6378717911298634,
      -0.09890415744280999,
      0.3462642594788992,
      0.18037700037239535,
      0.4545233055128778,
      0.08989319095705633,
      0.18034799309777905,
      -0.0026282518000569147,
      0.40615304098379423,
      -0.010672152922799636,
      0.35452486235716535,
      -0.15799451230363437,
      0.08833301460675327,
      -0.2185152639966855,
      0.13525563580536593,
      -0.6512438045448137,
      -0.5425363736958351,
      -0.9887006853075475,
      0.4203062061719194,
      -0.7269800196942172,
      -0.1444976685502061,
      -0.04927401175068636,
      0.09141008959945872,
      0.6515671803250416,
      0.33081499814787274,
      0.21363648484646341,
      0.3792513153273509,
      0.09461714567591512,
      0.0006284697336845311,
      0.5439990755241066,
      -0.4418739382085968,
      -0.14328043210790634,
      -0.22580367987167801,
      0.3410857407231424,
      0.2832018608909877,
      0.26819463268695903,
      -0.039461764538804664,
      0.4470845786507513,
      0.08181044238062307,
      0.20013183243028482,
      0.22219800494942338,
      0.03477912711482038,
      0.127419194936707,
      0.21633506862812737,
      -0.5041360115345306,
      0.0617159087887538,
      0.21423484835612303,
      -0.050019510527617855,
      0.0961207002833336,
      0.03322189499661124,
      -0.5186810947800716,
      0.1574681427717565,
      -0.11116952223414533,
      0.4074521761342248,
      -0.057862846558677704,
      0.06041137667143534,
      0.3205624493961557,
      -0.7749490891798603,
      -0.42962331192463626,
      0.4551591976397658,
      0.041673671669591884,
      -0.060275156091363545,
      0.2942931577343335,
      0.6663038701410438,
      -0.8160725377782888,
      0.4030113387910799,
      -0.0842713710602099,
      0.019675942273462373,
      -0.13347714775149047,
      -1.0,
      0.06286516721133945,
      0.0030623357044490896,
      0.07079107949007601,
      0.0021711902345915024,
      -0.5967496014057037,
      -0.6222561591952522,
      -0.5714832959553715,
      -0.1220837382470314,
      0.6748240499992176,
      0.841433662537635,
      0.2572486930332257,
      -0.5275594040178994,
      -0.2514463614106126,
      -0.10744025089996462,
      -0.1897837401282995,
      0.32403647325593754,
      0.10309740110694124,
      -0.8251549595401717,
      -0.2581376639506175,
      0.17810792005519704,
      0.21120983560538079,
      -0.09070110643147225,
      -0.18907654263366686,
      0.9948324376215322,
      0.2728104037475205,
      -0.2511245046979499,
      -0.24666554580100183,
      0.9158801680653993,
      0.2531806196057629,
      -0.013670824485046553,
      0.029182491475038326,
      0.8421021597273836,
      0.1043658328347924,
      0.2034744716467246,
      -0.8618074408621741,
      0.4053318242616988,
      0.31569325051172625,
      0.6236846114957368,
      -0.5132971430900619,
      -0.09511924342541556,
      0.24429653755987718,
      -0.2812219938094605,
      0.019454120173503082,
      -0.024331241935169598,
      0.3016526663750565,
      -0.3014045560469805,
      0.34106309342303187,
      0.3441375747756674,
      0.316609051912565,
      -0.351024773377805,
      0.01668237293716437,
      0.6083191082214376,
      -0.35041361275448907,
      0.3339545131679494,
      -0.1419730391368903,
      -0.20978670725387183,
      -0.08363723806333448,
      0.2094068891401476,
      -0.24780069274606872,
      0.8773639709568964,
      0.11737262906217695,
      0.0897525549308049,
      -0.10806056881093742,
      -0.17008910080982273,
      0.7161286444355633,
      0.07485169176353984,
      0.2321363207662093,
      -0.3131415122413622,
      -0.10929037112732574,
      -0.39714876147189443,
      -0.24040026148325594,
      0.045914533783676645,
      -0.053848032370977184,
      -0.10224373957328839,
      -0.18100974780406212,
      -0.048235604533760704,
      0.44119431140261106,
      1.0,
      -0.04899057303714355,
      -0.5587023389586265,
      0.5275451239821048,
      0.07680895217373795,
      -0.0704598119740741,
      -0.352367331096207,
      -0.23535971083353335,
      0.16585676281800904,
      -0.11466970991925729,
      0.0647862093321175,
      0.22378751692342597,
      -0.9968672412489042,
      0.36098915898566997,
      0.2274280901731227,
      0.5465090846090843,
      0.5919752752120476,
      -0.4242713674607402,
      -0.2736222569945309,
      0.3593950193888907,
      0.04824068394711731,
      -0.3013575742957406,
      -0.5409743264441669,
      -0.032000267163777685,
      -0.07808383093922339,
      0.022895343034702913,
      -0.45945310323086225,
      -0.7715398468210637,
      -0.41012581973141016,
      0.5703500038325616,
      -0.28451606224906606,
      0.7178694971682007,
      -0.21406891114755378,
      -0.0611437323708124,
      0.9995930881844735,
      0.4830064934582571,
      -0.014318399333457302,
      -0.030275249041520565,
      0.03321382062566332,
      0.036146679650034756,
      -0.024724928103252098,
      0.0597165533823006,
      -0.023039590685412212,
      -0.3405779766906932,
      0.32454313451562666,
      0.6157433562481307,
      0.390339768399486,
      -0.03998240508274034,
      0.06760918728854196,
      -0.4111767025543287,
      -0.217682409022265,
      -0.0958092110688138,
      -0.11554436388430021,
      0.010151924152828095,
      0.010099655401479016,
      0.3872580891571281,
      0.08084371497153775,
      -0.9313345476876658,
      0.29175367015532555,
      0.04849486238443429,
      0.32458335240078434,
      -0.653027832671145,
      -0.08093833593274144,
      0.071415393945475,
      -0.6142148261519813,
      0.21147055499581205,
      -0.07217935539320508,
      -0.23779917433456638,
      0.6363534252189625,
      0.1793270774348038,
      0.047815146930544325,
      0.1242011533900319,
      0.2383501887556931,
      -0.405983378696165,
      -0.14449708276333684,
      0.2830929508769362,
      0.12426652640163649,
      -0.6947052733870867,
      -0.1831343699401713,
      -0.1967253076985261,
      0.1886331521608343,
      0.9926839506697,
      0.12259445711530798,
      -0.050349466031115925,
      -0.06641776700198278,
      0.09718729908138926,
      0.013255495529088356,
      0.22081009238092228,
      0.254324796906532,
      0.2840348397209437,
      -0.40827393878048734,
      0.2820129978091929,
      0.1377933226327324,
      -0.09631100109802176,
      -0.1515893293706815,
      -0.27963466964005335,
      -0.3609486366213391,
      0.5119067025503256,
      0.14093464704267694,
      -0.0007393271486783419,
      -0.09045125569075382,
      0.5745453878193367,
      0.07082336357170961,
      -0.47152856277640354,
      0.13586670084131386,
      -0.238173725302839,
      0.13626266834799824,
      0.2679611252247446,
      0.14712421740876247,
      0.2959744857578717,
      0.17915012781665382,
      0.31096851761573036,
      -0.14290195589618787,
      -1.0,
      0.07560604335482507,
      0.4331920484567306,
      0.8527666317844014,
      0.11647285552534349,
      -0.6376651684011425,
      0.09849996130999267,
      -0.3334128876733441,
      0.3725538725192524,
      -0.38622850123355806,
      0.27350414216204916,
      -0.1078075098171829,
      -0.26400764215188527,
      0.25431232782732827,
      -0.5289459955961198,
      0.3832214069510244,
      0.296688043241381,
      0.8810555321679531,
      0.007619501194020342,
      0.24824153426822088,
      0.5216245914866495,
      -0.8734295225493879,
      0.030674639013868396,
      0.30979677808351236,
      -0.31525682087980733,
      0.4962163932115691,
      0.7093061219468318,
      -0.8488619407334592,
      0.27805063862035334,
      0.12762482105386252,
      -0.07327767406806299,
      -0.0845760501603936,
      -0.0007599519742230165,
      -0.17879838463273978,
      0.6823633209725813,
      -0.4192595259870672,
      0.2254395529080281,
      0.49720963252574313,
      -0.0687503784339867,
      -0.5747135298575257,
      -0.2878889347133533,
      0.3064550645290048,
      0.12808101250247828,
      -0.19258636667105788,
      -0.12865156413560844,
      0.16887242554381496,
      -0.07332038435918278,
      0.16510660903790966,
      -0.7075450718408755,
      0.17030949431041037,
      -0.5585843613787835,
      0.3837838664303358,
      -0.5347118357944256,
      -0.658282357402829,
      0.4890698110890923,
      0.2855248539140137,
      -0.11358635808599465,
      -0.0664190063506897,
      0.17677353375774696,
      0.1034041311838611,
      -0.12734275841195672,
      0.05359133479810185,
      0.6299649179678559,
      -0.2684177596298061,
      -0.12388458948389287,
      0.3030541342326503,
      0.236070212756804,
      -0.5093126468804096,
      0.12267946280867884,
      0.22925388763241003,
      0.11253138666822632,
      0.0603100170755293,
      0.36216940458410224,
      0.30099566120988064,
      -0.12346736831075852,
      0.6437936880101447,
      0.022056479130054964,
      0.3035382145265333,
      0.47626899627141583,
      -0.2377519046565469,
      -0.04061553095902341,
      -0.12910173376706882,
      -0.6749135817973801,
      0.1931497224695967,
      -0.32699221422182656,
      -0.47899411838052186,
      0.3674933316850044,
      0.1511631004060191,
      -0.07570888855005445,
      0.2735779689612805,
      -0.22135027638485405,
      -0.2737637694681372,
      0.22693396707048075,
      0.26663037952989227,
      0.021103593935174296,
      0.11206855169273156,
      0.43794654969676544,
      0.019569296610532146,
      0.0363337527057743,
      -0.2664724467914778,
      0.16316628515284803,
      -0.037446462358158905,
      0.1627772938877264,
      0.3059306664381647,
      0.2685375636197058,
      0.45230866029769795,
      0.46547833284607404,
      -0.5234400178080517,
      -0.29564146557131255,
      -0.31615991335280574,
      -0.011699179317190176,
      0.017011575694190366,
      -0.2682801451849295,
      0.5618178195044675,
      -0.24742957672604057,
      -0.2891784138886165,
      -0.9601722292330935,
      0.11420000162434457,
      -0.45919639410708096,
      -0.5876347686671058,
      0.24588147914298109,
      -0.37249550691389305,
      -0.2102042175263008,
      -0.07997212549025393,
      0.00016217460867123945,
      0.5675664135118135,
      -0.6508397381891488,
      0.21819454387848813,
      -0.1788651685360234,
      0.281870284502688,
      -0.047982860105955705,
      -0.22076630993841695,
      0.11762710183343295,
      0.05005361329015716,
      -0.07649986908400844,
      -0.4224416274274069,
      -0.18659925431717614,
      0.019699471550025903,
      0.4557565579016662,
      -0.9985404476049984,
      -0.27567186670944027,
      0.26754956101398397,
      0.13893197761861847,
      -0.46555680746580963,
      -0.17225623569937307,
      0.46669853541239514,
      0.284116103920424,
      0.5318198759667652,
      0.2715060557807832,
      -0.03804314833709976,
      0.03961911250523214,
      0.3958193917763517,
      0.03503710757658197,
      -0.0388523676140807,
      -0.022870404772827545,
      -0.4017703765944606,
      0.05983991125864064,
      0.032767489287621465,
      0.1923172486515166,
      0.24902909422020428,
      -0.5749612309632988,
      -0.3036723554589042,
      0.9852010533608165,
      0.09957906657743351,
      -0.7383573429490181,
      -0.6800119376785537,
      0.5864722323691862,
      -0.2139249410807622,
      -0.2686817857648868,
      -0.25785306189070895,
      -0.8013468967727645,
      -0.0340516026068127,
      -0.6842063328650563,
      0.6618676883838525,
      -0.4696139800187758,
      -0.5893966250964978,
      -0.6654210567607224,
      0.8301985985349493,
      0.1298322818754091,
      0.6421208396933582,
      0.08528822114064587,
      -0.1202746714844996,
      -0.3469365822721479,
      0.2537246847838355,
      0.41382684832629785,
      0.0391310106056018,
      -0.2240655746404951,
      -0.27251047214301455,
      -0.3291062134556731,
      -0.2319830718491251,
      -0.006166990866634119,
      -0.22867057422480275,
      -0.19028562496644216,
      -0.735153691753172,
      -0.49275063481624826,
      0.25152479040854364,
      -0.028584271107624307,
      -0.24062647983850866,
      -0.12764525164878848,
      0.009545175473332668,
      0.3007215194094642,
      -0.2133225075821203,
      -0.5901117944121341,
      0.40259890119735225,
      0.1331178413489737,
      -0.5644982821331602,
      -0.20858572604688824,
      -0.07149696040308151,
      0.8712601553781327,
      0.24217686560469867,
      0.2698971183654895,
      0.2249594520338697,
      0.8495820073051845,
      0.2524014399036622,
      -0.1969231040811261,
      -0.6309227751563996,
      0.12899078294697136,
      0.24195275010373338,
      0.08893561886639073,
      -0.03116996831529225,
      -0.16827760430641195,
      -0.4137697761520163,
      0.1599062788874855,
      0.04007054759533515,
      0.11356186136907513,
      -0.6725848326394689,
      -0.49338309157525756,
      -0.16786155733243052,
      0.09082374221237782,
      0.05758509892108819,
      -0.0598106608978093,
      0.2051779986778595,
      0.2368711927536536,
      0.3863465014651277,
      0.16306018322532412,
      0.23352860567574588,
      -0.25869433779097784,
      -0.35200417688890157,
      0.04445466995393449,
      0.06231805337419162,
      0.21981400527288086,
      -0.5601492431527053,
      -0.10731873300909722,
      -0.17149914220401175,
      0.9764741725744914,
      -0.4448029076297494,
      -0.16799241270143608,
      -0.00306794579969417,
      -0.19737050824624752,
      -0.21888212161261952,
      -0.27263141934700685,
      -0.2061210648169427,
      0.028080343428750317,
      -0.27315345213166287,
      -0.84718779019858,
      -0.033422855177157616,
      -0.2585309150961457,
      -0.3989977461383151,
      -0.13975033746343324,
      0.10777067577447937,
      0.17685309001110006,
      0.2606400232612448,
      -0.04444848255193611,
      -0.2899541383084725,
      0.5397925992287357,
      -0.4896918021682935,
      0.19770011430681858,
      0.2780987916537219,
      -0.3568447150019849,
      0.18303246852306726,
      0.07387768014972579,
      -0.15235271947885745,
      -0.11917028431073005,
      0.23655078538449148,
      0.2443920113525774,
      -0.37898574326829754,
      -0.052271262229573255,
      -0.07249790359767018,
      0.1846978673718485,
      0.12290365008621362,
      -0.775632272723538,
      -0.064948201960132,
      -0.43585019375234046,
      0.07356261481433474,
      -0.4268350349810853,
      0.7777060734337342,
      0.07961001175674468,
      -0.3973067419497212,
      -0.16945438644110797,
      0.3450134338498095,
      0.21670486482975693,
      -0.3318992407614606,
      0.49001158075902057,
      -0.004892541517027907,
      0.607026162829382,
      -0.5648956792782862,
      -0.32063915009863336,
      0.1333234839670947,
      0.31616432629483987,
      -0.03932915706006594,
      0.02267218339232517,
      -0.0009661377757939071,
      -0.06819281477586481,
      0.993431661908023,
      0.15476916522471518,
      -0.05955063346762873,
      0.12040338706360412,
      -0.49534768215313896,
      0.22723251194845906,
      -0.8108869956744694,
      0.06330245330945439,
      0.4159752245142147,
      -0.2726934365275881,
      0.23779882218496254,
      0.017281130602855348,
      0.06752970483640224,
      0.8243370465181105,
      -0.24687847514932473,
      -0.3562556520640304,
      0.39677798406573006,
      0.36813388858035956,
      -0.5080797285940215,
      0.0240831059913078,
      0.5016092930990756,
      0.2900670908392214,
      0.23021937570769638,
      -0.008449624731003108,
      -0.03174001020829467,
      0.17654033474456382,
      -0.6945720885612596,
      0.5571392347308737,
      -0.14395373935428998,
      0.11685367179100459,
      0.17184301031180066,
      0.33977817528268095,
      0.2688118360988964,
      -0.06462723544954484,
      -0.09546371799993011,
      0.1128656449769766,
      -0.3272898437625103,
      1.0,
      -0.712192507018008,
      -0.1358122756321023,
      0.312931728200037,
      0.461085140238615,
      -0.4810456690794813,
      0.4728918752022584,
      0.16795434613678645,
      0.27747095421745843,
      0.836939737277847,
      -0.5869433968786625,
      -0.02074826316461656,
      0.1677998067254432,
      -0.3411264659246526,
      -0.11359896343966233,
      0.41274350399010706,
      -0.07956739317295564,
      0.3933667179959362,
      -0.007338837023050764,
      0.6067037193389442,
      -0.005656741939675709,
      0.4174754026451577,
      0.4605918995138443,
      0.8693305953585078,
      -0.5984254961516938,
      -0.426406634101412,
      0.3598885118130105,
      0.11029341532227507,
      0.11810620655500331,
      0.030743168177391006,
      0.49687653952911925,
      0.28692066874002964,
      -0.04198586030366698,
      -0.12822169241516929,
      -0.24705305827436388,
      -0.09150586288350152,
      -0.042666572663756924,
      -0.35787660102842295,
      -0.041293956253830186,
      -0.006201364735651638,
      -0.4833116316145274,
      -0.09855361944733697,
      -0.2286464156531254,
      0.09954203748627075,
      -0.0688501587771075,
      -0.41986581997216565,
      0.3518652978616771,
      0.11415104804909917,
      -0.06635949607867753,
      -0.5458204256603907,
      0.20114640226680996,
      -0.3395122043719494,
      -0.028833048991121976,
      0.17959024720188352,
      0.4254835842976866,
      0.5009549457401896,
      -0.14021219205494564,
      0.7954540890045815,
      0.007774132966130914,
      -0.33269056704340705,
      0.16302161361503656,
      -0.2468733377796687,
      -0.25222249890260096,
      0.02895591099595203,
      0.0964132586592527,
      -0.9733716740188505,
      -0.6621863987897816,
      0.6248346930588886,
      0.2821867397311574,
      -0.5740013891887473,
      0.3122538156184948,
      0.07189723135953319,
      0.14020223827234823,
      0.5829201323777249,
      -0.14312344602053606,
      -0.10104464782255092,
      0.14139243598687348,
      -0.021700192628386294,
      -0.015146833144117078,
      0.11176913880762701,
      -0.028503496201069997,
      -0.2028620030918871,
      -0.5133950600279652,
      -0.020269485820627972,
      0.23532759049835858,
      0.10565361942509277,
      0.45291950126684005,
      -0.07576193742435125,
      -0.4202163607223582,
      0.4800784265753841,
      0.07714695039185218,
      -0.39091608522920074,
      -0.1483352669403214,
      0.46294477634142955,
      0.2660209264487549,
      -0.2345276244428568,
      -0.4832441641991826,
      0.07432156705977004,
      0.2191262580948347,
      0.8156200678038961,
      0.032017167964841074,
      0.11141048120331862,
      0.03867218349662033,
      -0.13819326711768046,
      0.08079826280143637,
      -0.37360422397056403,
      -0.10097944606694155,
      0.37602410079506315,
      -0.00331876706768674,
      -0.0980597634868593,
      0.025219891738359958,
      -0.3344308305562821,
      -0.16207453555437687,
      -0.39167772520441835,
      -0.005483434068303662,
      0.4609810785632417,
      -0.8268224771232002,
      0.3808987787725063,
      0.8792216979704248,
      -0.21409240055722756,
      0.4741360192381325,
      0.10424642604450596,
      -0.504163180795798,
      -0.18277378706618802,
      -0.4465993148160407,
      0.60580556559825,
      -0.4792160848565,
      -0.19508018575151326,
      -0.1832413316850621,
      -0.4453270877775503,
      0.19973508014632554,
      -0.3616171871365628,
      0.13008684969230475,
      0.37857039141022447,
      -0.2833910720162962,
      -0.2519390846583048,
      -0.2614997957314653,
      0.07104553017665614,
      0.4305842743060479,
      0.10941117764645585,
      -0.22907427090773122,
      -0.043933946214187794,
      -0.14545525791032127,
      0.37761380953277607,
      -0.06193119836262549,
      0.9848897012736337,
      -0.24620859392713118,
      -0.34928861281480994,
      0.05416929787537257,
      -0.22805509135622593,
      -0.0219941287278448,
      0.17927520675141367,
      0.9875423213748117,
      -0.17358350186342444,
      0.06931123034403845,
      0.1873769975871676,
      -0.37850349777228887,
      0.2555582066767156,
      -0.19369631795692366,
      -0.738169738592142,
      0.1927192822015384,
      -0.44150997154600946,
      0.12086607009309487,
      1.0,
      -0.08653208567843672,
      -0.3242433239385262,
      -0.5569625580559426,
      -0.21541765954815412,
      -0.16547958647263702,
      -0.4764191263636276,
      -0.2719329949920003,
      -0.06771878943922793,
      0.4651654539121043,
      0.15577612117249218,
      0.4262367053214568,
      -0.4708931590432222,
      0.5380025044975866,
      -0.41736359213638474,
      -0.25295569208335367,
      0.04299214553543443,
      -0.3208572201382847,
      -0.19011590172808185,
      -0.6565004370131768,
      -0.0045094734838274746,
      0.5978140761145494,
      -0.2230806807205114,
      -0.02050778084093014,
      -0.43761675300285363,
      -0.14977752602559907,
      0.43421473101415914,
      0.9076937755231737,
      -0.5519736091299595,
      -0.29421258915954834,
      -0.4157019705642376,
      -0.22181812887788876,
      0.3451380406443135,
      -1.0,
      -0.14231030919302132,
      -0.5351350475324215,
      -0.24416291085234712,
      0.14509253124184385,
      -0.10401117367651205,
      0.2188599180943822,
      0.417480995717692,
      0.41031730286195234,
      -0.1922658653526335,
      0.06839050235287947,
      -0.46823161147251224,
      -0.2328138127083231,
      0.04365331080551445,
      -0.28299075075313596,
      0.6780303021136389,
      0.6906444873631622,
      -0.25181181915947354,
      0.0011380167977662337,
      -0.0043634261568741145,
      -0.27273486388647117,
      -0.17438858696060233,
      -0.041133838570411974,
      0.17506930675944427,
      -0.39304768502561227,
      -0.0780936813192091,
      -0.29989359606614635,
      0.11953111395938351,
      0.159240095107901,
      -0.25024554672018284,
      -0.4742712734095123,
      -0.37082347234903035,
      -0.0763135710158928,
      -0.0021631577638022183,
      0.7609825655704096,
      -0.24585631734500057,
      -0.4040834842330555,
      0.04977597114645732,
      -0.4609259889036118,
      0.28749785794080823,
      -0.7220524665504278,
      0.15552042424755072,
      0.2658948038728168,
      0.13765166434615678,
      0.5489084154020154,
      0.2324076971045547,
      -0.0022002462036941617,
      0.33370061057737066,
      0.016126949594095007,
      0.16249455217821876,
      0.10821050574393301,
      0.4357056374778179,
      -0.5442048341377271,
      -0.031932091806048016,
      0.3441362748970614,
      -0.3373030966899173,
      -0.30403095869223384,
      -0.4563526678773033,
      0.127532817628623,
      0.08993867491574742,
      -0.09500246212794138,
      -0.22520126463449144,
      0.44571104627238384,
      0.45892691200159347,
      -0.2778687573527275,
      -0.025099014163450867,
      -0.5244891395853526,
      -0.1755211004102497,
      -0.0647611196989307,
      0.5227917839332926,
      0.19239032710304607,
      0.17591696971384485,
      0.3948161290449543,
      0.005413723829146399,
      -0.9990099275382804,
      0.15678068136157047,
      -0.00844995713112769,
      -0.2767637240446042,
      -0.7129528403862267,
      0.009905817492527058,
      0.04629003454087503,
      0.07168879757819678,
      0.19171311319578194,
      -0.6979314424912312,
      0.06633195843175105,
      -0.4876148081168905,
      -0.28799741588808,
      -0.3539917481314404,
      -0.30264375940768073,
      0.0023475087753986046,
      -0.10154901344435739,
      0.6141119559161206,
      0.0024628788134878274,
      0.032608895210110116,
      -0.18278134779420466,
      -0.41562997325126905,
      0.35141088154156896,
      0.1168669833859328,
      0.8012168125192972,
      0.10038137210149611,
      0.06371107157539654,
      0.2723970348678673,
      -0.09388652163045967,
      0.5513527579118076,
      0.349177841359859,
      0.05418082323699147,
      -0.4671780405041111,
      0.1721642442058434,
      -0.7860661750965033,
      -0.08128607405193479,
      0.19721454358200846,
      0.15685924870376725,
      0.27622043156001697,
      -0.465390653244208,
      -0.11880734925364611,
      -0.28890871893815434,
      0.13261320158460865,
      -0.2046589881993375,
      -0.3832984883612198,
      0.11186139242119947,
      0.14137541272282375,
      -0.24715691297581424,
      -0.40384057123108774,
      0.3935874743957277,
      0.5837377496875191,
      -0.43196619135538095,
      0.842015744783546,
      0.2790238920649269,
      -0.02618141406823175,
      0.6786189988248974,
      -0.1497463609149976,
      -0.27956515804903037,
      0.6409414159341084,
      0.16476857859550914,
      0.239610919526718,
      -0.19916107928945218,
      0.11274356835878195,
      -0.15001844965132974,
      -0.2527363829398134,
      -0.23440517066137706,
      -0.03204632478334363,
      0.34975190293371616,
      0.15843112777852528,
      0.351558718958744,
      -0.09848121968437065,
      -0.09860774393578284,
      0.009464609269979884,
      -0.01642198167332963,
      -0.11432848456451969,
      0.09889731689886054,
      -0.3695733537484661,
      -0.08272551940174508,
      -0.6575816217944214,
      -0.6309552346800732,
      -0.05207140461304946,
      0.43961105227783337,
      0.5792652130828604,
      0.45583802709818777,
      -0.3201851182873394,
      0.5471894191573746,
      0.27012679545685586,
      -0.1832122081842536,
      0.32804896517689885,
      0.44671161450607333,
      0.9347485369413783,
      0.07863682439439473,
      -0.5772282733054171,
      0.06174489028806129,
      -0.04823332274670042,
      -0.3009792704884684,
      0.10752429053056521,
      -0.21120984924934263,
      0.3435793395263202,
      -0.06536355187198167,
      0.08804279460348415,
      -0.6043592314987569,
      0.299125840169484,
      -0.12622007066069682,
      0.2780035526588922,
      0.6841562881215396,
      0.7887623064842366,
      0.13979835986204345,
      -0.22076851574341783,
      -0.045863073241973924,
      0.0486696128470491,
      0.3420535996555293,
      -0.08355428959751424,
      0.15219421442901146,
      0.25500270903723443,
      0.26249154841646993,
      0.4705808919684613,
      0.698098819588766,
      -0.3259803637732341,
      -0.05845762065164076,
      -0.00357633826616728,
      0.35531377129742553,
      1.0,
      0.07838815602835092,
      -0.13952664721347294,
      -0.8173975040536313,
      0.16758985198195517,
      0.16575438171316959,
      0.012140562134057675,
      0.0032293222509458663,
      -0.4161978268776242,
      0.225231029242669,
      -0.19816076172251748,
      0.12423740413892718,
      -0.6372613070300047,
      -0.2616790519307219,
      0.3796056407952385,
      -0.6287331490355468,
      -0.03619328366325964,
      -0.48375049721390345,
      -0.08999726733031041,
      -0.24483716847249376,
      0.10409223221445292,
      -0.1482835328520251,
      -0.5304914207512407,
      -0.08983600516215451,
      0.2444237897189035,
      -0.22563610164301126,
      -0.4961591055113582,
      0.0188985574135919,
      -0.0895676091707219,
      -0.5026684847940605,
      0.05505268910464617,
      -0.2832147551360793,
      -0.30160503208912387,
      0.5488147008426675,
      -0.04516750416886989,
      -0.01747018987284904,
      0.08635059583415788,
      0.011996194670789771,
      0.152551925180916,
      -0.11579985114734664,
      -0.17659168835019376,
      0.4608472505180247,
      -0.29838957279927525,
      -0.03682462489323198,
      -0.530348471649347,
      0.6851524572524301,
      0.48582690126122025,
      0.2369030681240454,
      -0.10822854796266904,
      -0.8919944837462983,
      -0.12275367663291341,
      -0.36205082051375104,
      0.2557029318075796,
      0.26736160735610176,
      -0.321974438133884,
      0.7602494522490744,
      -0.05257713575447546,
      -0.017380315199377168,
      -0.33372156012681964,
      0.5725801459748727,
      -0.1274286836881262,
      -0.027652691921121755,
      -0.5724217487532323,
      -0.033265790575694176,
      0.37054914218958285,
      -0.11695752699674501,
      0.49744581994108106,
      0.5189710340400324,
      0.4269689462834879,
      -0.0025767697887278916,
      0.3414174769513687,
      -0.436832204497589,
      -0.40313669291848075,
      -0.2434145297087302,
      0.018585208734457292,
      -0.35193985144548856,
      0.1666578276022367,
      -0.1182104226247731,
      0.3071574303820029,
      -0.2851507646649391,
      0.6379095802894585,
      0.11455612297873669,
      -0.327778278708602,
      -0.0150999023426455,
      0.5399802672297781,
      -0.48992094784239465,
      -0.13292558189029113,
      -0.0010836146733276299,
      0.2243283733840252,
      -0.2019361476440161,
      0.33509941745848837,
      -0.27679978130270483,
      0.7326524423022296,
      -0.07750886189038059,
      -0.8705721274699376,
      0.18817884110973387,
      0.18410798217896757,
      0.23071680294949745,
      0.11964888147482375,
      0.2656486375325492,
      -0.924375183957335,
      0.2994277796738788,
      -0.020394409802107726,
      0.08410817597330475,
      0.5264704320330063,
      0.18050298522420122,
      0.10453028989808175,
      -0.5484441006816491,
      0.06297542977422323,
      -0.06543879472817167,
      0.39685206962187347,
      0.526295381617061,
      0.1028792894977554,
      0.5638835119415635,
      0.4388185640940261,
      0.12480937288815763,
      -0.6078571995000168,
      -0.1358055034243003,
      -0.26943650483243864,
      0.04287083581189001,
      -0.6036453468981997,
      -0.36295527680830475,
      -0.02048291822032476,
      -0.6623670634774724,
      0.04313772937290218,
      0.19740240357666886,
      -0.15948250326792143,
      -0.4556904531663978,
      0.38184882810255794,
      -0.5910454875466981,
      -0.4943206223786348,
      0.12543850069373452,
      0.4205992618654721,
      0.029245546303753284,
      0.03021139957829977,
      -0.26960213445680503,
      0.244088787587522,
      -0.4930136639512858,
      -0.45639428890504224,
      1.0,
      -0.11530003420734768,
      0.09466939351794611,
      0.9329835275889589,
      0.47583598713562,
      0.3138606848106753,
      -0.3909202780304545,
      -0.014003685688035512,
      -0.7383116503261026,
      0.843846646931175,
      0.2918021902780698,
      -0.18498592431607389,
      -0.07397793053616322,
      0.46780861247018357,
      -0.44203414478789016,
      -0.9341824406049037,
      -0.40152151749250037,
      0.26595754324515175,
      -0.1226045385289998,
      -0.5675841942914966,
      0.4166981946810303,
      -0.23376438738085237,
      -0.07298099938846982,
      0.0932096006303092,
      0.29350509172653255,
      0.3921609288757169,
      0.6443734712328442,
      -0.02960242226033996,
      0.5490373744978984,
      -0.07836852553583379,
      0.3557413902993698,
      0.2819602295237458,
      0.027732722799310945,
      -0.20927019626539736,
      0.6164328178186267,
      -0.25875008908054076,
      -0.12336183471821309,
      -0.17953418138573193,
      -0.12045426697697284,
      -0.03242898995795823,
      0.2157089072473681,
      0.17791644416845592,
      -0.42947393159293573,
      -0.20264542690172807,
      -0.24233185092517742,
      -0.34515378006272873,
      -0.029023406729152774,
      0.7826553376917437,
      -0.08811383796585773,
      -1.0,
      -0.1932910799678571,
      0.2679296895837993,
      -0.06485195544101628,
      0.17436732808286146,
      0.23817084320799986,
      0.1869858609363075,
      -0.2283911194485351,
      -0.45189313910968953,
      0.07927073604719681,
      0.18322293688931965,
      0.8008851672144158,
      0.28280715599563705,
      0.5533113492320922,
      0.031189138823858643,
      0.5153148760829988,
      0.3221158661741762,
      -0.16855655995924199,
      -0.04566662778821372,
      -0.08163221182277655,
      0.7968212767733841,
      -0.00979777952391098,
      0.6550161749037813,
      -0.32146219473897425,
      -0.018012755804936387,
      -0.3640140103049755,
      -0.1278187096539473,
      0.3529212219719472,
      0.16779021340980332,
      0.1430941039894292,
      -0.18007825584011955,
      -0.5315034050688522,
      -0.30979918204132567,
      -0.5663899652579414,
      -0.10138468612257506,
      -0.5594120286047342,
      -0.009008045550866133,
      0.17326569823410837,
      0.00726163960421794,
      0.40777826636968967,
      0.09164348590474794,
      -0.00008632925146897369,
      -0.07126607879401492,
      -0.11465639631021404,
      -0.18625697517670323,
      -0.1717979824012027,
      -0.17824428948141918,
      0.08832832173542317,
      0.04950458441649856,
      -0.31819481461214566,
      0.05723340356244269,
      0.3477224254363565,
      -0.5129126530380256,
      -0.5398962201269449,
      -0.24883803276846309,
      0.07273488369464379,
      0.12188801944314351,
      0.6338789154864616,
      0.1751625712231958,
      -0.26013296219394605,
      -0.45509397145466135,
      -0.3655290823595635,
      0.6374970128433076,
      -0.3097046000275498,
      -0.06931959566096876,
      0.035854373230790076,
      0.43065096027718425,
      -0.8918755498151903,
      0.6643543728808992,
      -0.05846624919035574,
      -0.1347749459693757,
      -0.7216818243239457,
      0.5222741096167507,
      -0.9606998540826027,
      -0.0982403167964506,
      0.00101845382366312,
      -0.5561864768690925,
      0.1291090588320606,
      -0.0482421404743417,
      0.15340834492550415,
      -0.20761115518262133,
      -0.03357252419074644,
      -0.13966740285098303,
      0.7340256362708207,
      0.209862763362949,
      0.3529488140423527,
      0.007683575909922857,
      -0.31468152270044125,
      0.3009141811104781,
      -0.026404801569791515,
      0.3221618493877685,
      0.31126589166977325,
      0.5276941507645767,
      0.11715368965165092,
      0.6573530090753346,
      -0.17950011886867145,
      0.11322096635930752,
      -0.13380168237619045,
      -0.49786649957204476,
      -1.0,
      0.22151384385733364,
      0.3277041165441017,
      0.02537388877275193,
      -0.020388572177703894,
      0.8144452046838878,
      0.32768070452163606,
      -0.19423799751888413,
      -0.2036050110095315,
      0.4478643944983384,
      -0.7065103024230943,
      -0.23430049083081117,
      0.500841079678517,
      -0.06097674625946424,
      -0.21184073441384602,
      -0.017872528983943786,
      0.2579914023613151,
      0.3720742075963759,
      0.1695362521009175,
      0.6814384586977021,
      -0.029466897728875473,
      -0.11597818325558096,
      0.19541221801115594,
      -0.14223166412899296,
      -0.20774990552949707,
      -0.5574550019649083,
      0.3495186871415549,
      0.17640098076573027,
      0.4035288531360468,
      0.31382236819797815,
      -0.34816156843753016,
      -0.12874399363497974,
      -0.5909594519784251,
      0.4504045900768106,
      0.19889129930890928,
      0.5203822024263163,
      -0.3946863904321771,
      0.11926652255265839,
      0.0627940199985533,
      -0.06485887147806478,
      0.009956755798601561,
      0.24206310567646935,
      0.17004507528680196,
      0.08395472291390513,
      -0.00042287248242180425,
      -0.13621282237088017,
      0.21924210444749892,
      -0.9751612624668214,
      -0.05648807682995279,
      0.22012312443804666,
      0.07543966864112417,
      -0.3308664975855534,
      -0.04019368434017777,
      0.5590259965436,
      0.41976591648463896,
      0.0906146110987095,
      0.8067215729222099,
      0.8328369901370651,
      -0.2338864349945916,
      0.19675818252841903,
      -0.08449778095372722,
      -0.19905440687944875,
      0.26193656862576314,
      -0.2611564861661971,
      0.33227847335782307,
      0.17380868857529386,
      -0.2788181704335048,
      -0.06573999462505882,
      -0.1394652081560285,
      -0.01432702763122718,
      -0.3564046890271652,
      -0.021241762306206488,
      0.46919645970341195,
      -0.5066219180028617,
      0.3853415208694271,
      0.7536498566692141,
      0.43787821095077245,
      0.02519171117176184,
      -0.8860376901860277,
      0.24241959193288692,
      -0.4641547031572144,
      -0.8637911834632339,
      0.879241401764397,
      0.34328883339845623,
      -0.0030771632374186897,
      0.4705751717945429,
      0.8735742191399208,
      0.30077853324136516,
      0.07663188362598758,
      -0.14644314142567283,
      -0.35676412266470914,
      -0.390412562700479,
      -0.5371051320769457,
      0.5251796788379303,
      0.242752563539227,
      0.08312060694555334,
      -0.2100218202495939,
      -0.30679276072247214,
      0.015774102515220212,
      -0.3442211863841616,
      0.842823143634606,
      0.6790426919524986,
      0.0494619444543223,
      -0.00756980501731791,
      -0.2270157109020879,
      -0.013327698290790342,
      0.09470393728164904,
      -0.014649227233571685,
      0.3567170922184796,
      -0.3416987719864929,
      0.5301674679845183,
      -0.402103724485077,
      0.3011352391984147,
      0.15116980654144274,
      0.05158050087650514,
      -0.36751256167954593,
      0.16101960996850778,
      0.5846633219331195,
      0.10734667436637205,
      0.5959405983521585,
      0.1174308816323314,
      0.6614120866514817,
      -0.35575133178530804,
      -0.26756169743372143,
      -0.08481170836573647,
      -0.09456526046466796,
      -0.4160064706881387,
      -0.5780883745602281,
      -0.05003758722317867,
      -0.591187592277132,
      0.253542741605893,
      -0.29650661614711316,
      0.4596204064286842,
      0.16195532824281578,
      -0.07656933880239407,
      -0.10674803667579233,
      -0.5349693580828302,
      -0.029789142642748633,
      -0.10739876077521945,
      0.10274931688201193,
      -0.26037217667636475,
      0.1083366575288681,
      -0.02185377047506567,
      0.12314082679499837,
      -0.2248057377076286,
      -0.8488335416661,
      0.3070684064250989,
      -0.3134464422891585,
      -0.04646230503903328,
      -0.4702355258334834,
      0.01839707111932493,
      -0.11738877152707232,
      -0.40719203524640296,
      -0.19532028553597822,
      0.22550419888405046,
      -0.4161947065734871,
      -0.5665240689864846,
      -0.3003034667800315,
      -0.06594659547922839,
      -0.20982318471310968,
      -0.006869390868698852,
      -0.5904297983706172,
      -0.09166233135241379,
      0.2122961033202627,
      0.06218981421534989,
      -0.3157682009507266,
      -0.007770609258862531,
      -0.36731763334207795,
      0.509125243088967,
      -0.2977278957945802,
      -0.01805580126352056,
      0.20514360534012216,
      0.8273006429722733,
      0.11350588033125383,
      -0.1222754395753879,
      -0.5807241801030691,
      -0.23399973488458725,
      -0.07657602904383079,
      0.2940192907180202,
      -0.779599656630922,
      0.6207925459528802,
      0.017420114428751566,
      -0.30881195668689443,
      0.24487467227173054,
      0.280838141659653,
      -0.049819337904264946,
      0.3733198074866288,
      -0.7449467496067067,
      -0.2608826377854981,
      0.6516208730688522,
      0.29992751681283447,
      -0.5154624445202263,
      -0.06476057081751999,
      0.10747405551399548,
      -0.24482453008223043,
      0.1266595680510928,
      0.5437391517310022,
      -0.10539305208252385,
      -0.05760976538915641,
      -0.6108435237625506,
      -0.4111347303293452,
      0.23641719485191648,
      0.5876031119204999,
      -0.47262614265688857,
      -0.22848687869701445,
      0.026252080441003064,
      0.08883409454084554,
      0.5407273280636902,
      0.04668149500045067,
      0.38833109053224224,
      0.14291433059461695,
      -0.08764645514600923,
      0.5816742813728745,
      0.35086623303871345,
      -0.36195773736448905,
      -0.1456295525823908,
      -0.838608806257589,
      -0.2763104531441928,
      0.017238226342653186,
      -0.10052434792196645,
      0.4242620483080782,
      -0.25228446745022803,
      -0.17085518486088416,
      -0.37223726422875586,
      -0.009518708897658162,
      -0.43342217687863127,
      0.4400791483398822,
      0.30078386689522,
      0.015640607133928452,
      0.09555537796372578,
      -0.6130545648927581,
      -0.13211859418522381,
      -0.15679417877394045,
      0.789599810761386,
      1.0,
      -0.39517240028118134,
      0.19192560323650706,
      0.08988104802946574,
      -0.226332485867347,
      0.562775038830839,
      0.2542852307909415,
      -0.0773656758855459,
      0.09706465806594504,
      -0.5257725143284598,
      0.07884470117767223,
      0.19408894405127955,
      0.22172058909567588,
      0.3150711176837979,
      0.2612804396794735,
      0.2831559330085726,
      0.08010697646206558,
      -0.2779141972633063,
      -0.08848927060539219,
      -0.5313751008128388,
      0.22807003516975355,
      0.5122348852904692,
      -0.10936639275001675,
      0.09382718774195992,
      -0.12248760431057797,
      0.007377351153457046,
      0.18859863901306928,
      0.053205050518581834,
      0.03435522290329906,
      -0.16852748458650618,
      0.12668009985606188,
      -0.2637742705864706,
      0.6016450416481303,
      0.05966602341571061,
      -0.3374442365524784,
      0.4479126716815438,
      0.17583367968468377,
      -0.3451597790895528,
      0.22788979150997943,
      -0.12666909582687652,
      0.1597678542162798,
      0.2878387286284591,
      -0.07432063545352033,
      0.7313623343084552,
      0.5771280269038065,
      -0.34372320470036116,
      -0.12543317562561868,
      0.24499072632968635,
      0.11254920262428299,
      0.06520979527476417,
      0.8227083946791315,
      0.2904266647832689,
      -0.017341329486819046,
      -0.419774396843789,
      -0.5500688036508723,
      0.11645164190991218,
      0.33140070115294773,
      -0.17384611729695326,
      0.11734113375075308,
      -0.08723848327234622,
      -0.7508818450084437,
      0.17594751904455166,
      -0.00474910735946437,
      0.0030633947687032925,
      0.05871979196895554,
      0.6572654431809138,
      0.07517444183134558,
      0.17719582643992454,
      -0.20361120641978386,
      -0.23820638672354644,
      0.5980851326319282,
      -0.2724866310941083,
      0.22548132134705112,
      -0.18835185791727285,
      -0.07644797105597786,
      -0.8361043405484405,
      -0.279229102891862,
      0.35719501264136405,
      0.7100255256242568,
      0.3570570599154451,
      0.9529821328210083,
      0.04646036084340157,
      0.059102430248259896,
      -0.14586801714952558,
      0.03749242703994485,
      0.2605450724470451,
      0.12814000145331125,
      -0.37871756142637625,
      0.39056542727771093,
      0.07029049280088825,
      0.8462706920995571,
      -0.7120713424611713,
      0.012202180907458622,
      0.07942436989944557,
      0.22611632559330244,
      0.053648130981416534,
      -0.3483722416832002,
      0.24053815630586664,
      -0.3190102859707464,
      0.7986775143650653,
      -0.10386945123903316,
      -0.44025074579617807,
      0.31334574760125444,
      -0.36681216219498425,
      -0.2630204139709159,
      0.02733849816485795,
      -0.10770289611813179,
      0.10574055236526977,
      0.14036856392288727,
      -0.06016989495961566,
      0.03726832758356205,
      0.6775323029408603,
      0.5389602569859528,
      -0.46391824993097486,
      -0.19391218872565838,
      -0.4999502085243112,
      -0.05810292138779626,
      -0.3701154920521751,
      -0.048778916676208,
      0.16261463576074262,
      0.02316989871574003,
      -0.13679454044356967,
      -0.5423252613489136,
      -0.1302425004792496,
      -0.4562345348881208,
      0.12208146628374084,
      -0.6573582737430007,
      0.00781686840373541,
      -1.0,
      -0.0762658367069249,
      0.051239851968488175,
      -0.47785645855195874,
      0.11806548616886749,
      -0.3978114173018477,
      0.5611786497139211,
      -0.775759853698955,
      0.1510976753848852,
      0.05955638853318032,
      0.3644869416466289,
      0.8719438452092544,
      0.2897744311297881,
      -0.2333138113448827,
      -0.08008428572582853,
      -0.4315470338772866,
      0.3370230245518865,
      0.4345584213683165,
      -0.388959354140895,
      0.08472991883945191,
      -0.7916628687324956,
      0.3373955039812263,
      -0.21217104803064896,
      -0.2889356518928101,
      -0.8951492016177193,
      0.1343304453572677,
      0.39416891502726054,
      -0.8309173250939407,
      0.5094175462603734,
      0.13992253729492232,
      -0.1820483503785288,
      -0.08490991386113014,
      -0.1062528489557151,
      -0.029709573712356056,
      -0.0019627338734247157,
      0.6420307374867759,
      -0.18080511205805402,
      0.06058809606385168,
      0.010770398726280724,
      0.1233407193820476,
      0.12937556877664277,
      -0.4920402820601919,
      0.31434948800882156,
      0.4069555423086239,
      0.22737587027003656,
      0.20294354012292115,
      0.5582908681951797,
      0.327974155654147,
      -0.6543084241687412,
      0.8004920294571517,
      0.2719662091265355,
      -0.039680324474498846,
      0.14764508175788335,
      0.4393412651683348,
      0.023191882926018127,
      -0.052948350826223886,
      -0.42911180078061767,
      -0.2602760429551383,
      0.4020455749963306,
      0.06402161711651716,
      -0.17095332825921694,
      -0.05925035777197476,
      -0.06444832055498476,
      -0.5244405485750693,
      -0.24441422949066524,
      -0.08013186858657559,
      0.21410012966687667,
      0.5704440977948041,
      0.34645048084146013,
      -0.02451600087306719,
      0.18509070880990292,
      -0.27316133272214277,
      0.47419466468911153,
      0.4876915933025641,
      0.14408641847159986,
      -0.2376994499105403,
      0.26632842116360556,
      0.12222656441854812,
      -0.243753605841351,
      0.042366858983503064,
      -0.7147369864152459,
      0.1994512894836221,
      -0.14407383465373066,
      -0.9434579390456556,
      -0.10459877394206413,
      0.07789069306504555,
      0.11594270787929642,
      -0.2786586295781275,
      -0.8409076075010795,
      0.9430640403090258,
      0.019997037212867243,
      0.03218453652782455,
      -0.21600794488765412,
      0.8425555969013911,
      -0.011269796556700308,
      0.3129864988970213,
      0.17262491880355754,
      0.4493614628982648,
      0.12725241343794014,
      -0.07981209070750876,
      0.1521415236014803,
      -0.2374504693144254,
      -0.6274045855536698,
      0.11491082319213318,
      -0.2844612714284733,
      0.4264487109521234,
      0.03056720974303398,
      0.035070997472333484,
      0.04633765089956259,
      -0.1723064245847848,
      0.513555410278498,
      0.009787328757621706,
      0.032654887268739934,
      -0.3483917384478542,
      0.3147828009917478,
      -0.06499655063428292,
      -0.1888103040935439,
      -0.3065573556042499,
      -0.8857839839352982,
      -0.810843846874085,
      -0.03273168498427651,
      -0.05734135674203501,
      -0.660500394891547,
      0.6338591292588943,
      0.2793211075536981,
      -0.12097669937119547,
      0.19472124193845025,
      -0.13458079205507564,
      0.324442070471815,
      0.2476445289262642,
      0.33952643631946594,
      -0.32369062093450407,
      0.02264598206970305,
      -0.5805859685134701,
      0.29391370084110885,
      -0.9996362325655265,
      -0.05460432504610992,
      -0.12292274623901074,
      0.219603000289885,
      -0.34791179112641224,
      -0.13061042065157782,
      -0.23782646863777554,
      -0.1512875396956899,
      -0.22589767149143364,
      0.06935714804444873,
      0.6745063833037914,
      0.7312572556216865,
      -0.11263963470345636,
      0.2554834846313547,
      0.3814494103282274,
      -0.23816293797736335,
      -0.12134751956475982,
      -0.20480127492055755,
      0.17002695421194808,
      -0.23998773271956586,
      0.4304642318964625,
      0.1905239944364207,
      0.1712028274669048,
      0.4576679762329567,
      0.5583444556681983,
      -0.6662597293773148,
      0.3255103730441701,
      0.5966909135160408,
      0.03465174346679985,
      -0.4501930919285405,
      0.046990223269433834,
      0.14147962452907809,
      0.0932496527896123,
      -0.038894409982671685,
      0.07990920643555564,
      -0.19237272252151377,
      -0.18519354784328582,
      0.019322918719743738,
      -0.19801362138605674,
      -0.1427519308940966,
      -0.061715241373763524,
      0.48560801425079625,
      0.010730542983096544,
      -0.04035394449448861,
      -0.2939490364400853,
      -0.05074556560844588,
      0.8129212927132278,
      -0.1385797860185259,
      0.25201359109915206,
      -0.24610301073627225,
      0.20870131641887837,
      0.8137288830124361,
      0.11893984389731176,
      -0.11347783231352987,
      0.27746892175013144,
      -0.5625930859682859,
      0.12110212651549099,
      0.3043769790804595,
      0.3679932568195935,
      -0.4459969913146152,
      0.28742832322908435,
      -0.3548462521157558,
      -0.22431190023644676,
      -0.04936230672443348,
      0.009122393480205573,
      -0.34561416320673,
      0.0036210421318229533,
      0.13777693011064063,
      0.10466116458843996,
      0.34990523712156635,
      0.11638428213193726,
      -0.8071590203326575,
      -0.16631882890555041,
      0.12771181598593073,
      0.595988920043137,
      0.6599311316672053,
      -0.4742611011463884,
      -0.5570874426339429,
      0.32649713238057415,
      0.7595069103947564,
      0.43157514291843574,
      -0.19980043379401724,
      -0.14925252996538863,
      0.4267453817515308,
      -0.30992137862320446,
      -0.004323873013630523,
      -0.1737652467479587,
      0.23013133201554398,
      -0.11969600408958025,
      -0.06539622720905021,
      0.24829078982300842,
      0.3086772039166634,
      -0.09978469445976107,
      0.05534725152832644,
      0.005886908777488585,
      -0.006859712747429827,
      -0.44983001583115134,
      -0.3273990443356664,
      0.5600441782695625,
      -0.04041581282756858,
      0.7891810397999988,
      1.0,
      -0.29131384790634024,
      -0.6632562601262932,
      -0.8637382757090772,
      0.8797905571316829,
      -0.1556620350818153,
      -0.648461912719505,
      0.8227808760020533,
      0.42999730789750146,
      0.19442302673592804,
      0.02849138910009745,
      -0.08459634293311036,
      0.0704508994664654,
      0.5859300575730962,
      -0.8562120241388915,
      -0.09834446692559837,
      0.11605969751219072,
      0.9916981026085124,
      0.04831167974708869,
      0.15707554753573535,
      -0.2420702078291823,
      -0.114190123861896,
      -0.10696028043442701,
      0.15908473582098492,
      -0.030228282435486975,
      0.7358062316067088,
      0.3058160141317243,
      -0.31015985538361746,
      -0.18978128548794732,
      0.8034628048495929,
      0.4008476616435235,
      -0.2578898164799838,
      0.2807069272730566,
      -0.22974723049885232,
      -0.21318149176857254,
      -0.13324067444629017,
      0.21622327235267677,
      0.035986099071200414,
      0.20249147094384073,
      -0.5824975769603571,
      0.1562753126338481,
      0.15405481831012421,
      0.004481426603624911,
      -0.46924714058935146,
      -0.7556669377851871,
      0.24631833458651103,
      -0.45043453407790357,
      -0.707778440672174,
      -0.456889266698873,
      0.3467058410600878,
      0.06795863854512382,
      -0.1149199005223233,
      -0.8185645864461041,
      -0.0739729396114498,
      0.05627585412216841,
      -0.24846177729628688,
      0.06290676104629622,
      -0.3583282895036838,
      0.4270670627562134,
      0.19174901467684763,
      0.08790823530680789,
      0.9665656103491373,
      0.28657030766774205,
      -0.19962360548244049,
      0.021734674577636774,
      -0.2587292702521578,
      -0.06382362121637508,
      -0.06145765845099871,
      0.19780355366648766,
      0.1559532577543926,
      -0.271150190728903,
      -0.4519753113885062,
      -0.004165930060777812,
      0.634702517193038,
      -0.29995534259266216,
      0.4843724779381587,
      0.017753856083238394,
      0.0470513181498951,
      0.11715300160371071,
      0.1977799869584487,
      0.323807018793676,
      0.38265650670144546,
      -0.5369579212633748,
      -0.3033426544593561,
      0.810288952341969,
      0.38752965600498657,
      -0.1737158870769189,
      0.10673427254817748,
      -0.1807033339568237,
      -0.13850700289105605,
      -0.2616578211916611,
      -0.15583810479322005,
      0.7404293146379622,
      0.1732690836034971,
      -0.1113866845745742,
      -0.27953339483706113,
      0.38518131127637245,
      0.3094527808397195,
      0.5585015857242056,
      0.18638499916363718,
      0.48120609198504727,
      -0.6323240846167751,
      0.6405758962593984,
      -0.040337299342918215,
      -0.3943771473903261,
      0.3374474259737901,
      0.6451550723338156,
      -0.1998367441919484,
      -0.18930082736470732,
      -0.25725814732278324,
      -0.10215743665607036,
      -0.08057132925542364,
      0.03092788664444733,
      -0.5918016841194174,
      0.29651431374422316,
      0.2881384414547074,
      -0.2884517354079157,
      -0.26875202172053986,
      0.1734579512773753,
      -0.0769011535724318,
      0.1234712379096328,
      -0.148547619489643,
      0.38067759943870666,
      -0.8162920491517869,
      -0.08710270720722342,
      -0.3015096849431241,
      0.28418982239491464,
      -0.021229162991266023,
      -0.3422999654164364,
      -0.28152138308127755,
      0.2540035883674998,
      0.005659761613722647,
      -0.5107849965870006,
      -0.34434605240006005,
      0.43053741534997003,
      -0.08556184956045229,
      -0.2994472043921547,
      0.3646520443604825,
      0.7190261963048135,
      0.5379012295596421,
      -0.19244334155894502,
      -0.05307674186375355,
      -0.6161051695831515,
      0.6952490854523876,
      -0.03633780661297127,
      -0.1301444811642353,
      0.11724248434457235,
      -0.11889088906593687,
      -0.12548446455164133,
      -0.08432837749654606,
      0.9297754144114635,
      0.2120863719646018,
      0.07910332458846708,
      -0.5628610021200601,
      -0.12970846776044065,
      0.29202379140976936,
      -0.013387424371660515,
      -0.1548251644146365,
      0.06720433392370728,
      0.41157136382920645,
      0.5002103750463414,
      -0.00673935785375016,
      0.8780439149582404,
      0.32906798861722064,
      0.21970207481287768,
      0.3044151732430654,
      0.03353911401655671,
      0.10612608174191138,
      0.2780216522768951,
      -0.34891727024987157,
      -0.4311794143848876,
      0.12007476095240424,
      0.5519009314529383,
      0.2597475009545027,
      0.1336866270573545,
      0.9846350502383509,
      0.10316898478575418,
      -0.1343327250745274,
      -0.6265594963146341,
      0.051030587367648775,
      0.2905931385942076,
      0.5011643978493913,
      -0.21040536241570776,
      0.006774026258626831,
      0.1058236503309862,
      -0.08084034783178112,
      0.27891238491315823,
      0.737829811143148,
      -0.8389694573970713,
      -0.2856276250953814,
      0.2801406432537293,
      -0.6097282961969709,
      -0.1837995548733847,
      -0.45809338716429004,
      -0.41747062928008405,
      0.39432057133002735,
      0.23869509373554273,
      0.29971759989244606,
      0.2921612981415461,
      -0.1589071393105349,
      -0.2445798189521555,
      0.3510341501887038,
      0.016877235701866333,
      -0.06429820496964736,
      0.279457201134061,
      0.7311451138067403,
      -0.1728081771777462,
      -0.3953445708982999,
      -0.06503838676724627,
      -0.06593435263847094,
      0.2667695494775757,
      0.11887839403128657,
      -0.0949343769174663,
      0.14148684496239158,
      0.13645735630768843,
      -0.09638947025745773,
      -0.6183782762389277,
      0.2585061829098492,
      -0.6388810985312985,
      -0.1283623271461596,
      0.24655241040223222,
      -0.2320582838570766,
      -0.271522279362889,
      0.2489653744009082,
      -0.557356778184751,
      -0.9159531549426999,
      -0.6001788336919694,
      0.2750044836871616,
      -0.14301639529246546,
      0.5201830565086653,
      -0.7993217311092112,
      0.5571107774196956,
      -0.15850778423836137,
      0.47899826550049174,
      0.4888825365424915,
      0.5142306124813649,
      0.49643749378891106,
      0.9462200046576243,
      -0.03206439910168571,
      0.37647900225789843,
      0.44787420047090254,
      -0.17279458017981464,
      -0.9704583303865615,
      0.41232654767309274,
      -0.24349002889706325,
      0.5074373827977381,
      -0.40529176908867875,
      0.7877261006052537,
      -0.5462416209764855,
      0.6256496869301831,
      -0.08093911475517339,
      -0.4455633298170455,
      0.14591899668497416,
      0.12246383562760339,
      -0.43454984154650206,
      -0.03316973601467755,
      0.33779854141432625,
      0.2329766304464031,
      0.09271528741247836,
      -0.14983593011010818,
      -0.09291459154386345,
      -0.7405707061240987,
      0.3433094102473074,
      -0.8629991381111753,
      0.5702001487865844,
      -0.07934054263860518,
      -0.09015840711435463,
      -0.029866881482375235,
      0.19892218180153942,
      0.41738891004051215,
      0.19699842904053724,
      0.21603028023888074,
      0.9129756301888566,
      -0.030204639459547884,
      -0.2814311062450419,
      -0.21907968385350918,
      0.1051226164118656,
      -0.21643295286430503,
      0.6233949479557004,
      0.6513381969764046,
      0.40754176486254995,
      0.2615426340273257,
      -0.5282882576941119,
      0.6268652968565482,
      0.5042739686216305,
      -0.23030091486787826,
      0.3192700275092216,
      -1.0,
      0.35749742386617855,
      -0.01204807936305879,
      -0.1812945328433221,
      0.29713121736655085,
      0.04785119611249778,
      -0.35050531387840644,
      -0.048970016408765235,
      -0.6274464147395279,
      0.3325157290600885,
      -0.7482057920070484,
      -0.6542694490575596,
      1.0,
      0.041980727571448606,
      -0.957429124200912,
      0.4857740855817384,
      0.31396886200514057,
      0.47204767648783164,
      0.34233021574392564,
      -0.40821146509554196,
      0.4883776618297189,
      -0.00466370607626667,
      0.45477467973533914,
      -0.34701810194110316,
      -0.4865546581370355,
      0.2965225327887766,
      0.6340852393595118,
      -0.46613696853390046,
      -0.04966735783692179,
      0.07640335571162968,
      -0.11462448754092688,
      -0.41839381506331613,
      -0.6443483885239184,
      0.6325435009823894,
      0.414626358593732,
      -0.20097473420458803,
      -0.0667827201465328,
      -0.293559311518424,
      0.1384636532787098,
      0.1953171365636439,
      0.4768793133636669,
      -0.10235190132090596,
      -0.011105708704809293,
      -0.014923357282049153,
      -0.11176845219851217,
      0.24047756874472048,
      -0.4488579202033005,
      0.09202038560275141,
      0.6333554744589821,
      -0.09356768514701798,
      0.025931553656466683,
      -0.5907877583878657,
      0.34666231075251386,
      -0.1254237428522046,
      0.14765396664123323,
      0.7467984950337345,
      -0.625591700450996,
      0.12871654762020104,
      0.04333028578125743,
      0.10793878207515675,
      -0.12717171693331564,
      -0.4622273620419249,
      0.6251875946944948,
      -0.16649207572206773,
      -0.27418946045811515,
      -0.08504441376520475,
      0.27485547403050553,
      -0.0029441249791901814,
      0.0991872720845593,
      -0.20271283355192662,
      -0.02179089156001024,
      -0.31989914656417123,
      0.11323477994687156,
      0.616351203866676,
      -0.11369251718388092,
      -0.11021941116009562,
      0.2081809662880754,
      0.00020508276774264603,
      0.677359559721698,
      0.004337612832807272,
      0.13928939548661162,
      0.4834010571620561,
      -0.06776511548656226,
      0.26538967120686363,
      0.06313174497989148,
      -0.03817873097973834,
      0.07253017973636279,
      0.41950930552844984,
      -0.4741992558463745,
      -0.17854804927349344,
      -0.48823240863478484,
      -0.2927752526288454,
      -0.3200395261043479,
      -0.17887637923009933,
      0.22100069209456547,
      0.9272086651694782,
      0.5082433323645796,
      0.216857624005171,
      0.12125228738107872,
      -0.4035599791596015,
      0.20913052007074925,
      0.21077666961581287,
      -0.3564127897666669,
      0.14811059245227126,
      -0.5690133562018217,
      0.06851551753037252,
      -0.06693817852261447,
      0.01177657653619519,
      0.41828066373876716,
      0.01056891954724666,
      -0.08029469420894443,
      -0.0762486621720078,
      -0.029163935214849973,
      0.49528764706171075,
      0.03911819966471578,
      -0.005558023548062396,
      0.19178477055133658,
      0.15612255054407453,
      -0.03540270543045449,
      -0.541308490573616,
      -0.04779468146654764,
      -0.20359346363199246,
      0.03060616107154667,
      0.14747091781274158,
      0.013503934752781806,
      -0.013820493805462523,
      0.37804518091136496,
      -0.16626489180174858,
      0.6954301195784868,
      -0.05537658860448553,
      0.15608933057427868,
      0.29798261203432364,
      0.374529199089809,
      -0.3419788293076806,
      0.46095244447992395,
      0.06537087134929381,
      -0.10512872364768994,
      0.002431347867129112,
      -0.1998525920491849,
      0.12634087588472004,
      0.02743735046128362,
      0.15907688472422715,
      0.06967344181497849,
      0.18635222172508262,
      -0.079574540354307,
      0.09772789195389683,
      0.4718959835175213,
      0.48974456115990905,
      0.31548432660655973,
      0.06100867893045332,
      0.35216213332112495,
      -0.061607365232062256,
      -0.4891288487808828,
      -0.4795933314807228,
      0.005043718310401311,
      0.21433028544650556,
      0.08008537617914127,
      0.20353107717877647,
      0.03159821647092637,
      -0.010420843106334773,
      0.22860538127810315,
      -0.34120816974915574,
      0.051906544903063574,
      -0.09829193588805665,
      -0.32144458295008416,
      -0.656212190295407,
      0.16355624997243476,
      -0.9479901219263458,
      0.02943289791604678,
      0.007446992143534836,
      -0.07689923389463851,
      0.15003304884076038,
      -0.33775180494359086,
      0.8741265682938709,
      0.25980472262221654,
      0.021933157773253657,
      0.8034954741025867,
      0.14729255162798666,
      -0.020610324080571424,
      0.2284825559712029,
      -0.3981650020414258,
      0.05738926977635774,
      0.5106537667258293,
      0.12481107915220854,
      -0.3399298592115552,
      -0.4321887842450279,
      0.18035478744998937,
      0.03388181369836149,
      -0.335517254132347,
      0.25951084481395237,
      -0.8144465037982996,
      0.06589469928839913,
      -0.2225705314941734,
      0.9768779435817133,
      -0.5235041496820507,
      0.08066112390942187,
      -0.7745480565320683,
      -0.03946840907459472,
      0.08498679894532056,
      -0.4210274116418906,
      0.5471981871418842,
      0.14560324884447673,
      0.17170900892604385,
      -0.15620489991430064,
      -0.3322859519399832,
      0.17751543038211284,
      -0.033123529685409187,
      0.4116112260636888,
      0.2762917190698462,
      0.08682193039632506,
      -0.30248973984005034,
      0.08077116847525985,
      -0.308202720686477,
      0.5096426380491897,
      -0.9711735045150104,
      -0.12195483459280984,
      0.20706981546785647,
      0.31484418316423596,
      -0.05994384990485933,
      -0.40512426547331865,
      0.7026075869875533,
      -0.30877292516624144,
      0.08148228234913092,
      -0.3175356417422284,
      0.7114937110120544,
      -0.2023252408127201,
      0.39214190068938876,
      0.25448472342030315,
      0.444101827620586,
      0.09448745764887721,
      -0.17276784492447284,
      -0.626450546805683,
      0.2004956678490159,
      0.6311613016562599,
      -0.0005448909644227007,
      0.3120004080597599,
      -0.3127584119652532,
      0.5471961439591057,
      0.08463759834789633,
      -0.11799022427887837,
      -0.0797762118630928,
      -0.052871746772147225,
      0.08697296503020784,
      0.21894957810092916,
      -0.26372279125487,
      0.19032867102397025,
      0.25308281196376997,
      0.3355139948536315,
      -0.08002453782323925,
      -0.13276871826133063,
      -0.2144366541564081,
      0.5051586509627939,
      0.002089846747546354,
      0.41229553197754426,
      -0.15473053704631384,
      0.37220526065658854,
      -0.588455672400051,
      -0.854694495830891,
      0.15145676137617528,
      -0.3292242520521906,
      -0.016122894178572225,
      -0.7306427931997095,
      0.4373793328470501,
      -0.5937023298794272,
      -0.4633130787263359,
      0.3430656076046033,
      -0.35430074148381996,
      0.10343541955053583,
      -0.18103969816946436,
      -0.5710323301530059,
      -0.06942769180219475,
      0.0746918718083664,
      -0.3681225210850797,
      0.17263291763725852,
      -0.005175311188532691,
      0.13009239289551675,
      -0.33123115121030205,
      0.22039848567335396,
      -0.01978197073970727,
      0.30867543605891246,
      -0.025562157869152537,
      0.36108655095457154,
      0.7561922841723846,
      0.36368574308138674,
      0.01116830150688253,
      -0.5447139165056915,
      0.3484656186148125,
      0.19908372425966275,
      -0.2801945395495429,
      0.17899829611080936,
      -0.6980868580797562,
      0.0027504978432044812,
      -1.0,
      0.7392507512348455,
      -0.05133125045870568,
      -0.4797558805783928,
      -0.24949787388488415,
      0.3080631546003794,
      -0.39602964446341565,
      -0.0813616630551465,
      0.004479309898008529,
      0.07037899136713813,
      0.6178209461432131,
      0.22225292838506194,
      0.10318564893483666,
      -0.37582273432819596,
      -0.3900482699426798,
      0.1754983739293769,
      0.2573416109361196,
      0.6613647538791099,
      0.5999686794203029,
      0.6388387181946178,
      -0.347346599075688,
      0.12967792903044775,
      -0.6183249935807507,
      -0.05872849098418449,
      -0.24591480047178516,
      0.040679659282007896,
      -0.4869808326859072,
      -0.3028102207640422,
      -0.1321325902117678,
      -0.3675333001571064,
      -0.27807366326218186,
      0.2748638898407204,
      0.1623257861625646,
      -0.46261209575152823,
      0.035591055232776704,
      -0.15854740440216758,
      -0.42991833037186783,
      0.051376251795329085,
      -0.5258717670448341,
      0.25330306200412833,
      0.19726758583545095,
      -0.4870454917468716,
      -0.242740363015346,
      0.2891228241787712,
      0.10650696995991647,
      -0.41351056958207544,
      -0.20684911160891017,
      -0.0261902611034138,
      -0.15586987343368705,
      -0.25317521889485195,
      -0.02147616176138248,
      -0.19476342068420774,
      -0.04702005033558336,
      0.1789046159415391,
      0.04662708764017526,
      -0.02082646993983034,
      0.31188582050762226,
      -0.4323998406322663,
      -0.2308466834065405,
      0.3377556423715647,
      -0.3265551197734914,
      0.047184852991075735,
      -0.3679030038712655,
      0.38279501064716337,
      0.077636585042773,
      0.017851966160945053,
      0.8058337566778668,
      -0.6422925246918433,
      -0.23205210982772317,
      0.49002451260974617,
      0.47551491290130304,
      0.5297323300411885,
      -0.1280492907957183,
      -0.05446303626095393,
      0.32522371110402537,
      0.24161898408294036,
      0.002950996955805453,
      0.11083053500732377,
      0.840555521498483,
      -0.43762051960486037,
      0.32706715557821664,
      -0.5376603800851714,
      -0.32680043994391017,
      -0.32709309285951366,
      0.9986750894431844,
      0.07883555834956861,
      -0.16202522261205538,
      0.4572782863815271,
      -0.3755899068365724,
      -0.17223133223719153,
      -0.32016232166043557,
      -0.05219343845564857,
      0.12540568306961095,
      -0.022358553041133017,
      0.23791518916105164,
      -0.23021337143543275,
      -0.19581436443765288,
      -0.06497492007422206,
      0.22839938633486084,
      0.4834133772109713,
      -0.3577183296148912,
      0.19594830713081138,
      0.2932192984156589,
      -0.10510161617578445,
      0.2656666963598433,
      0.06786233546912177,
      -0.5874449101815996,
      0.054203270895152235,
      0.06407612982444302,
      0.1720659619726818,
      -0.41509305298366844,
      -0.11637087515796173,
      0.14059710496002284,
      0.5648531816665173,
      -0.011857689118951659,
      -0.1693424688307846,
      -0.6407588007757682,
      -0.4495953551376454,
      -0.26881040336352596,
      0.3261044944994766,
      1.0,
      0.3590284434820549,
      -0.09186298285986264,
      0.09002353194470882,
      -0.10980802070310731,
      0.032682132992187904,
      -0.3549830276937711,
      0.20580353411870553,
      0.05433698026300876,
      0.2444277521725888,
      -0.3607222090251167,
      0.9758339619954749,
      -0.11172154516274746,
      -0.12119326961531456,
      -0.024810288849999376,
      -0.030883686341427137,
      0.7404814978128057,
      0.22532205195928237,
      -0.20544594724648202,
      0.1865540644632845,
      -0.29108868695767104,
      -0.39597197003955653,
      0.3096573667436552,
      0.2965743016400779,
      -0.39564248097292193,
      -0.1482024605063663,
      -0.4596418717241131,
      -0.33406893992876935,
      -0.3604952284849324,
      0.6833617135533299,
      0.4096024839991655,
      0.11790474875639473,
      -0.33698479019692096,
      0.7368534200613055,
      0.06228098148772859,
      0.6440801705485577,
      0.018643685898561368,
      -0.3460852006275865,
      -0.07813228004296768,
      0.3598644334087059,
      -0.5621228129530518,
      0.40783021636746053,
      -0.3271727559641757,
      0.10807224444188662,
      -0.3715969392180919,
      -0.05939743874256717,
      -0.8427251996918484,
      -0.29162372659001606,
      -0.2852166195147869,
      -0.35243622182872747,
      0.20576449037942007,
      -1.0,
      0.22175982931768196,
      -0.12858862760557166,
      0.32422098938327065,
      -0.09334790614826895,
      -0.48808686928734757,
      -0.5116118258807979,
      -0.09431624824326904,
      0.36351842948308355,
      0.46887604863123183,
      -0.7357269879172217,
      -0.5512791569149568,
      0.003002266389322842,
      0.24823129767143284,
      -0.2130821112847563,
      -0.28390470092316533,
      0.06788261716985007,
      0.4156272710809835,
      -0.08473702469003384,
      0.4330506596953356,
      -0.6311455360914414,
      0.03998370864708771,
      -0.1604068679316441,
      0.31423669681040733,
      0.22830127950890353,
      0.4296188904096062,
      0.168033271849067,
      -0.3839122982897906,
      0.3837787537113685,
      -0.5134808789212667,
      1.0,
      -0.18541764522859,
      0.09637505599874469,
      -0.3883999669871229,
      -0.09584580661730775,
      -0.5130932568406614,
      -0.07070848306510501,
      -0.5888109410657638,
      -0.07147768656146752,
      -0.19054538758791753,
      -0.04478806080935424,
      -0.03031577921440397,
      -0.4549997907590917,
      -0.322303933247769,
      0.44626919476808347,
      0.12196580032978435,
      -0.03270394883329843,
      -0.4042380485319458,
      -0.07454994839973407,
      -0.2478764114323107,
      0.1790170210436687,
      0.7848334706130166,
      -0.4110212319408547,
      0.12528388898340986,
      -0.012145434437972863,
      0.01727587568277858,
      0.5556463978784595,
      -0.43557829096990464,
      0.10922864811332672,
      -0.1508298868247322,
      -0.002955982617447561,
      -0.7500722636471906,
      -0.4409604552597145,
      -0.3542698920193188,
      0.44936077243327144,
      0.31520143662082356,
      0.3652685589475128,
      -0.5630367436918144,
      0.4677005554965119,
      -0.7182773940541642,
      -0.11598205219698196,
      -0.7229031672050413,
      -0.39184350466414053,
      -0.5115117280990547,
      0.4251286002686445,
      0.10859047881223388,
      0.2205732405497269,
      -0.3258614752091236,
      -0.223754396780738,
      0.04026060665380753,
      -0.34967321446949595,
      0.5881256703986448,
      -0.02937309012251231,
      -0.0040369820345024735,
      0.1822961549892141,
      -0.1771644297713651,
      -0.2809065073685157,
      -0.06943800364337936,
      0.7579727035326133,
      -0.8125090948103202,
      -0.40630686465486465,
      -0.5054054798252842,
      -0.5028328342426859,
      0.31005644381901476,
      0.08471880789952857,
      0.610004919743103,
      0.10886579371071559,
      -0.6371021781064428,
      0.5087942034606108,
      -0.15667588790039091,
      -0.05693883014415367,
      0.12648860092957337,
      -0.0013343878607278425,
      0.2008918057752924,
      0.3108169630640685,
      -0.36168308603040755,
      0.17015359617431464,
      0.320098863638813,
      -0.2007560476606269,
      0.4067356256675826,
      -0.10854851572409711,
      0.5958546970084282,
      -0.09572985234160035,
      0.7428219128662817,
      0.19984578050181176,
      -0.3621663133702695,
      -0.09401551237031404,
      0.35058728287983554,
      -0.5331691899988418,
      -0.4923816508000358,
      -0.1880390314581624,
      -0.24477022275363716,
      0.05633944895372718,
      -0.3651839653649352,
      -0.139726182033755,
      -0.08541936003362208,
      0.4121248272652027,
      0.27739328493708126,
      0.18751857455999588,
      -0.08209779605837426,
      0.4984224572773464,
      0.0325325361781724,
      0.11141497411378753,
      0.3942850130902355,
      -0.025397631186663466,
      -0.1353778238234575,
      -0.17639735021242725,
      -0.18743244381489377,
      -0.2415271477812128,
      0.05439438816554553,
      -0.5316465995707498,
      0.480509719078154,
      -0.016055750937284122,
      0.36668496333573014,
      0.0007633655810576623,
      0.6380348338632715,
      -0.08151734662148942,
      -0.5560151278877699,
      -0.265018524934569,
      0.0019568414219653693,
      0.5606423308562222,
      0.6140652523514101,
      -0.6915427357978987,
      -0.22819153930804129,
      -0.08520804470527969,
      -0.11809564989990243,
      -1.0,
      -0.0649340953332912,
      0.20164539623277256,
      -0.15192585920496024,
      0.06278793642853399,
      -0.4107965635061683,
      -0.6390238596541153,
      -0.12176760415888915,
      -0.068902505439599,
      -0.13568525298139208,
      0.9987026118603142,
      -0.12892682328710847,
      0.11975498499120572,
      -0.04384708254640121,
      -0.07910499543432671,
      0.06144415600167402,
      -0.9689597613610229,
      -0.02616317478370167,
      0.25189617939908165,
      -0.25002137099239224,
      -0.39506995937113015,
      0.4372084830249578,
      0.46506223261089363,
      0.6575909892692972,
      -0.23297921872147176,
      -0.31693508432073614,
      -0.3830605100871824,
      0.30522600213532725,
      -0.565569791840663,
      0.5880460433191643,
      -0.05749219815965482,
      -0.07560368552710514,
      0.2826315335554213,
      0.1742967463351058,
      0.38657116574701234,
      0.1771872329156177,
      -0.2078612825194929,
      1.0,
      -0.12113702560893225,
      -0.14252062463327086,
      0.2839089546001362,
      -0.6427714319174382,
      -0.22849110805475947,
      0.39574076134021324,
      -0.35943353221751834,
      0.45835597060177524,
      0.30904580427849576,
      0.17310936288156578,
      0.3360653977111042,
      -0.3493260690080334,
      0.11228310654762115,
      -0.17462249374033093,
      -0.23545725070947215,
      0.9174750230869021,
      -0.13644627667333425,
      0.6053237877162703,
      0.6062032551493225,
      -0.11701390350500018,
      -0.10624015675220061,
      0.6455044411766935,
      -0.6421524666522287,
      -0.15302477810736242,
      0.014249610431415809,
      -0.4442946031732997,
      0.25079434020098995,
