{
  "architecture": "784-128-10",
  "optimizer": "sgd",
  "final_loss": 0.032510958430228824,
  "iterations": 50,
  "weights": {
    "hidden_size": 128,
    "linear1_weight": [
      0.14950757892122568,
      0.4685242909815226,
      -0.4401972042339145,
      0.3266211533974095,
      -0.9973075518831158,
      -0.4927018980164627,
      0.44893028018673387,
      -0.07711195164912188,
      0.5488981765957122,
      -0.6826836443140185,
      0.16614461773634548,
      0.26852363163940063,
      -0.11859983490096959,
      -0.31296867187956445,
      0.15407870123976397,
      -0.8987250363053381,
      -0.7324031529095629,
      0.428057136565102,
      0.7962735548101296,
      0.4128463884933413,
      0.2567210988523503,
      -0.15767256573697508,
      0.587258357125044,
      -0.18060479249721584,
      0.4357364716342824,
      -0.6943093472081792,
      0.702112115930472,
      -0.9549000995354939,
      -0.28856704471873396,
      0.7635875677131936,
      -0.4672991863534154,
      0.3843415932169274,
      0.9821925889865146,
      -0.07948207597671675,
      -0.662872300631272,
      0.21034270504038655,
      0.1497772717893373,
      0.3254004506384478,
      0.6358698196352632,
      0.6540856223949487,
      0.006842545333441086,
      0.8573858981657776,
      -0.5160822439578573,
      0.45890068772074444,
      0.5151524276440189,
      -0.19683613569997171,
      -0.7000853112847438,
      0.19845498347169932,
      -0.8737727244712801,
      -0.20958990243611075,
      -0.03004688884381479,
      -0.19757065730121304,
      -0.3598867151804098,
      -0.1179373461007398,
      -0.24690763508604463,
      -0.06215574271426472,
      -0.469369746049939,
      -0.6830997979596836,
      -0.9262754855208195,
      0.07392346257678573,
      -0.2800140741338678,
      0.4367841173555005,
      0.9854779899662094,
      -0.3392828379472522,
      0.2456620939820311,
      0.6011880590883534,
      0.42479977056685736,
      -0.5931774513278211,
      0.6583657452450629,
      -0.8064920429237556,
      -0.18914461005512773,
      -0.3112249545806324,
      0.10473707754093975,
      0.3096135220319096,
      -0.9456072909089066,
      -0.7924013097709572,
      -0.9367183224734501,
      -0.09184685110957047,
      -0.8759594511120055,
      0.6512086776501644,
      0.17459168010062887,
      -0.5357898316153878,
      0.821720403348468,
      -0.7039434176247163,
      -0.7515656059642124,
      0.24531147248302276,
      0.03005825551123853,
      0.2318820760005884,
      0.9036805146200524,
      0.48869933402287713,
      0.21036457328216351,
      -0.6530750041197515,
      0.44397160334006736,
      -0.9321539525124876,
      -0.8667347544011554,
      -0.8009935019661172,
      0.2905019614966815,
      0.962429256363869,
      -0.03827170474927377,
      0.9755890967825791,
      0.8511771250008264,
      0.9306342125949114,
      0.5247023270649973,
      -0.3055635538117597,
      -0.3464538508703855,
      0.848227271931759,
      -0.6562304960727139,
      -0.3287073380950941,
      -0.011748729030510718,
      -0.1751475562331739,
      0.9557330995649247,
      0.05372717028301266,
      -0.6257025784930272,
      -0.6281052180891145,
      -0.21706159316746176,
      0.18125209684881072,
      -0.5197546619329553,
      0.6021068575027324,
      0.29580542733671744,
      0.9786659948208785,
      0.0692975672335876,
      0.6939043810238101,
      -0.10236406073505777,
      -0.7039590188146758,
      0.910489978837155,
      -0.9083190708739246,
      -0.4068855731770701,
      -0.6719842529136937,
      -0.5676995274357547,
      0.5254973811080261,
      -0.7361224303372751,
      0.034526400795836354,
      0.8058018878655355,
      0.9552047174725016,
      0.7032277534482265,
      -0.4514596738407962,
      0.09269843831225733,
      -0.28691610614409757,
      0.3635430542806637,
      0.6394879805782843,
      -0.4846472185972618,
      0.5629013454819702,
      -0.49872945511537903,
      -0.4590270604994692,
      0.0788514322794358,
      0.26952145390590565,
      0.6740610159036677,
      0.11901436965164325,
      -0.9951160707865352,
      -0.41089989267250526,
      -0.47353712829055883,
      0.8183864601101214,
      -0.6482478989150442,
      0.7585661235314722,
      -0.6669776656570914,
      -0.1367959846257134,
      0.5354134761603264,
      0.3017783744734712,
      -0.024270716727485153,
      0.2899188265816395,
      0.508223348631585,
      0.24222187686218377,
      0.8849830189657801,
      -0.8406123639052763,
      -0.45262456023857556,
      -0.7953898773421892,
      0.27212673934619036,
      -0.542459541850817,
      0.30471243372089396,
      0.7843271287409963,
      0.3368655665709055,
      0.7237796466705548,
      -0.970477941352097,
      0.23732869831083536,
      -0.5020797093542065,
      0.8598437320307468,
      -0.8930541549867876,
      -0.4098776527021769,
      0.2504162642932537,
      -0.7083545062764176,
      0.5523197117421668,
      -0.9856493475694097,
      -0.29506483446411813,
      -0.705778636033692,
      0.09357301201979396,
      -0.022566970260680774,
      -0.5324288071061044,
      0.02653341972672041,
      0.5850263798867075,
      0.23179379059051874,
      -0.38503778272979294,
      0.2716057614924743,
      -0.058193746890038645,
      0.7491267525412568,
      -0.7739841457730212,
      0.08693706717366845,
      -0.7344666862398141,
      0.7389513996794621,
      -0.7273593144740138,
      -0.12424308869964684,
      -0.26312679006250617,
      0.33013412858814317,
      0.29152847012386895,
      -0.3978711042110764,
      0.2677906320717349,
      0.35055540071338,
      -0.6481862529276654,
      0.938737985743828,
      -0.14045091498340656,
      0.4574899112011843,
      -0.628835216504608,
      -0.19211302286423693,
      0.8758472874862488,
      0.9534935563062366,
      -0.893634832376673,
      -0.8419304616596985,
      -0.057535576283084255,
      0.4718651814297774,
      -0.7193562633865085,
      -0.9561647239684499,
      -0.48532765379455156,
      0.4278860511070406,
      0.4023602341787631,
      0.29112666594660674,
      -0.037692625138532554,
      0.6992155373754678,
      0.9083472224453382,
      -0.5762950863951292,
      0.15348790185210137,
      0.6423053823115095,
      0.09138215336126687,
      -0.6325815433932536,
      -0.11025098523393395,
      0.6078734765609082,
      -0.772147367649048,
      -0.673745285787005,
      0.948508225729852,
      -0.3797908567575433,
      0.5255389488621547,
      0.841824635773043,
      -0.1592990228600779,
      0.37379403320245586,
      0.13830051479869465,
      -0.45049651441816996,
      0.5663071782351334,
      -0.10647486918200877,
      -0.07545297468784073,
      -0.46823963001334723,
      -0.3679241300647632,
      -0.3467716915184388,
      0.7274552808389245,
      0.9324824013801356,
      -0.4088566886044366,
      -0.8282144572144023,
      -0.5347084015907838,
      0.3960995695715235,
      0.6000512991347362,
      -0.568720989560663,
      0.6922410875450504,
      0.6699646573944755,
      0.44383685403333506,
      0.6847312659724607,
      0.4676208005770597,
      -0.5384009591459019,
      -0.9933996605052027,
      -0.2066716149734653,
      0.36268626583308916,
      0.9513124750361626,
      -0.00758206912310988,
      0.6927333214434324,
      0.7036198792477562,
      -0.1553309537478993,
      -0.32874300285911084,
      0.9194931450941883,
      0.001245640627386857,
      0.49114417960812307,
      0.19220063720004554,
      0.5807580262556824,
      0.1549367765325076,
      -0.35598597090802897,
      -0.044498848392774404,
      -0.4669039097765991,
      -0.1719707039630889,
      -0.7111497721271216,
      -0.5201059626146666,
      0.20923588726674747,
      0.028498598153825272,
      -0.704836842898092,
      -0.5372419460148666,
      0.6720257083897723,
      -0.7426592823899636,
      0.05885528945615781,
      0.6853433938725155,
      -0.33659439369810007,
      0.3089906720361044,
      0.20045593940910922,
      0.8264484940088384,
      0.31191212261103796,
      0.12300865863558363,
      0.25915240804466966,
      0.7991678113716354,
      -0.7745876446370521,
      0.9931810886408043,
      -0.5777356124926819,
      0.11840140335432481,
      -0.015920647201349114,
      0.40736692522803764,
      0.28315377434875244,
      0.39464115861610893,
      0.7909777593966956,
      -0.6724749246649666,
      0.5275435147279954,
      -0.6535588929916196,
      -0.8363534953411054,
      0.5619478459256446,
      -0.6638636716351369,
      -0.5252821701315508,
      0.004569383241246117,
      0.9547061808411668,
      -0.8177173447721846,
      0.1056002551084243,
      -0.37197933906521763,
      0.36149753875163326,
      -0.4102533007129473,
      -0.7785369036118648,
      0.286547190827634,
      -0.7741515408691622,
      0.5730505490981823,
      -0.6746406072043198,
      -0.8002995915246545,
      -0.9201554053490111,
      0.7610622595066077,
      -0.18529797527221503,
      -0.0950007205317609,
      0.2998238863762215,
      -0.6261127249486407,
      -0.8645429534954481,
      -0.07906383130757422,
      -0.1709616507007683,
      -0.02086144813062263,
      -0.40008334008280355,
      0.13921672691482212,
      0.3589585160492488,
      -0.7595491617838195,
      0.29903605608991035,
      -0.9192709588907877,
      -0.3994666518137676,
      0.9245949550459875,
      -0.9678884189968597,
      -0.639641180455568,
      0.6678789749560772,
      -0.75707788201658,
      0.953632319935291,
      -0.6618771294033321,
      -0.36048484531325353,
      -0.7880802150244905,
      -0.7622703300323739,
      0.8016859849641289,
      -0.9469589461614856,
      -0.27571571850790677,
      -0.12759156954856965,
      -0.6319036654505918,
      -0.8343322685903138,
      -0.1998977590839297,
      0.2287814026069619,
      0.2650494879298886,
      0.9789659163763766,
      0.24072585891296616,
      -0.8149964439012978,
      -0.17079956663666374,
      -0.05934517605655576,
      -0.1372001926642732,
      0.6644336075357273,
      -0.8997462259477036,
      -0.7771927548279218,
      -0.43057952355993645,
      0.4436800946298469,
      0.9692426387885846,
      0.6403550300496068,
      -0.9093191532836551,
      -0.8628981947430598,
      0.7818309514673336,
      -0.4098858472575121,
      -0.5693485038660645,
      -0.49851571810569106,
      -0.3028439253513374,
      -0.3963014130640693,
      -0.08491773730484176,
      -0.41788233708384837,
      -0.2645541790982223,
      0.13636759007642474,
      0.9305773774342989,
      -0.33375890925343643,
      0.13250425122160414,
      0.7960677093506776,
      -0.43181592480812003,
      -0.14341303100088054,
      0.9847683271309133,
      -0.6419931843164104,
      0.3545391031453453,
      0.5952041441362108,
      0.5200239535228226,
      0.2754377093116671,
      0.5534645827133575,
      -0.6326055675133517,
      0.5818755283823491,
      -0.9592798426911262,
      -0.3839797129699253,
      0.7079997363941053,
      -0.13457135165399836,
      0.015039685675380943,
      -0.45460140158374684,
      -0.9513280229635335,
      0.693763156348771,
      -0.504494940243362,
      -0.21305864731581026,
      -0.672426888583658,
      0.6672408929356171,
      -0.45025064634561207,
      0.7960193357723733,
      0.2196475398035853,
      -0.9844840419307688,
      -0.9464488617163735,
      -0.791954076083921,
      -0.10548503243177465,
      -0.45878077063439393,
      -0.06630996662393973,
      0.10463222036301878,
      -0.744913484833611,
      0.9896764579123603,
      -0.22779591789576936,
      -0.26630420132588595,
      0.0820230928393848,
      -0.502515815307551,
      -0.9208540860028562,
      -0.6978067614856944,
      -0.015765840434498246,
      -0.10255844259331126,
      -0.41709028297058015,
      0.11742470899143886,
      -0.04956249709466953,
      0.368647754606773,
      0.2238400578780062,
      -0.5309048346264221,
      0.7143832799071865,
      0.9861507358852046,
      -0.8930788205385034,
      0.6764607599643861,
      0.7499480816449116,
      0.43916412000460725,
      -0.38052629099693547,
      0.34654516654122935,
      -0.9510654870650304,
      0.7130514468773068,
      0.61990450757555,
      -0.762536112811532,
      0.3896558862312991,
      -0.7301712490827375,
      -0.31898926408217576,
      -0.8152983799512605,
      -0.6739859620059323,
      -0.48250434161261146,
      0.46120336317387944,
      0.5214592929700133,
      0.8555431871472159,
      0.22903511548287692,
      -0.40138671784417423,
      -0.2768995286229833,
      -0.4801500842166776,
      -0.22035246367499828,
      0.3790812434830524,
      0.8405003258328727,
      -0.804978068354349,
      0.5315510524063347,
      0.29980336115872785,
      0.03647934132902786,
      -0.5619065325900866,
      0.7085885318188434,
      -0.78835298736852,
      0.9106484275041722,
      0.3758465553864385,
      0.5892299342746257,
      -0.3496203422831575,
      0.7121252535256577,
      0.12236829887386746,
      0.4828629189410847,
      -0.2090404121549405,
      -0.1595323657541734,
      -0.33021546275676694,
      0.8494626749889487,
      -0.5003050141681945,
      0.15990774889939607,
      -0.6457192728192607,
      -0.38726218863874606,
      0.33544035356629043,
      -0.5922710645364154,
      -0.4441297507789702,
      -0.3537107369155231,
      0.1519115233080106,
      0.5931049699482132,
      0.3796309068282915,
      0.18502141514419868,
      -0.5420141122372634,
      -0.19606432944849073,
      -0.3217233276753907,
      0.8493320076494539,
      -0.23149152553929198,
      -0.5945174972625445,
      -0.8949259893517496,
      -0.31831509733623153,
      0.5832941328956092,
      0.7118886855699378,
      0.16573139396008352,
      0.5344598723663752,
      -0.7733464297263186,
      -0.06382205329564727,
      -0.8833075045954311,
      0.42517978705787596,
      -0.03190505551065059,
      0.9400824042281997,
      -0.047264804165905394,
      -0.4754012965080693,
      -0.45696465728698576,
      0.5803280422236905,
      -0.1868491226418023,
      -0.43067647200578374,
      0.7285664641784413,
      -0.40562389315862013,
      0.6026473447717229,
      -0.6911565299255282,
      0.2520871101950941,
      -0.5728975365151999,
      0.7972765570800666,
      -0.8306977004034395,
      0.9853286011086122,
      0.634561095134043,
      0.22487733396369447,
      -0.19037726901345375,
      0.5447759821944627,
      0.11512705666358136,
      -0.6918134913046297,
      0.15708601979302217,
      -0.9632241997497482,
      0.3523363318753614,
      -0.17407430487555975,
      0.966391617086777,
      0.4823011295435313,
      0.4141408188478619,
      -0.06682682847952992,
      -0.05742148424057869,
      -0.9870691413569781,
      0.5885149799656588,
      0.7667179838564744,
      0.11688648247774469,
      0.6728553037254366,
      0.36745857049203035,
      -0.6338171390322738,
      0.24295112573284183,
      0.9376353047716046,
      -0.6461040437441183,
      -0.6318027392518597,
      0.5285808303684494,
      0.722080102892718,
      -0.2123507086753038,
      -0.9520993575432564,
      0.871452675707816,
      -0.12569323398927623,
      0.7154536823945472,
      -0.46127407256605435,
      0.03221909976183546,
      -0.5848935954445901,
      0.8882996810795287,
      0.3131907780045793,
      -0.13237953208457864,
      -0.35295692768938725,
      -0.1703950633125053,
      -0.10876391778024241,
      0.7357879325727312,
      0.3641782483950913,
      -0.6911261133295477,
      -0.24940702530511927,
      -0.36057768872047,
      0.7992750628823133,
      -0.10271259711108649,
      -0.6360163948507891,
      0.002880516276692946,
      0.12384528653512139,
      0.42874892363969974,
      -0.9718200718570871,
      -0.7878188029332769,
      0.20114511839284677,
      0.9783545912062559,
      0.5111947931772884,
      -0.01720730538801729,
      -0.9655070496179055,
      -0.3307279342758499,
      -0.9235418369539485,
      -0.6456025919928847,
      -0.9517243795380268,
      -0.16663915652426753,
      0.5509557737199926,
      -0.7494118764124305,
      -0.699527991609687,
      -0.4096134761319833,
      0.8952673181889947,
      -0.33895154123719695,
      -0.5523385071972181,
      0.1922510612240529,
      -0.08090439870091193,
      -0.5724706105498262,
      -0.17492382106930537,
      -0.3439180988448739,
      0.9944715639816764,
      0.2073115731781916,
      -0.028724103470308515,
      0.05917860052937063,
      0.372798293317145,
      -0.49046208609694897,
      0.22216022556913173,
      0.5525794367377999,
      -0.07464819440440063,
      -0.674069138627357,
      0.993509246465448,
      0.3224669746913109,
      -0.5946119437356375,
      -0.8614967683744563,
      -0.504392321177681,
      0.1979611251560549,
      0.009338338511199362,
      0.9138178015747496,
      0.06799103077472402,
      -0.827732857544746,
      -0.233491511615455,
      -0.8436668161099945,
      0.621066169016983,
      -0.6621816736815367,
      -0.1717194887417317,
      0.2446754901437267,
      0.893453190971897,
      0.36480980903099103,
      0.5651441909530588,
      -0.831274707017593,
      -0.07266158787418164,
      0.17222171423891486,
      0.7412051902693073,
      0.4609262115650641,
      -0.6089697453067132,
      -0.16112395684084047,
      0.7771816269863745,
      -0.8589517166579186,
      0.6744515817722267,
      -0.7549747576503676,
      0.6463161233745605,
      0.848402999062619,
      0.429837345735675,
      0.42230428713184565,
      -0.08583536597204611,
      -0.5888885692791644,
      -0.713668603640019,
      -0.8913790459598658,
      -0.033008848633284904,
      -0.23368030797798123,
      -0.0864392688448421,
      0.5848470787132154,
      0.32111887060939126,
      0.3276547822533791,
      0.39201985753254953,
      0.5203254804227204,
      0.6941588135101169,
      -0.34378760182778023,
      -0.934632239148161,
      0.351577822229576,
      -0.5933060510755243,
      0.6477343581917014,
      -0.8186334770267147,
      0.5973798602541365,
      -0.5976310143680096,
      -0.27766289346150586,
      -0.3697430409314707,
      -0.8714587469700081,
      0.935675632439906,
      -0.26356179887102893,
      -0.9957445714122239,
      0.9549727597687254,
      -0.8280658332123854,
      0.6456626324035057,
      0.6948691505667983,
      0.7419568184448062,
      -0.02168553237217341,
      0.09072889251977778,
      0.24436647298669567,
      -0.9347940888736148,
      0.8687660416525911,
      -0.2675012431909892,
      0.5699337518093075,
      0.7934992781252461,
      -0.04493684614176119,
      0.8208644953004427,
      0.6465654314022298,
      -0.08664846720400488,
      0.05695675182827187,
      0.7924139226885494,
      -0.20176049712106114,
      0.5944808034463676,
      -0.008650263327307117,
      -0.43280343791264764,
      0.13367603798459737,
      0.9195220438595042,
      0.8430707582423373,
      -0.8741201253409017,
      0.766429262098197,
      -0.7135926895978688,
      -0.9707850040609411,
      -0.20675063238487046,
      0.9809473280714869,
      -0.2924514111117772,
      0.26118906104551365,
      0.19660883508556748,
      0.6504327491361557,
      -0.3152194247524277,
      -0.6515734539001037,
      -0.9769975637942472,
      0.5151670032005948,
      -0.6930607851729143,
      -0.47018792840233814,
      -0.9566379116823169,
      -0.796001506300652,
      0.7743807983529094,
      0.17812249714089767,
      -0.18123578255134842,
      -0.9864658143027758,
      -0.11081719424459746,
      -0.7911972744970006,
      0.5991415105155902,
      -0.924176125310118,
      0.33688558605569896,
      0.3105594063715096,
      -0.27109879499424927,
      0.2613927680181287,
      -0.5088670551491904,
      -0.04436732864745374,
      0.7750587341953388,
      -0.993086928852744,
      -0.5052564085001964,
      0.7277220036253382,
      -0.492780077860718,
      0.2264923382472912,
      0.3734749043211527,
      0.6895766536920189,
      -0.9268807460045809,
      -0.4776193132290877,
      -0.5366930588153437,
      0.7698111902767759,
      -0.9983062785507859,
      0.1549737119657706,
      -0.3615324225538691,
      -0.8769081056508545,
      -0.40474833647968633,
      -0.16197778935769347,
      0.3734082019761742,
      0.2485830347012994,
      -0.9124536177385272,
      -0.375850022517663,
      0.7915443380657701,
      0.09771428391320591,
      -0.507174932832496,
      0.09395569964909778,
      0.8917641548384032,
      -0.8716796052018281,
      -0.5167212853843756,
      0.3119248238969019,
      0.5800323173107707,
      0.49013652327521373,
      0.9017616345544952,
      -0.40290257896494397,
      -0.8204412503231664,
      -0.12628267754450362,
      0.14081986736148733,
      0.30093666255400975,
      0.6575511858415024,
      -0.5466519845241312,
      0.8879050485746398,
      -0.4675397535510343,
      -0.9758962133738591,
      0.8263382646972852,
      0.4277124779802006,
      -0.8690344477905736,
      0.19848850601573154,
      0.2640026486279339,
      0.9307127364153405,
      0.9391353271751073,
      -0.5681408786191658,
      0.46011418645515456,
      -0.5900314648042099,
      0.813200226867,
      -0.6923641749197857,
      -0.0035655449571432296,
      0.2509552382064124,
      -0.6331029674074307,
      0.4131284967991935,
      -0.08026353825020505,
      -0.2972937620226642,
      0.4032184757735997,
      -0.6119862256068255,
      -0.9462297401544846,
      -0.7701451739163097,
      0.6696227032165893,
      0.059265091692652705,
      0.7583843124545893,
      -0.12395212103128439,
      0.4354279851444358,
      0.31319640258174997,
      0.2609189900195015,
      -0.4787220829829758,
      0.7626518438130105,
      -0.9472367292511152,
      -0.15123946129541088,
      -0.5438438322327651,
      -0.2721360864871619,
      -0.026524918576831924,
      0.5703321184097248,
      -0.9895622395078596,
      0.6624557145320096,
      -0.489373077497793,
      -0.41362433450256864,
      0.9939206981814483,
      -0.6102309697541654,
      -0.26540971297226734,
      -0.34758237167795325,
      -0.7568599485558605,
      0.044840132932987276,
      0.7871024058758866,
      -0.6401171913370862,
      -0.14480640427713776,
      0.13376604990169239,
      -0.4383908845681067,
      -0.9714577958960358,
      0.9120540310447005,
      -0.5398430051083868,
      -0.042386369040250615,
      -0.8816928941394466,
      0.7307740375833816,
      -0.1574450983593929,
      -0.11891510202650557,
      0.9587268576234087,
      0.8630394979992291,
      -0.023641806977745317,
      0.4902963623588754,
      -0.1079537534891728,
      0.2266056771260596,
      -0.04270249409908078,
      0.05957750747119639,
      -0.8397738466786935,
      -0.5469864037154991,
      0.9218399021608352,
      0.964186640644642,
      -0.25707728368974647,
      -0.18138748064626609,
      0.21769539219695422,
      -0.03217684378998986,
      0.6120613091563332,
      0.911307555119591,
      0.7778699540278491,
      0.70881849994948,
      0.39131139896310096,
      0.38025774242550203,
      0.18354662722656356,
      -0.16918483570794574,
      0.7325079459883606,
      -0.8279895612469823,
      0.36484924544096287,
      0.8958979795306283,
      0.30240708128891725,
      -0.4574060318768848,
      -0.1286683335366947,
      0.3640699008177328,
      0.049355770883847905,
      -0.8595127196982526,
      0.41108528364016084,
      0.6272462666397463,
      -0.6398590887375883,
      0.34159974566347384,
      -0.3810266813676474,
      0.7094793754745274,
      0.25209283088107903,
      0.6512832388217116,
      0.19866772944107436,
      0.2897758589974726,
      0.7535858841043752,
      0.5906169588429755,
      -0.7779172916033725,
      0.06223675241679394,
      -0.5261871094973979,
      -0.33497487222499644,
      0.9298673808495952,
      0.8865714906545388,
      0.7727254137849253,
      0.2459559354250611,
      0.6767749113070889,
      0.5294483921226827,
      0.4260036744042004,
      0.14874882479424545,
      0.9398206597874541,
      -0.7197477857264838,
      -0.22808124821055498,
      -0.8417827957275086,
      -0.6935661741050443,
      0.5508251724081785,
      0.2816020265645547,
      0.294072566680913,
      0.06641218335786969,
      -0.39105241929439305,
      -0.9780513285345589,
      0.03756805412164721,
      -0.9025538929660093,
      -0.5603973412300628,
      -0.24411915040675125,
      0.7214498911507303,
      0.9147036520429981,
      0.647092071463033,
      0.8200540589763654,
      -0.5491366665157756,
      -0.3431357986631397,
      -0.46974365383713923,
      -0.8361542770517141,
      0.19083211459703509,
      -0.23343693636381535,
      -0.7307937765406232,
      -0.6045451134220369,
      0.7185772893106352,
      0.8039725793500598,
      -0.920556323822892,
      0.8027038743391985,
      -0.7634291118870178,
      -0.6093839896345198,
      0.008432325823087394,
      -0.15990444551060556,
      -0.26685960911199824,
      0.8870483759627121,
      0.8719445671703219,
      -0.4102022512672371,
      0.8771220881188642,
      -0.062362410491320075,
      -0.21925568557793418,
      0.8109951288573027,
      -0.8868393669049395,
      -0.19161418644774852,
      -0.24618150169721242,
      0.983868129281873,
      -0.14648647118948754,
      0.7555966809369874,
      0.856858139371174,
      0.9686591657773267,
      0.5910614193269605,
      0.5982923008976053,
      -0.6628884605803118,
      -0.6578609285716706,
      0.85847873242124,
      0.6473936581555897,
      0.8610850865558457,
      0.5229420627139594,
      -0.6641611275739479,
      0.33735436476904845,
      0.228157816341249,
      -0.38737873496164477,
      -0.3526511736901109,
      -0.9612210785433266,
      -0.35920266433193315,
      0.7636102744410866,
      0.24537709051297063,
      0.33144817884862987,
      0.19926158153067353,
      0.9002915130903997,
      -0.40567778194554716,
      0.4149263067990947,
      -0.6463702619080411,
      0.658058095497863,
      0.28127034489564084,
      -0.5880186016526839,
      0.5079820994112056,
      0.44894109900769874,
      0.601480916727188,
      0.939971454368965,
      0.346576447997738,
      -0.14949326793941542,
      -0.8943905799570624,
      0.3805921041559601,
      -0.45522535827487365,
      0.4905907570170449,
      -0.8194825878523262,
      0.15877613334954543,
      -0.7785544136597391,
      0.6825741036529531,
      -0.3734215996636746,
      -0.6500348862759795,
      0.9068426665715466,
      0.6751306023179873,
      -0.07979536770050477,
      -0.21373799930348736,
      -0.5390796943036519,
      -0.27526203322631504,
      -0.5028530421242129,
      0.7046115389124075,
      -0.5788500376383311,
      -0.29129145508997556,
      0.09233224110051208,
      -0.2547877193151974,
      -0.04360421115798485,
      0.6028699520959808,
      0.22457337842295,
      -0.7076200281036873,
      -0.3081124638457612,
      0.2558465540443542,
      0.5988381389381865,
      -0.5518697421888902,
      -0.2596543653084823,
      -0.4450444254425773,
      -0.2966148062953139,
      -0.3322167629932634,
      -0.9297807951172552,
      -0.30460927989562003,
      0.7723149134421194,
      0.6543324413679006,
      0.0587231775415773,
      -0.9287855259394031,
      -0.7296047401549828,
      -0.7415737420114734,
      0.02771871648484736,
      -0.809677444525347,
      0.9543801089092638,
      -0.6374623919969342,
      0.5934534894086401,
      -0.8444152653380734,
      0.3140977201572961,
      0.08577045280384188,
      0.16378595397673368,
      -0.059602515178436954,
      0.26004584814940146,
      -0.7491809564376899,
      0.5461535655329244,
      -0.19222546696442122,
      0.3385675967470634,
      0.6496270327794123,
      0.43779459668553833,
      -0.8718589197736946,
      -0.9880896777024932,
      0.1587135039621821,
      0.7219551483004798,
      -0.931329882310358,
      0.04048749514723249,
      0.8362617716075107,
      -0.16582182785485577,
      -0.5939852622163303,
      -0.3984363155298899,
      -0.27077796942269916,
      0.1691787243881897,
      -0.8138817137376426,
      0.31719980652296775,
      -0.9176202318222635,
      -0.2883714991840066,
      -0.6731720085293413,
      0.6022126099120086,
      -0.32964667174635387,
      -0.5727281568076065,
      -0.05738948262209642,
      0.4646935566415895,
      0.9971488576270198,
      0.07484139439718507,
      -0.3271071613124107,
      -0.8653462269922487,
      -0.7747310948367487,
      -0.08125451833306685,
      0.22156730169559036,
      0.3701007650538728,
      0.4337325267984975,
      0.8350234083016836,
      0.6333858383489708,
      0.5368404354515426,
      0.08735588222832535,
      0.9213760515259861,
      0.935844728018103,
      -0.48524721673200444,
      -0.1679120081319716,
      0.6289866321028019,
      -0.8762087522665385,
      -0.6736998581290803,
      0.26421203959032025,
      0.40673436656766504,
      0.9423005028117286,
      -0.5308510677966288,
      0.2779235169983354,
      -0.6097008433956493,
      -0.9122438098399952,
      -0.10784117191839715,
      0.39089964365028007,
      0.7273008909745888,
      -0.31721650967851633,
      -0.3447173040785597,
      0.9834366885146135,
      0.7391384180133076,
      -0.39263991235884166,
      0.07674168149683536,
      -0.8583625475741865,
      -0.13031820468120325,
      0.9988838222291818,
      -0.8120266679634254,
      0.916630632815616,
      0.0593977851273213,
      -0.6477616670876136,
      0.6554132874817351,
      0.7893751160801581,
      0.30202770283219693,
      -0.884547429198594,
      -0.9592953243014319,
      -0.7594092696704653,
      0.9256252377830858,
      -0.720062427514752,
      0.4798938700151336,
      -0.9897869261925041,
      -0.2802374631374528,
      -0.31299391414254785,
      0.23047376851473156,
      0.8368410594689868,
      0.9473164951529593,
      0.9406662135640484,
      0.3299030312077378,
      -0.7578608948980139,
      0.9356618307119535,
      -0.8460346716904112,
      -0.6725680327763586,
      -0.48783649209425384,
      0.42329717409362266,
      -0.48780725597075303,
      0.6786505610710134,
      -0.722131297081769,
      0.6064730304754744,
      -0.40816617004645817,
      0.9803028822546933,
      -0.6922069536456492,
      0.9737316874215902,
      -0.8486231574301337,
      0.2524158462542172,
      0.4821204398020116,
      -0.054055358911098805,
      0.5088437540994,
      -0.6954823078081387,
      -0.4826489234399046,
      -0.2600158325547114,
      -0.09368282047468557,
      0.264749146901085,
      0.3241011385255017,
      -0.5383515431616027,
      -0.9034992655850638,
      0.9547336260585451,
      -0.2689309038043749,
      -0.1564796358671321,
      -0.24670386784105358,
      -0.2411243229998672,
      0.043950760182598136,
      0.8797293650958244,
      0.18558024093756775,
      0.6772316888106942,
      -0.9967288569070725,
      0.03449680649032261,
      -0.3563760973146536,
      -0.48502408341189607,
      -0.6477872585657032,
      -0.9198045674403876,
      0.741754603063534,
      0.23873352174845475,
      -0.6407389920288029,
      0.5464314655537628,
      -0.09586288037986024,
      0.8457029277457724,
      -0.057422840874642,
      -0.26916264260850153,
      -0.4937145684093148,
      0.5020061958683253,
      -0.2589350534605014,
      0.27857104112353803,
      -0.33493074467035544,
      -0.14253380634493262,
      0.1626842276583489,
      -0.004527550141743886,
      -0.6655129485473394,
      0.8473734680749887,
      0.11022957885834672,
      -0.5139713586114477,
      0.8782381917826316,
      -0.7252054757958164,
      0.6210306768234539,
      -0.049404737257488174,
      0.9249126581630902,
      0.6683487191438258,
      -0.5190348275523923,
      0.7812804365550297,
      0.2765204570141011,
      -0.33697390875955413,
      0.5408537865357306,
      -0.7135867594939103,
      -0.20530939588759156,
      -0.9905560718499045,
      0.84602431488354,
      0.8157031718479764,
      -0.31782623146903466,
      -0.3976137814498014,
      0.3518249278541521,
      -0.027749669753575956,
      -0.6604295158193403,
      0.6798773332786108,
      -0.9995945830523492,
      0.4489561828990227,
      -0.44301466295051906,
      0.9728277217469943,
      0.7279662932554962,
      0.36971306966218376,
      -0.7330440749029665,
      0.6252111165014602,
      0.5026999094664437,
      0.07784076077817947,
      0.3328694214574981,
      -0.8008891107903668,
      -0.2535376782656441,
      0.9685846823019175,
      -0.9721333523714208,
      -0.9439260403197984,
      -0.9988042579199417,
      0.5059357724533848,
      -0.8307866898644702,
      -0.053100321148472185,
      -0.09731389331360751,
      0.15491316057480575,
      -0.017875863247752255,
      -0.12602391370956867,
      0.16035059127672846,
      -0.39170245292803185,
      0.8881200957018436,
      -0.7075199421488496,
      -0.5977777650717594,
      -0.11387510702640458,
      -0.07959791339113154,
      0.6751206257879874,
      -0.9875139624329705,
      -0.9834212722770062,
      -0.0966567505267617,
      -0.15850672992861958,
      0.9035749029544418,
      -0.8997395281965432,
      0.7800217582138513,
      -0.3051876131458354,
      0.9442289667994936,
      -0.5494466233750467,
      0.6865402478622022,
      0.7281557317637546,
      -0.43341862409558984,
      0.838910980152864,
      0.08304194064298165,
      -0.8847392349780474,
      0.9660086949092355,
      0.8191914705885477,
      -0.45476656987805775,
      0.813859763591982,
      0.5728788557057034,
      0.3995190009764349,
      -0.38319899762045695,
      -0.8327292661468548,
      -0.7118547298115927,
      0.9853576193827238,
      -0.2888486126579116,
      0.5587358827217881,
      0.9753273695206288,
      -0.9124893774681082,
      0.9267139533385853,
      -0.7561710179212784,
      0.9063624761500781,
      -0.6460123022958513,
      -0.7477144269332068,
      0.6912814766726796,
      -0.013471010769850578,
      -0.9847905409206108,
      -0.3521819559943057,
      -0.32603085212529537,
      -0.2070870653423451,
      0.8971255780875915,
      -0.5955426326813241,
      0.6375796936368201,
      0.5208822482534741,
      -0.7366369603017424,
      0.822840383212152,
      -0.2652868380479946,
      -0.2455786440044163,
      -0.7072924686159694,
      0.9911980690555238,
      0.41908837695648216,
      -0.876416264162589,
      0.6711640581119971,
      0.0318670597343782,
      -0.17847689048193405,
      0.5697648834821449,
      0.07324186539478927,
      -0.9679858996520134,
      0.14404858713114232,
      0.3208338579528569,
      0.777204870521039,
      0.5282005373698424,
      -0.5703149283230048,
      0.2021979757047896,
      0.4777880008678774,
      0.22314596302070355,
      0.5035945452907389,
      -0.266574634743593,
      0.5446663632529436,
      0.4403952665612405,
      0.2814676372400984,
      0.3855131686558797,
      -0.5902687151335727,
      -0.20981224336033555,
      -0.14368435485364084,
      0.31431840991489923,
      0.6634792910461096,
      0.9332402852981945,
      -0.37304534569631886,
      0.5495306831453153,
      -0.6789156981009792,
      0.6790990632557206,
      -0.47345909332247504,
      0.48967501917677736,
      0.35860001208664527,
      -0.5380493472885227,
      -0.9181839255924533,
      -0.669976079120409,
      -0.3278892841814506,
      0.7993695305623691,
      -0.9214055837601567,
      0.7246354194879854,
      -0.16535158519025628,
      -0.9706102837829178,
      0.28856645499880007,
      -0.9944157078664246,
      -0.3593211899660943,
      -0.7455860900181119,
      0.7062249258122111,
      -0.3891020707932443,
      0.5923484621355328,
      0.7180387881301376,
      -0.6092988094528321,
      0.7227287314158666,
      -0.4936097488840162,
      0.5471727317254356,
      0.11307900462675335,
      0.6550424448924486,
      0.9817559228204256,
      0.7215533141085846,
      -0.7050376176150088,
      -0.07306335268925523,
      -0.9357496465089685,
      -0.6480475900334217,
      0.7822335015543178,
      -0.8535859858466655,
      0.15670705580243793,
      -0.34848347840838645,
      0.721807856285738,
      0.036407026164073875,
      0.397503098705174,
      -0.6119537045931448,
      0.024265030657368625,
      0.2252673978549733,
      0.3604507844266307,
      0.671614623292168,
      0.01737646814648275,
      0.8548574982723953,
      -0.4750801342001306,
      0.814410864455346,
      0.7329576486869511,
      0.25670900713578404,
      -0.3143336788246528,
      -0.7307798482268675,
      -0.7168645272135659,
      0.8262342115424612,
      0.9774339210693634,
      -0.42770513635961416,
      -0.30218680688773014,
      -0.5937311797762502,
      -0.5025321753658106,
      0.5373239717808187,
      0.06027482605255652,
      -0.767501874286928,
      -0.6664488794521435,
      0.10780885371949611,
      -0.34966832534010484,
      0.44748071389863253,
      -0.412609546853384,
      -0.9861740908126211,
      -0.9074492425851521,
      0.9443769206452126,
      0.20114811190284443,
      -0.708039584590213,
      0.41608705850616823,
      0.6595067651178654,
      0.2739041719725164,
      -0.4645085955904825,
      0.7317381310394988,
      -0.9866690665640454,
      -0.011063858572256668,
      -0.5154680813283073,
      -0.44130968361565814,
      -0.4527642999976783,
      -0.9013125958048978,
      0.5354066716799863,
      0.02068305807250881,
      0.6500497058939216,
      0.5327479324943374,
      -0.5572366407409247,
      0.9452507550662079,
      -0.7584064907081349,
      -0.20181997892793135,
      -0.8085075412652833,
      -0.23223875896114365,
      0.3489049138280207,
      0.531773678530715,
      -0.3939314782905593,
      -0.8758880546065715,
      -0.890022545041814,
      -0.2470758433024598,
      0.31904743181529116,
      0.43994221205193074,
      0.4796175201877648,
      0.9422150590086602,
      -0.755428154322396,
      -0.8686836301330327,
      0.30231018414379895,
      -0.07554380514133663,
      -0.2315982944838344,
      -0.2725769533365415,
      -0.031141641017401023,
      0.6532914101305942,
      -0.8099788499583256,
      -0.9066194708399733,
      0.1238338996518975,
      0.2929319270767705,
      -0.8892366696585943,
      -0.36724901601495963,
      -0.08783218053979591,
      0.5647896974985516,
      0.8455784825051738,
      -0.18500918944208444,
      0.5096678612329999,
      -0.4557715097242875,
      -0.9328973221111654,
      -0.4437773330573983,
      -0.22884859197791596,
      -0.22248194940927912,
      0.49885089231563984,
      0.2619428764296068,
      0.8962173607827864,
      -0.8697509163168808,
      0.9549081567423192,
      -0.7595577385275787,
      -0.8634866561169532,
      0.9507727593734496,
      0.5753903408630228,
      -0.9777361050420201,
      -0.5200952192966869,
      0.03326194390292403,
      0.14088229998520663,
      -0.23557145738729512,
      0.6393076584951372,
      0.30969396560786655,
      -0.3666382766828823,
      -0.6118239627663166,
      0.40234787686152385,
      -0.7285607080401473,
      0.5877373076505004,
      0.13452833914894424,
      0.04103068491771933,
      -0.3932689505405319,
      0.493350005062122,
      0.737302247718187,
      0.9435950234889514,
      0.8649397978977271,
      -0.6825652285052755,
      0.5302438623242804,
      -0.8614309486797045,
      -0.9627344663745743,
      0.2987836495326446,
      -0.2051794471574342,
      -0.29993300241882836,
      0.09739125882029209,
      0.08045053135407243,
      0.7783934981739655,
      -0.3800642696588782,
      -0.8061167500669022,
      -0.43778018041626765,
      0.9428434865693776,
      -0.3786895026444713,
      -0.6200369405710963,
      0.9370502464346702,
      -0.8333354392435313,
      0.5667508637075316,
      0.49081835006754226,
      -0.7850382441084189,
      0.6362025393913151,
      -0.7014667482177463,
      -0.4673095380892026,
      -0.8826879347033008,
      -0.0022559982229120035,
      0.2833543834166792,
      0.3974344382969479,
      -0.17147324355386195,
      0.9995715214119225,
      -0.46139387387964115,
      0.1799398450674825,
      -0.6199218359103188,
      -0.059726974401106636,
      0.40682812984916095,
      -0.44626768943276784,
      0.15476238833759903,
      0.6754434229806692,
      0.5371168080116315,
      0.3303597592451972,
      0.23483574301568377,
      0.7260255843796402,
      -0.5684209861961266,
      0.6935648641878087,
      -0.9892488638003059,
      -0.37206533922260243,
      0.21373908204315284,
      -0.05103254803026025,
      -0.555410791879189,
      -0.4612283760165389,
      -0.6195162022069031,
      -0.5770442288916205,
      0.6302718924113151,
      0.9507125175393911,
      0.08021456303288699,
      0.014677751993294796,
      -0.040710975713968756,
      0.8741568118264829,
      -0.021880801460758305,
      -0.8145808451945613,
      0.6338749487296846,
      -0.5406116160120616,
      -0.15257778355683516,
      -0.23029594356766173,
      -0.580885903913246,
      -0.8478941466862806,
      0.2512193370090327,
      -0.24405423759590178,
      0.7541468563453458,
      -0.8377461169429075,
      0.429688706842706,
      -0.6221512667958075,
      0.49313197518406165,
      -0.919240164665641,
      -0.6645280067996968,
      -0.7354138114094583,
      0.4007975182154103,
      0.012744627537689679,
      0.3193721440042434,
      -0.5288110465679577,
      0.48745445632228024,
      0.7186811992319581,
      -0.8667199588845271,
      0.18077775494023673,
      -0.3511643381318804,
      -0.32359240847613946,
      -0.08676476314781945,
      0.7578727271415194,
      0.31308466489614944,
      -0.32321850765590765,
      -0.015558731682914884,
      0.6673066395006086,
      0.6402778741168447,
      0.0708029980661997,
      0.47570004375248376,
      -0.681842236790778,
      0.9030321221495159,
      0.04510205433542804,
      -0.43674049960874417,
      -0.8245899727137943,
      -0.24114681212530908,
      0.4749732433653249,
      0.3808055587722292,
      0.78487773779729,
      0.9714858566885756,
      -0.5388517622986869,
      0.028153663532073464,
      0.5493695113363444,
      -0.6647036781436844,
      0.8469095985332786,
      -0.04562313156652834,
      0.4671003246274323,
      -0.7248735027645337,
      0.6866821125182394,
      -0.9208325731587544,
      -0.2549362086865753,
      0.9793129697537988,
      -0.80194648770088,
      -0.31859328158768996,
      0.748562706058386,
      0.4033261242846229,
      0.7432361754741856,
      -0.9902559976864835,
      0.09318282369588693,
      0.8111012089635179,
      0.9317183424452871,
      -0.7142832879984513,
      -0.1698275472435281,
      0.8664146569829814,
      0.19416386374118955,
      -0.03969996831527234,
      0.5465824350265144,
      -0.7904914979679284,
      0.35097926104798693,
      -0.32668278673223117,
      -0.543931945915879,
      -0.525115622665796,
      0.6316726848908434,
      -0.5510764773404325,
      0.7466318012402638,
      -0.33192510700233935,
      -0.5201045449143978,
      -0.2558314796824862,
      0.5895341823245226,
      -0.7370633255403178,
      0.8027290330406056,
      -0.38589219054408674,
      -0.8523535568108529,
      0.8452259269005574,
      0.4174131985202291,
      -0.6966920933070359,
      0.12032057812107877,
      -0.9220608571498365,
      0.23503013022446617,
      -0.3490803357144546,
      0.24968278947532727,
      0.7749029709852513,
      0.2755871794264928,
      0.9756058394855174,
      0.4629746170852492,
      0.6921075425379999,
      0.03466330102728048,
      -0.22901048116084932,
      0.43562074892308794,
      0.17669334974631637,
      0.29452261477971414,
      0.5942143385811752,
      -0.7158221470115409,
      0.4607055861190809,
      -0.24249693427955976,
      0.02934985319183947,
      0.5605138965267678,
      -0.1687881796353523,
      -0.6544151856118363,
      -0.05210164084174018,
      -0.760668243420374,
      0.7953586506786445,
      -0.7460303703715311,
      0.6004922045658009,
      -0.757072693202149,
      0.5795510180801547,
      0.7592825717339102,
      -0.42863606742351046,
      -0.0746495486588532,
      0.5230931961659175,
      0.9076373997036504,
      -0.285313240461506,
      -0.44121902687846004,
      -0.7478921704187788,
      0.029756283094986322,
      0.13266573850929375,
      -0.025266190173763713,
      -0.5343486681637358,
      0.9974039171330134,
      0.30015185232933944,
      -0.9781015167273548,
      -0.9238854618612788,
      -0.4277269165606773,
      -0.5720064075430716,
      0.23799185517656407,
      0.7646321652835041,
      0.9125862367809443,
      -0.9335970718390889,
      0.03719528397413005,
      0.5244083924587067,
      0.42195525402318546,
      -0.21232649727154906,
      0.9160508726546511,
      -0.8753888335397875,
      -0.8200642725224877,
      -0.7024793744588989,
      -0.2436187284814324,
      -0.2157295852314609,
      -0.6985808238288369,
      0.13849051044271143,
      0.17881725459927023,
      0.9630657329076213,
      0.28793170505142807,
      -0.0729322280995317,
      -0.7845786275879314,
      0.31116395089973825,
      0.5476147810431061,
      -0.37165262457525067,
      0.5616779414768615,
      -0.4308845662053631,
      0.5208560741497081,
      0.5685456268357094,
      0.4563782286757066,
      -0.3174601666344973,
      0.8430973913078462,
      0.863402142576753,
      -0.9520737327566159,
      -0.0029605854318608404,
      0.015432272593457919,
      0.45776340705320956,
      -0.94986277894665,
      -0.47119240165284,
      0.7494167088348109,
      0.17133411231790044,
      0.8427169443066735,
      0.5783499841376041,
      0.6421712722087713,
      -0.8569290912648735,
      0.005899352659231683,
      0.12790315444975842,
      0.9479389366289999,
      0.4125398478104255,
      0.11198901081292637,
      0.8136019295973411,
      0.5181325396913381,
      0.656274407172499,
      0.6529352974670655,
      -0.8863901268174206,
      0.26850837160858815,
      0.7063356348241472,
      -0.9791756768672492,
      -0.31614828901431413,
      0.502100833815669,
      -0.8652817712397578,
      0.6726490897459777,
      -0.919811716563724,
      -0.9510551587145876,
      -0.7092829897861015,
      0.8174783604004463,
      -0.23502817718727237,
      -0.34436397125515883,
      -0.5216984187835817,
      0.4255839912814221,
      0.8207742232068771,
      0.4822149159446767,
      -0.43565503578674514,
      0.004546607743513897,
      0.18144638889444153,
      0.32141699164063575,
      0.36365753787977506,
      -0.42931433273268194,
      -0.5055841989457633,
      0.018671555463936593,
      0.03338515275778687,
      -0.34171740052132094,
      0.20422794229499908,
      -0.5751029738815417,
      -0.8109495874130377,
      -0.3738289263421769,
      -0.8248862457919528,
      0.7502647840409513,
      0.27454761995743104,
      0.8870621802469684,
      -0.13732201591507098,
      -0.6842604440733906,
      0.7959392814809023,
      0.31603882040678977,
      0.22881388371936653,
      -0.4921603470815828,
      -0.7931033508254683,
      -0.20340748440596967,
      0.10142787502179255,
      0.2029603167391325,
      0.9435286867061086,
      -0.7678593206200284,
      0.9503589749388155,
      0.44667969637473104,
      0.022875940998199305,
      0.7262444349784132,
      -0.1930930510227524,
      0.15495245569313917,
      0.02935223184957924,
      -0.7885246219329849,
      0.47040067789286216,
      0.7932345929472073,
      -0.15641341520297383,
      -0.6390375452366897,
      0.2789378541032883,
      -0.4370106561782009,
      0.4675575623922084,
      0.9443731528512074,
      0.4537827657336336,
      -0.8666690924320455,
      -0.2155564389959077,
      -0.12082530515827217,
      0.9014074970649055,
      0.06441629986442687,
      -0.005913668385405775,
      0.5859253862343393,
      -0.6473103653362111,
      0.6071558965747865,
      -0.20718928463816488,
      0.07539168056391456,
      0.6940353531182494,
      -0.35652483567241366,
      -0.2890093947072042,
      -0.5129771372055608,
      0.4775500911608573,
      -0.534773924530309,
      0.6260782616076042,
      0.9715268830426482,
      0.392725298379472,
      0.7984412674208426,
      0.7016722126528294,
      -0.022568677064681575,
      0.8459249003194556,
      -0.5681856253795541,
      0.3829801229808283,
      -0.2358526153761853,
      0.3785152371366494,
      0.5236183578913591,
      0.4901321978708937,
      0.46944292234643786,
      -0.9745828477152498,
      -0.8968821803840736,
      -0.9160782090392061,
      -0.37066430649733373,
      0.6922831053004228,
      0.8083817080322149,
      0.6006552047140932,
      0.8576949596793467,
      0.13581435123181085,
      0.590689669887071,
      -0.7858724908771438,
      0.7085261994394613,
      0.15281031594629524,
      -0.014298698093720974,
      -0.10189110564371334,
      -0.9342673909143757,
      -0.9594226067787228,
      0.7360400472474962,
      -0.3721555605960353,
      0.46084726466892845,
      0.2889407951401115,
      0.37205816845922235,
      -0.710805371691162,
      -0.35121953582920484,
      0.4898674952213897,
      -0.27525065434920953,
      0.6048283401752231,
      0.10543313980946448,
      0.16674205153601404,
      0.001849080214741114,
      0.02666680575616443,
      0.1049867482670519,
      0.30277041811812055,
      0.9197499838495848,
      0.1864966843264655,
      0.4467210194867169,
      0.7500451544575397,
      0.04290721206151793,
      0.236727817197264,
      0.49580986440648567,
      -0.5736474732101419,
      -0.8038418706164565,
      -0.35513083556243286,
      0.9571138986835304,
      0.29870969915197176,
      -0.6712625881042141,
      -0.7192190853671812,
      0.21833316863784114,
      0.8980298109189326,
      0.3278955372241825,
      -0.9352068188458289,
      0.6587780277225206,
      0.861155584736077,
      -0.10269348410443802,
      0.16014492675015224,
      0.8340872328796389,
      0.878144850864844,
      0.6170584055142486,
      0.839322741762198,
      0.15602861694436343,
      0.7585342305271947,
      0.5568481495189359,
      -0.17336628241866392,
      0.8431788777319227,
      -0.5962702241921448,
      -0.25757720031125386,
      0.868468923728984,
      0.23537905302578088,
      -0.07137068911397226,
      0.03424888032384347,
      -0.3616413094823495,
      0.9747661743706665,
      0.29240715235798237,
      -0.4514573618862684,
      -0.6998899579479602,
      0.5687522761187589,
      -0.06777681057067171,
      0.5066038403387934,
      -0.723818135440081,
      0.15771536828329302,
      -0.14429508659857215,
      -0.047847470544366257,
      0.9564974219589937,
      0.16420690322922904,
      -0.15546842326085383,
      0.30464923676126726,
      -0.05986806753377858,
      0.7257015498250592,
      -0.10978883463477564,
      0.15731562218814488,
      0.759428945319519,
      0.17434699859891611,
      0.17997582023668302,
      0.5612253457109158,
      0.42082957103335294,
      -0.14047638044337662,
      0.04652435959462916,
      0.14843073703159315,
      -0.972575527672844,
      0.03002120708083278,
      -0.28078358445656676,
      0.3637700997546862,
      0.9110939683031573,
      0.43671606829990695,
      0.9837201530892337,
      0.43593562071342773,
      -0.38453815000586233,
      -0.03003484794775032,
      0.6354842512139648,
      0.2318409816478153,
      -0.4384472332424253,
      -0.1476587089362711,
      0.7567656415405434,
      0.6962616495950154,
      0.9736879416840574,
      -0.96469931888857,
      0.41864782387064126,
      0.030677514628636847,
      0.5828686986050546,
      0.1013698030684751,
      -0.5631653346273365,
      0.7332077257935622,
      0.9433582550465394,
      0.8031325488588776,
      0.4927275237820734,
      -0.2914959332580217,
      0.10718518463226778,
      0.964070941646415,
      0.21512069828478603,
      -0.7766386034780619,
      0.33058924046480764,
      -0.015226490503716716,
      -0.30845987332689295,
      0.9363335114232609,
      0.8844576918348603,
      -0.002407696448194456,
      0.6155975138700138,
      -0.8191579161628502,
      0.38564208851593507,
      0.7080737989314264,
      -0.5113650703234088,
      -0.226203582437283,
      0.7865209509309796,
      0.09611416049868526,
      0.26880386354841446,
      -0.5225591875040169,
      -0.6568623713358724,
      -0.6491774331087877,
      -0.5985376242458459,
      0.19162380977161342,
      0.09491014192749721,
      0.8420077441019052,
      -0.7973056168931159,
      -0.48226372576860255,
      0.846382848571183,
      0.6580332208197379,
      0.7139181405169498,
      -0.9013923527893373,
      -0.34136487779530206,
      0.817880379071918,
      -0.23015676456204637,
      0.09340475907855932,
      0.6478154325258836,
      -0.8228502810862932,
      -0.1885396451440562,
      -0.7636530950186518,
      0.39889268102301423,
      -0.069876808184325,
      -0.6034369417870263,
      -0.5691059956634511,
      0.694278252210156,
      -0.9589639115428197,
      0.9241174523445487,
      0.18131341020195121,
      -0.3973385534233439,
      0.09611793135010438,
      -0.33611453907000877,
      0.6300584857407512,
      0.40442485335525524,
      0.6992822503378671,
      -0.39082186257668583,
      0.7747636919884964,
      0.3112352941354086,
      -0.2604378759886593,
      0.81029642175921,
      0.2123846713906455,
      -0.6064234464985002,
      0.993630179176066,
      -0.4649774810210524,
      -0.3602192865901118,
      0.10146847543310211,
      0.870921924114286,
      -0.34583542536792666,
      -0.10045691083987579,
      -0.8860090133073433,
      0.5647988267989206,
      0.06957374887338497,
      -0.749025420359686,
      -0.2575203264208782,
      0.6212233559738168,
      -0.013740728519832749,
      -0.45334210607706893,
      0.9417919966051244,
      -0.900151165924509,
      0.819362303885097,
      0.14737779309156873,
      -0.8933220977886802,
      -0.4046076956707293,
      0.6602455512429093,
      0.7304035452144964,
      0.010057808452298334,
      0.597095547060734,
      0.6395330378906865,
      0.6805325742533931,
      -0.23001621982409517,
      -0.4200859156095612,
      -0.942544386176562,
      0.9819629863793584,
      0.3896807240570408,
      -0.6085331031637534,
      -0.05732759959202238,
      0.01408451314471093,
      0.9928093692761668,
      -0.4339190092396551,
      -0.11272315935964516,
      -0.7512145751570345,
      0.7454617681901223,
      -0.6526371644610633,
      0.660868344850067,
      0.5000867145198375,
      -0.3046135528185657,
      -0.9182170567783485,
      -0.9935004503433995,
      -0.26436548800612936,
      0.5996542692461593,
      0.2052983481445183,
      0.02925939362184038,
      0.2501658085936753,
      -0.7808418734092242,
      -0.7819253673521831,
      -0.030323368785318605,
      -0.09289151356116832,
      -0.46714349833601687,
      -0.07846359570809036,
      0.177673076247445,
      -0.8134070572398961,
      -0.9130257559198229,
      -0.37733124407236296,
      -0.9540463911819557,
      -0.31194592555734457,
      0.5693360657030073,
      -0.5328410518580798,
      0.6862695420928464,
      0.9539714505008305,
      -0.18651686448161553,
      -0.27760336936790864,
      0.6794932146836938,
      0.8015952950705074,
      0.9888258712396047,
      0.3075947787853066,
      -0.9834851217202449,
      -0.3817911959037893,
      0.1547677055327188,
      -0.6948555412766324,
      -0.9509861242628164,
      0.668342966048451,
      0.48302090656875296,
      0.3867165290681249,
      -0.7499700378983367,
      -0.4286684111118192,
      0.923829811099067,
      -0.9492622720660098,
      0.7515345414611798,
      0.6165115247202193,
      -0.7777646641915994,
      0.7450958556845269,
      -0.994582013647983,
      0.683777551331044,
      -0.8497700996185178,
      -0.3689453722100978,
      0.5397375348175695,
      -0.11530354549089661,
      0.7236835808181734,
      0.5295553794258208,
      -0.5480844525879313,
      -0.8117811577603726,
      -0.9828767299159877,
      -0.21749384819021222,
      -0.4812339719847055,
      -0.8455056816158559,
      -0.5353287011802855,
      -0.39583863942838826,
      -0.09724840351147779,
      0.7228779424052716,
      -0.8836358177698349,
      0.07794619874483089,
      -0.352367635301737,
      0.7026567958414671,
      0.20685181820449317,
      0.7981788780855488,
      -0.8391154340885665,
      0.9575205619382525,
      -0.39031435535295544,
      0.9657707905290569,
      -0.2616790080012671,
      -0.7335017379654882,
      -0.43272584915397994,
      -0.3256587496104316,
      0.002727122950484384,
      0.46585650548775415,
      -0.7991700635426144,
      0.5854316949785798,
      -0.5687441323768526,
      -0.49373676105658626,
      0.3972970034384564,
      0.6807204386677634,
      -0.6261261184193487,
      -0.793169021331682,
      -0.27279547970031925,
      -0.26654533723122575,
      -0.5337539134915045,
      -0.21163904083827645,
      -0.4952226776283085,
      0.4280039882939348,
      0.8557933891788703,
      -0.5183759350248923,
      0.4467508368578941,
      0.4381158560636622,
      -0.4423018380399516,
      -0.39250244272319834,
      0.1611638181490751,
      0.7465485331717865,
      -0.8709752324257889,
      0.5638849820767073,
      -0.06231226259100464,
      0.9783251303905791,
      0.8465390288922778,
      0.6846324208619663,
      -0.4659029411598067,
      -0.8470242256257023,
      0.5888315634826364,
      -0.5104431481602186,
      -0.41320995507031133,
      0.6691286198667452,
      0.41582010710177797,
      0.7534400302023458,
      -0.48299847386889627,
      0.3358609449677583,
      -0.689323492235995,
      0.15051201146328785,
      0.011222799083048907,
      0.11423777362864773,
      -0.999862694711589,
      -0.11089290035985644,
      0.17335031448481542,
      0.35782359577469003,
      0.9645135403107705,
      0.39921918966415126,
      -0.7287949617228033,
      -0.3084167392173337,
      0.7365070537788156,
      0.5369647695518815,
      -0.5527244661086937,
      0.11967089498722072,
      -0.27251696966344496,
      0.882306493619232,
      -0.743537636258409,
      -0.3059946032116633,
      0.011123298633083811,
      0.5037997104344814,
      0.004530523669572295,
      -0.04268599105628623,
      -0.2548834635782876,
      -0.7916520298782954,
      -0.695376534329462,
      0.7372694380894123,
      0.4231305134707102,
      -0.2861850394522282,
      0.9326932362729723,
      -0.9563576895462895,
      0.5332535732028405,
      0.9699089586216703,
      -0.7429555539907948,
      0.31205064426368145,
      -0.5462677477948751,
      -0.8569436320103745,
      -0.4011577792983284,
      -0.7309342876007032,
      0.6891691958498063,
      0.6489510052225569,
      -0.06548239673903411,
      -0.19707920035223325,
      0.21730343383130024,
      -0.6825546624004493,
      0.7003310643398875,
      -0.3319818467780541,
      -0.5392904703282903,
      -0.6957252228627766,
      0.4178118885104667,
      0.5921135420580521,
      -0.48021546428422324,
      -0.6883941397977891,
      -0.8423315730119332,
      0.09265196767522377,
      -0.31391968702516937,
      -0.27927563333353544,
      -0.08654819134131242,
      -0.33868836500677213,
      -0.6021217387645182,
      -0.9015295920696871,
      -0.055602089627143636,
      0.6973017079479771,
      0.1742831331389525,
      0.7106115648578131,
      0.13228385563140654,
      -0.24821792373613127,
      0.24630450935886183,
      -0.2541069571153315,
      0.7919108120333149,
      -0.6794437455304148,
      0.6923672164207795,
      0.7956416055654048,
      0.2884472524557997,
      -0.11060018288638829,
      0.15779441154212503,
      0.458054082857416,
      0.24861540053182307,
      -0.298819857914839,
      0.5154746433290471,
      -0.26427829698064664,
      0.7875923840419463,
      -0.06159395448769378,
      0.5195877469414945,
      -0.052841180504299645,
      0.4342440560930896,
      0.5794317440230725,
      -0.5107766185005745,
      -0.9727305301976101,
      0.2809912103214234,
      -0.8484358277520858,
      -0.6689836266929801,
      0.6343751553828056,
      0.7327027987377353,
      0.864457735892814,
      0.5759396998850934,
      0.10547888507674164,
      0.6511624724471536,
      0.2820702774383246,
      -0.3967971786006389,
      -0.768999440331676,
      -0.6222518654405568,
      0.49826754935835527,
      0.9270122012533855,
      -0.7382458862968702,
      -0.8766446714515781,
      -0.8065686790274706,
      -0.09383832284489624,
      0.54122130950425,
      0.6125616785589796,
      -0.1460074349838567,
      -0.49367708416952627,
      0.03200090359792562,
      0.2749537585586872,
      -0.7168173339742094,
      -0.4960618181404829,
      -0.6126193680234032,
      0.2727224078933361,
      0.4969118533466059,
      0.7082166940458583,
      -0.09177425418925744,
      0.8401215765572805,
      -0.5529189656017562,
      0.3400910224939355,
      0.012843618536598767,
      0.7285093967538963,
      0.5553714071365481,
      -0.8771840131894262,
      0.23725781407239332,
      0.9416484124496014,
      0.7373367494459768,
      -0.14115362709381807,
      0.16198540005872908,
      -0.8781731531155073,
      -0.4587662438974339,
      -0.6749392227006754,
      -0.0180962399450999,
      -0.7034120245929465,
      -0.7534950053232681,
      -0.6153590867254736,
      -0.04856006252931988,
      0.958055533762137,
      0.6090555475901054,
      -0.6966255069758751,
      0.8068367836826638,
      -0.2757033704257451,
      -0.8414608900528537,
      -0.2863925785352882,
      0.3512481556068685,
      0.902881150219272,
      0.9106361464201842,
      0.4693595900651777,
      -0.5283142074931545,
      0.08541436515415124,
      0.6332591230891391,
      0.7905427160033174,
      -0.9062799084039073,
      0.9711074357504379,
      -0.8161098908758451,
      -0.19714004674502905,
      -0.6760653738204896,
      0.07286583832466564,
      -0.6869223124309931,
      0.4591208809548981,
      -0.0640051189955837,
      -0.5077193023379979,
      0.07776437486171228,
      0.018510231179387437,
      0.3740686867617422,
      -0.20364590360763635,
      -0.9864515744297382,
      0.44443709583906466,
      -0.44274314850471475,
      -0.7131963331474949,
      0.823042035896207,
      -0.18925765352838586,
      0.4060199806438545,
      -0.43164594462492445,
      0.3286568898055948,
      0.49970550884000997,
      -0.32550633447830923,
      0.7568892030994814,
      -0.6566436922264511,
      -0.6837440310257676,
      0.25338492306324034,
      -0.9278608592029838,
      0.18549241598201793,
      -0.8222351373415293,
      -0.6986334905599128,
      -0.6111890081324559,
      -0.47127506028658617,
      -0.7776676843672496,
      -0.4627592290596779,
      -0.0864630994371216,
      -0.5137845872938008,
      -0.23766323269267775,
      -0.6738500050568601,
      -0.9089803210500826,
      0.7463486755644788,
      -0.6380663962492705,
      0.7174775309281083,
      0.865552096161974,
      -0.09112220199911536,
      0.45258933913887156,
      0.48672616554084436,
      0.3509646372928519,
      -0.5702836697403918,
      -0.03726067820161982,
      0.3375703460945265,
      -0.17112403922743247,
      -0.5483889450575349,
      0.7024326268050878,
      0.16704751451861655,
      -0.18635311453010783,
      -0.2951170559965889,
      0.9064760579459175,
      -0.7077398249540243,
      0.0998764528132623,
      -0.5212894952229797,
      -0.05213365759381072,
      0.19733066472322425,
      0.5334845656533944,
      -0.06292446108564165,
      0.684632225246907,
      0.8808621990004641,
      0.5229034420094179,
      0.6211676567328479,
      -0.390945005084144,
      0.9164085683823329,
      -0.5909073445248837,
      -0.5933963431458195,
      0.773786210581437,
      0.9443039658527876,
      0.25476701205584784,
      -0.4818089500177293,
      0.280405069680153,
      -0.42099721041193294,
      -0.7174280732499283,
      -0.733925821588131,
      -0.0890769062700596,
      0.6060188692022987,
      0.47480302658234774,
      0.5772598519810526,
      0.2869211411154782,
      -0.34282967755336446,
      0.7139010701597437,
      -0.6557140602034939,
      -0.4453898150813024,
      -0.3234247847682593,
      -0.5594346506780646,
      0.8021105567085209,
      0.6472901391095212,
      -0.4998584985961839,
      0.14265422508264058,
      0.2931436283636233,
      -0.2554315724458348,
      -0.5042040413787773,
      -0.8675504990151905,
      -0.36047984263375665,
      0.08501613201908031,
      0.700759488430144,
      -0.8283699326314307,
      0.2612135304905039,
      0.6074734004691469,
      -0.3020252774483291,
      0.7865769512525498,
      -0.773332864172263,
      0.14460586556225885,
      0.9630352556926822,
      0.046255738638689925,
      -0.056777136115321314,
      -0.2755654897442138,
      0.8093264993944675,
      -0.5495688880408179,
      -0.16010149507414417,
      0.40875843666825395,
      -0.7102838818770287,
      0.8281773105983459,
      0.3765599841545384,
      -0.2792281486695217,
      -0.25304020721733644,
      0.6002134405209447,
      -0.5993518051059662,
      0.5193505276027106,
      0.41708527117332106,
      -0.38350440798496244,
      -0.6688852987523264,
      -0.34044969766164523,
      -0.42469725915517065,
      -0.9635053733962686,
      -0.052793119449736414,
      -0.6900436711993261,
      0.8357585793213054,
      0.06508959498615119,
      -0.8399147094033994,
      -0.7210371066931196,
      0.796061863236246,
      0.8005715031652438,
      -0.21210726752850406,
      -0.5227949369431316,
      -0.7092080842372881,
      0.9110550142746678,
      0.21757995943014152,
      -0.3975098757251304,
      -0.9998955221684116,
      -0.4545773001810137,
      0.9143061630492086,
      0.5431285303225826,
      0.788748520156417,
      -0.8100166018147643,
      -0.5728902144100462,
      0.13715587010181296,
      0.4075933929273414,
      -0.6388603701828814,
      -0.1817724427815388,
      -0.8662956566971216,
      -0.934012933740012,
      0.5284150515137007,
      0.35995649593528767,
      0.2528946706718862,
      -0.2977462240766847,
      -0.02284243406937736,
      0.8945241421760435,
      0.6154452038015021,
      -0.7241838268456875,
      -0.039419286375889984,
      -0.858579973507029,
      0.5088668555128861,
      0.8549925236056426,
      0.4856984699787217,
      0.7640962360552499,
      -0.8970987020251044,
      0.04607613505251451,
      -0.697920986762155,
      -0.41878028809328416,
      -0.4613787565430897,
      -0.5487864364992191,
      -0.5057834087894063,
      0.12352155817252242,
      -0.7609896945932482,
      0.2900318389151837,
      -0.10494289447978544,
      0.7097564306918156,
      0.4975537444144582,
      -0.1761599975682142,
      -0.057251226396513255,
      0.4968149915616975,
      -0.8688668655587715,
      -0.22077864879197207,
      0.9683031605146053,
      0.9318666078048836,
      -0.8426933121588851,
      0.3461372841739989,
      -0.46282049573363115,
      -0.6958799925405659,
      0.6193105935619094,
      -0.41663132670233416,
      0.9151475468730168,
      -0.9680799662751967,
      -0.6691198000530911,
      0.028709304287386717,
      -0.5520232010982501,
      -0.8229049597609963,
      -0.016896991592431965,
      -0.24574130798854044,
      -0.7984929959193403,
      0.44561898038422876,
      -0.7455796456000625,
      -0.31765152489523396,
      0.03322942653062433,
      -0.937832236534831,
      -0.8218305283255738,
      -0.6941850550349637,
      -0.20759252838503506,
      0.1539824667397125,
      -0.5481466365040436,
      -0.46741835039383994,
      -0.6094074022754329,
      -0.8603598522046401,
      -0.9301560689174773,
      0.17429631827671455,
      -0.44009290234951404,
      0.14877792349272823,
      -0.12717600061612955,
      0.6729298170924674,
      0.1410728577320357,
      -0.4158398720095672,
      -0.8774128730083106,
      0.7989007305854909,
      -0.0858663638649968,
      0.44961182668749333,
      -0.8095475745680187,
      -0.5002923707467896,
      0.05456413420053985,
      0.5707535868084195,
      -0.8232324060382168,
      -0.20295164251109132,
      0.4884079166567561,
      -0.31538314251579436,
      0.9924749203079695,
      -0.5125435890154252,
      -0.1673028173056077,
      -0.5818884844977504,
      0.8078858203691959,
      0.074680435712555,
      0.641208301436746,
      -0.7687477784315901,
      0.21425281001207153,
      0.074590111471456,
      -0.9566521979363394,
      -0.19446176502317036,
      0.38940600536816405,
      0.653519126453622,
      -0.4901800049043191,
      0.07185849542740619,
      0.17679318584196957,
      -0.07379895910840051,
      -0.8945000462074226,
      -0.5003604387372679,
      -0.4882531892655838,
      -0.3067833929291911,
      -0.8411515854520282,
      -0.5460466459111374,
      0.700685391562994,
      0.30968067274751987,
      0.21770346536616114,
      -0.6064031331854566,
      -0.7109321023541924,
      -0.6757616070805215,
      0.63254088434199,
      -0.09774178142939527,
      -0.8608170254664138,
      0.39524843634951634,
      0.10154217345987093,
      0.13447453864351444,
      -0.5150849783596051,
      -0.2776038915500155,
      -0.5774033669729483,
      -0.1647754040646674,
      0.0631584508461287,
      0.6636318575164291,
      -0.8468346878588049,
      0.026606052535466107,
      -0.3557814181414599,
      0.9424749760438811,
      -0.05564696381177581,
      -0.3016260298305421,
      0.04941152396196702,
      -0.37021642223373596,
      -0.680557864223879,
      -0.5376586023252153,
      0.48974850483813825,
      -0.5729926811411062,
      0.27247412468101095,
      0.25512270042055607,
      0.953695721558999,
      0.5847882901948998,
      0.004670675502817856,
      0.6907729649233949,
      -0.8896174223444144,
      -0.08791280446040006,
      0.10510194156122332,
      0.07655307479566686,
      -0.18335227988004665,
      0.10342749687678654,
      -0.4741294870303928,
      -0.37917845016022234,
      0.7320567249129306,
      -0.4860585981957891,
      0.11088925885748302,
      -0.8187579597793557,
      0.6552342079463145,
      -0.7365513595365174,
      -0.5001792107713244,
      0.3955521635159045,
      0.3916028465647503,
      0.3342994443075453,
      -0.45487701495148636,
      -0.7465986324762977,
      -0.0696410655166615,
      0.5934400093402115,
      0.4013337512137436,
      -0.740353195446783,
      -0.8082148091028625,
      0.6292396242524192,
      -0.5161341709215271,
      0.726361978121715,
      -0.08435559968007111,
      -0.7631550738960287,
      -0.5207713276511469,
      0.44658587440652675,
      0.26346915692436235,
      -0.566307520456036,
      -0.5271965249340748,
      -0.46007865608040344,
      -0.12735862396894926,
      -0.8806309233913447,
      -0.2812905211745841,
      -0.3216010993830144,
      -0.9070695104111635,
      0.9379469825186026,
      0.7342581404244406,
      -0.9380899271379883,
      0.5987489954629304,
      -0.3651111655251812,
      0.5235578516720167,
      -0.8272626606346507,
      0.06797028555295692,
      0.8261166102375563,
      -0.37115797418001495,
      0.205297623027467,
      0.3378913238000376,
      -0.8337527056571217,
      0.9567040674157812,
      -0.01311263768437354,
      -0.5661115954424244,
      -0.5589084856604692,
      0.9246254957518523,
      0.7994553058279426,
      0.6554750315050133,
      0.9478849912097083,
      0.6080069626886564,
      -0.8935292325169115,
      0.240027601297488,
      0.05120869581655163,
      0.740589156316485,
      -0.2722018189653864,
      0.4132610433030417,
      0.031920172243167455,
      0.5997515814093051,
      -0.7894894084675776,
      0.16641474961629465,
      -0.2379580600248532,
      -0.148457151875806,
      0.7831169611339672,
      0.023912149155766782,
      0.28162451279838563,
      0.19518822639785038,
      0.6180220081020775,
      0.3195566287233722,
      0.1334036083638146,
      0.2464926519698658,
      0.550745346077921,
      0.5807172607280586,
      0.33311836979334486,
      0.6744436894195878,
      0.33766139344248614,
      -0.10159454379179489,
      0.3783929235347905,
      -0.27090785316564225,
      0.7925453761755943,
      0.3002950938658555,
      -0.12121076802394071,
      0.3932374198515085,
      0.40088796456109566,
      -0.8908414635500006,
      -0.1195953803296288,
      0.012497964887772772,
      -0.2854832307489227,
      -0.7884587976936897,
      -0.8012237643996363,
      -0.32164163791283895,
      -0.38430794444525984,
      0.45395980027919847,
      -0.18812410149943637,
      0.157194232657899,
      -0.43621013969456424,
      0.24241825595461752,
      -0.8066374816798714,
      -0.6355885108555257,
      -0.6767700154578362,
      0.7440338161730713,
      0.41390546285273966,
      0.37119897811250513,
      0.04840966925736612,
      0.9485793952586028,
      0.3278099413320217,
      -0.5507064721899532,
      0.9528174052924387,
      0.633637750587623,
      0.13168391722993156,
      -0.855998761696787,
      0.6087311509123894,
      -0.15383721449566123,
      -0.20954105041590876,
      0.9395022502321755,
      0.14746557562497675,
      -0.8905559854452632,
      0.8015129686088929,
      -0.5944128688364642,
      0.09812395159718945,
      -0.5329430299158736,
      -0.17091173779795032,
      0.6489116425163228,
      0.830199544101216,
      -0.6882654573063234,
      -0.0808195948469026,
      0.19653135360212404,
      -0.37850137350223567,
      0.24350879099614775,
      0.9411536958293714,
      0.7845020943754344,
      -0.0007625595463911505,
      0.5693196583928963,
      0.982536288400504,
      0.8995952360045325,
      -0.17417220485686324,
      0.4262029854287792,
      0.6495568333959332,
      0.14430718543168086,
      -0.4096284139396785,
      0.502891386899992,
      0.5839624813763478,
      -0.6093317719125312,
      -0.4196573627674821,
      -0.716870663779567,
      -0.33008892465482054,
      0.9454097599511893,
      0.3090829043202772,
      -0.49954525415678785,
      0.24516990140255124,
      0.6627572491117517,
      -0.13602392776212935,
      0.13577417788642498,
      -0.780459718945214,
      0.22260599200063802,
      -0.8527316408123076,
      -0.8769005825335849,
      -0.8979066204768307,
      0.6876256792075877,
      -0.910328024949532,
      0.5011127987715143,
      -0.43148286947445935,
      0.08722627407295636,
      0.06626546716030446,
      -0.8774790817649478,
      -0.8418427752871533,
      -0.01885236383417932,
      0.7741910265800693,
      0.533116441112996,
      -0.012883045605517784,
      0.2318684078580031,
      0.6412578549911281,
      0.5464988964695423,
      -0.09392744626092431,
      0.9725605920053573,
      0.43668881756678624,
      -0.642857346958916,
      0.4685034355860995,
      0.21094436050577037,
      -0.4847364468611536,
      -0.1722526365011421,
      0.6855817740974488,
      -0.34219995672831105,
      0.780069089089531,
      -0.43013718628322894,
      0.04603534208382043,
      -0.1685864593648978,
      0.8210008221918264,
      -0.3653863374972145,
      0.49218522584199875,
      0.23236905130734242,
      -0.6254455722736196,
      -0.2844465074167538,
      -0.2738304290754051,
      0.28318893934215006,
      -0.14568840784902437,
      -0.5777981879442534,
      -0.057681997206021185,
      0.6703365165462714,
      0.870180900252699,
      -0.5708135603209351,
      0.7386021787542885,
      -0.019787881584831135,
      -0.10431963953124623,
      0.8894253790461844,
      -0.849465609020851,
      -0.4423166896450378,
      0.017787679223978836,
      -0.7207393236219892,
      -0.19349722613028475,
      0.28514343396965125,
      0.5523533229613928,
      -0.7532609111701825,
      -0.84300604884214,
      0.7546467700739767,
      0.5342786024290951,
      -0.366522251178658,
      -0.9255748375174688,
      0.49812055511766373,
      0.6235322930217229,
      -0.21550347792040392,
      -0.8957921710552315,
      0.4168696198436639,
      -0.9227994297481548,
      -0.08859192316362052,
      0.8964842483225652,
      0.0026813400763219253,
      0.458198046894984,
      -0.3955284653175174,
      -0.8514600146714977,
      -0.295041411935259,
      -0.39034911585958854,
      -0.22090356815444312,
      0.7142089829934806,
      0.6351924400923616,
      -0.40127886897871734,
      0.999031747206157,
      -0.31425760300252514,
      -0.005727874138787614,
      0.34900611325326536,
      0.40888882275385297,
      -0.7180001868426702,
      -0.3567696121668943,
      0.509248495504881,
      -0.8866801971530802,
      0.0457106820996398,
      0.47291294191469535,
      -0.23218664944316258,
      0.259293087453939,
      0.0813629232417934,
      0.4714118579923967,
      -0.33804667132259103,
      0.9282854988403892,
      -0.29819582107101883,
      0.34631758911855415,
      -0.0843772058499821,
      -0.9834226983173697,
      0.42361804519462587,
      -0.27918645425894784,
      0.47197425116002356,
      -0.6699084470986407,
      0.7452963569083733,
      -0.44269510999819006,
      0.6383430000261439,
      0.5238489059627756,
      -0.7357338141317822,
      0.3089266217180311,
      0.7579766741278604,
      0.17940348252358063,
      -0.36185908426291913,
      -0.7723007326477824,
      0.5166355709529435,
      -0.7334932965273766,
      0.13689417162613737,
      -0.6307458525221774,
      0.09206485399992315,
      0.8962953592709479,
      -0.034601634052297436,
      -0.06167728080289536,
      0.7504610012519279,
      -0.22941020236763587,
      0.7291437622811969,
      0.8921336201513679,
      0.8248410844671459,
      -0.7738704318424041,
      -0.7903228114218717,
      0.03228827403348178,
      0.27302603278815885,
      0.42834892050085815,
      -0.6942026307663087,
      0.10838224178637135,
      -0.7626124061246444,
      0.6493029951272726,
      -0.20286936017975798,
      0.20314830250134253,
      0.7450422056842103,
      -0.18631104017315692,
      0.7544597580658694,
      -0.7599039517502226,
      -0.4788250182072121,
      -0.013769981404981868,
      0.7259918092893107,
      0.4298037407642299,
      -0.2050708175480056,
      -0.6147896764126063,
      0.25009294485252265,
      0.32630000202604115,
      -0.6037568995381329,
      0.14789070429601492,
      0.18635052804181496,
      -0.9038482721183145,
      -0.12409589006063748,
      -0.271509357735903,
      0.7010071000425118,
      0.4504245223578043,
      0.769541876854686,
      -0.9057511235852349,
      0.229778754126013,
      0.21000230534160758,
      0.32496662154929745,
      0.6233301287344242,
      0.7701040010839364,
      -0.40899781666382873,
      0.4216660231950293,
      -0.5997399480552791,
      0.06253808440995079,
      0.2698303303872447,
      -0.14598120503536793,
      -0.20299746037176702,
      -0.008221853737718332,
      -0.9927756552708913,
      -0.4434680666581511,
      0.1797067480540535,
      -0.05600656913337487,
      -0.5179515504502933,
      0.3382279873214451,
      -0.17310884866917609,
      -0.38653203137404,
      -0.7320290974449928,
      0.9299149159705706,
      0.36196313731205376,
      -0.26307335720188785,
      -0.3415940811916863,
      0.6960899162240164,
      0.09710527041648498,
      -0.5989890278072773,
      0.9389903389146097,
      0.7123983605698996,
      -0.030528802424821366,
      0.38001112268684767,
      0.5339908596833323,
      -0.6258013829648479,
      -0.6469877177880612,
      0.01293153921691581,
      -0.22419903607446723,
      -0.38231561440641115,
      -0.08380691104369498,
      0.045828928859359186,
      0.09046297341864418,
      0.22085789653079835,
      -0.3177908789681213,
      0.956802582588141,
      0.32319314546679956,
      -0.8801804573780334,
      -0.6876989052920375,
      -0.31705328465984317,
      0.5434807077596466,
      -0.31093540122251173,
      -0.1120814178907723,
      -0.8896448495324809,
      0.9955308404357917,
      0.9617188897306344,
      -0.054951191414401857,
      -0.5784945823946063,
      -0.6301424967855436,
      0.31282993883729016,
      0.7703412819327147,
      -0.4653404897153822,
      -0.5588104023794757,
      0.8628545413924487,
      -0.3405919904964704,
      0.09551493856929638,
      0.8925189296221787,
      0.2521931873275831,
      0.5549800381240204,
      0.003596034305660689,
      0.18433967545784502,
      0.8620868556819099,
      -0.1212861498450788,
      0.1509345585431563,
      -0.22538858292444508,
      -0.14777338636660464,
      0.44508166146304906,
      -0.06355777785017369,
      -0.8970760062689873,
      -0.9600733006945839,
      0.618219801162398,
      0.6554436128124306,
      0.6283223457791003,
      -0.7554292514898235,
      -0.2336404267721719,
      0.8536237284805415,
      -0.04523895822607549,
      0.2816534226171947,
      0.05941320141783524,
      0.05118957419790093,
      -0.7984518736230455,
      0.6442964071854758,
      -0.9788674501975989,
      -0.29439961013080473,
      -0.15511727476657744,
      0.42485491365511385,
      -0.5477611915631474,
      0.8240195819750702,
      0.7689984020210852,
      -0.6520663440822423,
      -0.593942199657182,
      0.8842489605314872,
      -0.7442238463848887,
      0.43747877873683794,
      -0.010484443901072948,
      -0.02266016752335509,
      -0.7828665011905596,
      -0.5655386782791577,
      0.7836372449977551,
      0.32620844064963417,
      -0.9897912987894393,
      -0.24647196528058246,
      -0.21863647099196926,
      0.7993649038300328,
      -0.1649677426678855,
      -0.7199340723792309,
      0.24987011902395184,
      -0.21578626773462006,
      0.6518952790007462,
      0.05302655150115476,
      -0.061728738386030324,
      -0.5650076435640855,
      -0.7722507092503568,
      -0.8549551867161389,
      0.6929202016746152,
      0.8823426495604583,
      -0.37163711775276187,
      0.8637280208809783,
      -0.07054624569287093,
      0.27106939832095933,
      0.9490517672791139,
      0.146179744368234,
      0.3304630670539319,
      -0.3867682576928523,
      0.40121536271496727,
      0.8290338076853176,
      -0.21668673252583992,
      -0.9947997702911322,
      -0.8435872673042173,
      0.3600512608127031,
      -0.07432297858473791,
      0.12931048281994495,
      -0.26918135700651546,
      0.1975911342017549,
      0.7842960495876308,
      -0.005700253070046957,
      -0.496073379808723,
      -0.864344827379663,
      -0.3842938010602345,
      -0.38129705178395745,
      0.12714744337206585,
      -0.7694654471777822,
      0.04767278731965008,
      -0.35474352430937806,
      0.1387703536660314,
      -0.9097928261064347,
      -0.9026594053281851,
      0.5659009779083024,
      -0.7334365045556321,
      -0.10071269522194792,
      -0.8733845197098802,
      0.6362897257036635,
      -0.8406171206802586,
      -0.448711595874271,
      -0.7892391314078302,
      0.8724961802536608,
      -0.11409647320523697,
      0.6728718268565812,
      0.713045751281038,
      0.36055294445321784,
      0.8714528899628591,
      -0.7004507445304857,
      0.2718594395471474,
      -0.4712303812616424,
      0.17470469315265702,
      0.06100784630428158,
      0.9102619689919349,
      0.1454079021344865,
      -0.3715308896199242,
      0.45615702703271777,
      -0.09474981511227498,
      -0.5163762361259913,
      0.9176574506708532,
      0.368714921996266,
      0.34195689390300443,
      -0.5526558530457611,
      0.16241899079222333,
      0.2379455221318072,
      -0.33444239248662677,
      0.9723987387776267,
      0.860928383045032,
      -0.4377672559606206,
      -0.3067032526405161,
      -0.584212856575478,
      0.0759868058973121,
      -0.3278782163302022,
      -0.698823815824376,
      0.9819552977777,
      0.07462967820773003,
      -0.3177360595465525,
      -0.6423164131001604,
      -0.43004654738874526,
      -0.03224281249736527,
      0.5087919039700215,
      -0.970410810321586,
      -0.28146614978779183,
      0.36583923035149835,
      0.00989274468796597,
      0.8797410468152496,
      -0.8219300173281385,
      0.004499606730233419,
      -0.2361864712563333,
      -0.6361862608683202,
      -0.9045387204053368,
      0.2521676425239556,
      0.27066830827716637,
      -0.7101184493169836,
      0.0458743054434152,
      0.6469134405436421,
      0.1862714678834092,
      -0.9040960357682031,
      0.11199059566333758,
      0.627834491049033,
      0.8713298014979123,
      -0.601191898905283,
      0.3508559681639001,
      0.9150536752049359,
      -0.5882756688792882,
      -0.22760173147963525,
      -0.07619579530062714,
      0.4065795492667095,
      0.21070220728405098,
      -0.7116204401845976,
      0.3929495508353462,
      0.35030289627664035,
      -0.6886743932376427,
      0.12322120792898184,
      -0.5429424116174658,
      0.5623382500397427,
      -0.8468590132114859,
      0.5189677604538829,
      0.6541166268645946,
      0.877752773033456,
      0.40801708453833974,
      0.7703951841887422,
      -0.11489656083637034,
      0.7016556081579131,
      -0.7375931299234901,
      0.7639647329014916,
      0.5722180982455556,
      0.2410715684899143,
      0.9651173055665776,
      0.08263344541763629,
      -0.6223458215131953,
      -0.39479931522589895,
      0.24421647905193278,
      0.22031710205987776,
      -0.854642880245954,
      -0.9425116227141852,
      -0.2656732529481126,
      -0.47323191913192575,
      -0.2980058978766137,
      -0.9300086831421202,
      -0.6120337670087398,
      0.8271442408004757,
      0.6343370993190565,
      0.552556299260583,
      -0.11045112221162001,
      -0.07957840746787936,
      -0.19472609569658794,
      0.35712409831379444,
      -0.8370157569865322,
      -0.793230913988876,
      -0.3689489968614791,
      0.8927471714952118,
      -0.49572326111870735,
      0.4785315279226212,
      -0.5940537963074569,
      -0.5936547452831799,
      -0.40241559770465496,
      -0.22446356616215124,
      -0.1492201999700733,
      -0.3129492563811843,
      -0.12202199752034804,
      -0.15140969236459134,
      0.5981787439879178,
      -0.7187338952999056,
      -0.9740245308614042,
      0.10811479396047319,
      -0.5560740154025642,
      -0.26199045217346295,
      -0.7489228255390827,
      0.44684309577729775,
      -0.2943536652445021,
      0.49774148105594995,
      0.8762112500847254,
      0.814234115641105,
      0.2960502011299784,
      -0.026973639078122558,
      0.959732889648536,
      0.8960545811221028,
      -0.2715660710505129,
      -0.020857170844694517,
      0.5749216872958347,
      -0.6889109971549838,
      0.3967339730831887,
      -0.8249928101035775,
      0.7827564816418437,
      0.45281105767061924,
      0.15088987477347326,
      -0.19217290263999742,
      -0.1911888471939991,
      0.10919077150947998,
      -0.06480018131952892,
      0.8152100984385413,
      -0.5139657732083504,
      -0.31596603983562843,
      0.953094804996748,
      0.6916244562357234,
      -0.1851335889313741,
      0.82399085069247,
      0.9571666314039398,
      0.05827166924906302,
      -0.26373524517816305,
      -0.410719223601108,
      -0.9852760778666076,
      -0.21971488601895905,
      -0.3346249131679432,
      0.3057232113372248,
      -0.03969050950926323,
      -0.19890834270968782,
      0.5371772684297325,
      -0.6416762591952656,
      0.14403468571069955,
      0.8210421559003129,
      -0.3954242165543306,
      -0.7588328889487368,
      -0.10731345088440913,
      0.1835753421790851,
      0.2486385969575482,
      -0.17763148545163365,
      0.4912379285889916,
      -0.8206556186464375,
      0.7443137107739513,
      0.7890888929886204,
      -0.9272359582188754,
      0.8374988106040449,
      0.5567548356649805,
      -0.9270714309391441,
      0.6295882186009858,
      0.1769408172355147,
      -0.06720720604041275,
      -0.20285695200235865,
      -0.7961168904069731,
      0.9437158806087886,
      0.26944440704899386,
      -0.41930082830632676,
      0.7395396496795592,
      0.7349363540876652,
      0.8470194595998803,
      -0.58074308299877,
      -0.3837318763933525,
      -0.1206676959814732,
      0.41830987967875743,
      -0.34144658692460517,
      0.41392713731556285,
      -0.3058027881490871,
      -0.07751436980171378,
      -0.12345406105721479,
      0.8311688804194177,
      0.9347445071195644,
      -0.15866064827076065,
      0.07700142779208696,
      -0.20321427981582274,
      0.587061285106635,
      -0.9786048974213566,
      -0.09849411037522526,
      -0.9214591366875866,
      0.6837934780624408,
      -0.9375144695971507,
      -0.9218982045283952,
      0.019714949695919914,
      -0.5967141583488867,
      0.15548472905829613,
      0.6199758393928798,
      -0.010502322112645901,
      -0.026597229940233058,
      0.44641997532087996,
      -0.2980439363085242,
      0.3020995566788962,
      0.804225750330771,
      0.9283113471643727,
      0.9516806171602967,
      -0.6791107991625127,
      0.29611040875444483,
      -0.8972342232802535,
      -0.15221303375360962,
      -0.84297860393279,
      -0.3032872658075435,
      0.9131028702547277,
      -0.1378613700914586,
      -0.980210651149882,
      0.9124424779737028,
      0.83770109615413,
      -0.02646720387357404,
      0.5596412862097124,
      0.7571931648890691,
      -0.28171695804818453,
      -0.7650415433133375,
      0.9298608680715668,
      0.27885875854668174,
      -0.8972646950569807,
      -0.19441930851588451,
      0.36854171114057466,
      0.18435147996973078,
      -0.3571767302511367,
      0.9950755978271708,
      -0.2658423316801949,
      0.032719419296484586,
      0.17629824562323448,
      0.7535902381101831,
      -0.4187823297002796,
      0.5127716474658359,
      0.4727685834707114,
      -0.13788424637930885,
      0.04180011966932562,
      -0.9993240873880449,
      -0.16943851279236832,
      0.4913827824211203,
      0.5865056021935389,
      -0.8244204077794874,
      0.525477781601619,
      -0.8227596757666973,
      -0.33146580858959396,
      0.07529535822738853,
      0.7996513716318927,
      -0.9593962886233127,
      0.3927017958625145,
      0.9450515442332659,
      0.8319369902870828,
      -0.2726152580357407,
      -0.5116179003137565,
      0.6327210026354977,
      -0.3967829805840236,
      0.6666744837673853,
      -0.7466102261905188,
      -0.2127375120874715,
      -0.7727776455239215,
      -0.6429412435521109,
      -0.928535507983693,
      0.14445360369331905,
      -0.9501763601383777,
      0.9714101338085768,
      -0.2043557336803803,
      -0.9482120189515983,
      -0.3450729886883862,
      -0.9770557902869932,
      -0.45921641446196515,
      -0.22590742164931998,
      -0.5723601536550772,
      -0.2595951177534225,
      0.7598336869784723,
      0.5822534267873629,
      0.677131406166323,
      -0.5524364268095957,
      0.5810612827722923,
      0.21503526447067567,
      0.982708138525358,
      0.8727294592387898,
      0.12445367095462445,
      0.9702532085867062,
      -0.008044355518845192,
      0.06830405343151758,
      -0.9201033848953055,
      -0.9536530044828178,
      0.1739213289228292,
      -0.9110832703253804,
      0.3610565427806851,
      0.07363157842500256,
      0.3360573897137191,
      0.4100402805301433,
      -0.9826430149405105,
      0.11647299182303095,
      0.35374840452537293,
      0.3411838966799057,
      0.7583937491640818,
      0.4223587454874751,
      0.9803027000343532,
      0.7713293818385347,
      -0.9255746962683364,
      0.9521333361477207,
      -0.42410356152904727,
      0.3110664037926225,
      -0.1386004572225732,
      0.10286205824748129,
      -0.018775570553067,
      0.8040748325670388,
      0.9508815480625112,
      0.9410177092541998,
      0.5325017809420989,
      0.8535999683741609,
      0.7357510089914254,
      0.12241011078321429,
      -0.08066809361605887,
      0.21108909720024704,
      0.11701779449448879,
      -0.5058904786504835,
      0.4701980265698127,
      -0.6912307677791687,
      -0.643870896140466,
      -0.11251979881925167,
      0.9696035944195307,
      -0.7664858959068304,
      0.9577087944743252,
      -0.04603420767046296,
      0.24957494099838784,
      -0.817372544373931,
      0.5346133540737776,
      0.5102337305099041,
      0.46090907419044647,
      -0.2933575797219591,
      -0.5994718915582727,
      0.260363683210757,
      -0.850920336770379,
      0.2997026195504804,
      0.22465316338160757,
      -0.6203779446100434,
      -0.8059977049767952,
      -0.864039585492101,
      -0.14055734047847035,
      0.49507840221030297,
      -0.35336994275250155,
      0.8397586230917127,
      0.7684025854600787,
      -0.38778274304463245,
      -0.608679244015525,
      0.11030200841990223,
      0.5910809818954159,
      -0.2358494567467908,
      0.599542178448536,
      0.6012731737788393,
      -0.6602296295477501,
      0.09569698354556233,
      -0.3479944610095428,
      -0.7195426551277206,
      -0.959026474757338,
      -0.3513357583580822,
      0.5942479116453443,
      -0.36786985079491286,
      -0.7147148402211712,
      0.5909063724993016,
      0.02994638939346328,
      -0.7875359256059307,
      0.9777897810624245,
      -0.7077524970562634,
      0.8245877921340008,
      -0.4641831728772571,
      0.494745665881837,
      -0.34852645640597835,
      0.38989861800536496,
      0.724993057467052,
      -0.8526140570092746,
      0.7899562082173253,
      -0.5564188157573725,
      0.4761125961600532,
      0.2746378368089355,
      0.6592631775042843,
      0.5604534515833444,
      0.11887569599553971,
      0.20474899673825608,
      -0.7249473455127835,
      -0.3798445507061924,
      -0.01945297708077498,
      -0.9876735900594209,
      -0.023463813950351797,
      -0.49690967964640487,
      -0.8845413554075661,
      0.741813288997788,
      0.2765956170825692,
      0.901852584746619,
      0.46534337373279144,
      -0.5967869831639335,
      -0.38704511913338313,
      0.21044467604381167,
      0.8311984249476772,
      -0.05988830693792546,
      -0.1534018608671215,
      0.4554683767928578,
      -0.6950552576619464,
      0.3300720436564497,
      -0.5656022789976255,
      0.8558511632283325,
      0.5799433608682363,
      -0.17019887268837341,
      0.7492245448500237,
      0.7725051859210659,
      -0.7287432770204343,
      -0.8450792712617683,
      -0.34661105397559744,
      -0.09498539901474978,
      0.045182176930391504,
      -0.7679836990650664,
      -0.5394686974272601,
      -0.7946926041172064,
      0.7066068543489825,
      0.9263827920726597,
      -0.20765973086810496,
      -0.2358066242957102,
      0.863875987952599,
      0.9731781044431269,
      0.8228248261350766,
      0.7065768808684783,
      0.8427306556842766,
      -0.24867712005287124,
      -0.7738483292006118,
      0.204142545170922,
      -0.6682239943745603,
      0.0502229428986809,
      0.16596369444933257,
      0.6235774301572983,
      -0.6688164058715089,
      -0.3937849937689627,
      -0.19252264280359754,
      -0.99697421141834,
      0.19152734029168816,
      -0.10974370040610215,
      -0.24524973534743943,
      -0.34244682251191916,
      0.23085408945536012,
      -0.3540102237510617,
      0.8068883227497365,
      -0.8360442820457208,
      -0.8648192798153538,
      -0.3594686191070452,
      0.3982722899861664,
      -0.26138847475160076,
      0.19362523923579178,
      -0.13109393727196106,
      -0.8109780274582463,
      -0.37084590979311594,
      0.9639605353178591,
      0.026311113252774687,
      0.635766131990859,
      0.566935694336788,
      -0.2867636933751968,
      -0.299785091909892,
      -0.20285566632968677,
      -0.08141509823915949,
      0.6357563071871688,
      -0.24510653475359656,
      -0.6225342401388362,
      0.45452716031895135,
      0.7711702004244585,
      -0.014963678685125936,
      0.29222672954385076,
      0.10980204847229103,
      -0.04958338939835616,
      -0.02638019846021833,
      -0.5150798319646149,
      -0.7585071071942631,
      -0.13515628360409626,
      -0.6268776282133621,
      -0.05281490101874575,
      0.533218169486601,
      -0.6851323525840205,
      0.3558536139523716,
      0.32941557794145315,
      0.1407267669462977,
      -0.5909668728248819,
      0.9357609810303473,
      -0.3553475932865381,
      -0.6381895282482972,
      -0.5718547149390826,
      0.2882052523564369,
      0.5118655296609447,
      0.23779487760348927,
      -0.2971290444186726,
      0.5267802299467643,
      -0.23756213150140693,
      -0.23244734686199453,
      -0.24603015537858686,
      -0.5008356063426168,
      0.6949927763546251,
      0.02614301451876,
      -0.3829488537642164,
      -0.44339360793975613,
      0.9106506051224943,
      -0.8415868690460622,
      -0.39904325485412684,
      0.845960895998338,
      -0.025713309505630333,
      -0.8694083413882847,
      0.2745378787693189,
      0.8807679293226633,
      -0.7042444378982724,
      0.6493604056926712,
      -0.053713893420344716,
      0.25530395732272493,
      -0.366924922574133,
      -0.20847660786696331,
      -0.2635834481247089,
      -0.9387136223412353,
      0.048705602971341966,
      0.2734176251000646,
      0.6949948745383443,
      0.19043727412932276,
      0.28787116304856863,
      0.3960348273821348,
      0.3911678582353695,
      0.9797863909665154,
      -0.028187235956147694,
      -0.07258838095146536,
      0.7006646322096239,
      -0.27565980297438875,
      0.5623976722556399,
      0.2426218164778582,
      -0.5963424044863753,
      0.17611830356009084,
      0.3020888845612515,
      -0.7549064265717456,
      -0.8847861595342454,
      -0.03936656761109636,
      0.11988397161154274,
      0.4716381542426513,
      0.2673160785477873,
      0.9048648001767341,
      0.08166384410212468,
      -0.18549832574811442,
      -0.7669044971721308,
      -0.32925682598573613,
      -0.0014439980060390045,
      -0.7553125829675627,
      0.5786631215106603,
      0.4874242772868349,
      0.9229618862534732,
      0.49555189479034234,
      -0.8675737036606797,
      -0.42787169356797106,
      -0.7146600433550918,
      -0.031175525631316647,
      0.8642823603985863,
      0.9120600247506743,
      -0.9227850585660846,
      -0.20482054115745574,
      -0.8971409321852373,
      -0.710069306352632,
      -0.6455276998594028,
      0.33807413759808713,
      0.34393369457115086,
      0.9934807514905448,
      -0.4776431548230894,
      0.650459378664979,
      -0.3156530000445511,
      -0.8154028990336086,
      0.926755101220766,
      0.9260802256382816,
      0.12547310456555905,
      -0.15297595161677102,
      -0.11286934741608534,
      -0.2600329933666704,
      -0.14429952555816672,
      -0.8236007924498931,
      -0.4558171255929614,
      -0.809030938284641,
      0.6316571353361602,
